#ifndef HARDWARE_LERP_PSA_RESMLP_LAYERS_4_EMBED_96_H_MUL_1_LERP_PSA_8_64_EPSILON_1E_0_QUANT_PARAMS_H
#define HARDWARE_LERP_PSA_RESMLP_LAYERS_4_EMBED_96_H_MUL_1_LERP_PSA_8_64_EPSILON_1E_0_QUANT_PARAMS_H

#include <ap_int.h>

const ap_int<8> embed_linear_w[48][96] = 
{{25, 31, 39, -7, 25, -13, 44, -46, -72, 64, 22, -44, 33, 34, -25, -5, 76, 15, 55, 27, 3, -19, 33, -45, 15, -13, -50, 16, 31, -4, 0, 14, -18, 20, 66, -24, 13, 7, -13, 47, 25, 2, 32, -19, 0, -41, -61, 24, 56, 10, 28, 22, -39, 98, -49, 9, 3, -9, -18, 24, 20, 59, 16, -46, -23, -26, 48, -17, -42, -10, -38, 7, -13, -33, 16, 19, -9, -66, 17, -50, -78, -25, -68, -13, -33, -6, -21, -28, 82, -27, 17, -6, -36, -63, -5, 38},
{3, 12, -60, -33, 17, 8, 6, -40, 11, 14, -14, -17, 43, 68, 37, 42, 22, -23, -14, -2, 29, 29, 16, -38, -15, 46, 45, -2, 38, 5, -16, 27, 9, -59, 11, 25, 25, -25, 26, 81, 46, 12, 46, 3, 23, -87, 38, -28, 36, -49, 6, -10, -32, 71, 89, -9, 11, -51, -4, -56, 11, 75, 26, 6, -47, -36, 21, -26, -13, 38, 36, 37, -64, 19, 16, -60, -24, 6, 25, -27, -30, 67, 9, 39, -28, 21, 18, 67, 18, -27, -52, -16, 84, -24, 22, -12},
{-27, -31, 14, 48, 18, 46, -45, 13, -46, -68, 32, -9, 4, 46, -13, 22, 29, -32, -22, 15, 51, -21, -92, -48, 15, 28, -20, 16, 5, -35, -20, 22, 18, -39, -19, 13, -25, -77, 66, 75, 24, -50, -43, 36, -109, -26, 26, -17, 35, -58, -2, -7, -2, 10, 34, -17, -5, -29, -10, 45, -24, -32, 33, 23, 37, -14, -9, 23, -18, -20, 22, 42, -66, 8, -32, -63, -26, -4, 59, 32, -22, 61, 4, 28, -7, 15, 34, 72, -20, -1, -21, 34, -20, 26, 3, -56},
{-8, -56, 92, -69, -2, -34, 54, 47, -34, 37, -28, -48, 28, -41, -9, -57, 16, 13, -62, 10, -28, 15, 62, 59, 16, -58, -34, -24, 20, -12, 15, -16, 4, -12, 90, -3, -22, 19, -59, 28, -4, -30, 49, -2, 14, 76, -42, -43, 52, 51, 46, 1, 72, 74, -42, -6, 14, -56, -16, 40, -16, 55, 8, -21, 19, -32, 57, 22, 60, 14, -48, -32, 30, -54, 4, 18, 18, 6, -24, -78, -15, -55, -3, -82, 49, -13, 31, -62, 64, 0, -2, -35, 1, -39, 24, 37},
{27, -31, -25, -9, -7, -36, 32, 19, 13, 0, -46, -5, 23, -31, 22, 19, 30, 34, -75, -70, 44, -7, 8, 79, -61, -47, 67, -65, -14, 25, 15, -32, -1, -35, 37, 43, 29, 5, -6, 82, -70, 9, 64, 32, 16, 77, 36, -78, 45, 1, -2, -20, -11, 20, 14, 14, -7, -28, 8, -4, 14, 90, 26, 38, -34, 1, -12, 9, 62, -5, 46, 55, 27, -12, 31, -70, 32, 46, -60, -34, -15, -36, -4, -24, 78, -15, 60, 65, -13, 3, -59, -44, 48, 44, -14, 9},
{-12, -6, 10, 17, 4, 29, -12, 82, -28, -33, -3, 5, -34, -86, 4, 26, -39, 45, -75, -4, 37, 62, -86, 56, 18, -18, 26, -34, 18, 60, 17, -7, 30, -37, -11, 21, 30, -52, 54, 100, -67, -26, 16, 88, -74, 75, 9, -58, 42, -48, -21, -16, 53, -39, -34, 2, 1, 12, -2, 0, -13, -30, 5, 19, 69, 27, -14, 30, 63, -14, 30, 46, -5, -16, -48, -29, 17, -20, -13, 45, -45, -61, -28, 11, 63, 28, 43, 50, -23, 20, -46, 47, -7, 68, -44, 21},
{7, -13, 46, -35, -10, 14, 24, -45, -58, 30, 3, -65, 80, 44, 17, -39, -20, -21, -1, 42, -38, -1, 52, -70, -41, 24, -16, -25, 0, -39, 2, -11, -6, 19, 97, -29, -79, 83, -45, 37, 42, -7, -32, 33, 56, 3, -26, -49, -5, 27, 51, 48, 45, -17, 5, -26, 11, -4, -34, 82, -3, 38, 1, -15, 31, -12, 59, -5, 46, -37, -63, -24, 10, 61, 10, 74, 11, -50, -16, -95, 37, 69, 30, 7, -48, 3, -5, -27, 0, 10, -12, -62, -15, -48, 52, -44},
{13, 48, -71, 54, -27, 61, -3, -117, 4, -15, -21, -22, 74, 90, -1, 0, -68, 26, -5, -34, 53, 17, 11, -68, -94, 60, 18, -41, -16, 18, 2, -15, -48, 18, 45, -46, -79, 73, 0, 70, 34, 42, 40, 50, -10, -9, 5, -75, -54, 8, 8, 66, -50, -85, 30, 28, -6, 13, 6, -18, 14, 77, -7, 32, -42, 6, 42, -19, -13, -9, 36, 66, -4, 96, -7, 21, 30, -65, 2, -25, 69, 6, 2, 27, -57, -37, 27, 73, -64, -2, -70, -85, 47, 32, -20, -41},
{-14, 52, 3, 26, -22, 70, -42, 6, -47, -60, 22, -7, 36, 33, -16, 62, -99, 33, 7, 28, 49, -17, -83, -40, -23, 49, -11, -45, 18, 52, -13, -8, 25, 3, -6, 28, -52, 26, 38, 96, 21, 27, -12, 63, -74, 20, -3, -20, -19, -51, -16, 25, 33, -78, -19, 9, 0, 19, -13, 6, 15, -23, 6, 37, 16, 38, 28, -12, 39, 15, 39, 22, -6, 68, -55, 48, 5, -86, 10, 37, -47, 2, -47, 117, -49, -9, 8, 67, -64, 9, -19, -19, -23, 44, -33, -3},
{-21, 9, 42, 23, 1, -90, 41, 46, -74, 67, -7, -37, 45, -53, 5, -11, 59, -33, 69, 13, 2, 56, 14, 9, -26, 3, 59, 40, -53, -2, 18, 12, -36, 35, 65, -39, 75, 2, 2, 33, -29, -39, -10, 53, 26, -6, -41, -48, 59, -4, 37, 32, 22, 9, -1, -17, -9, 7, -21, 96, -9, 65, 10, -48, 6, 40, -36, 10, 8, -75, -25, -37, 45, 39, -6, 23, 5, 16, 6, -49, -35, 42, -4, -57, 1, 11, 14, -46, 109, 0, 34, 58, -7, -55, 13, -30},
{-33, 6, -40, 16, 3, -17, -26, -31, 7, 15, -59, -4, 36, -1, 25, 29, -12, -6, 76, -14, 64, -20, 18, 34, -14, -12, -32, 46, -28, 3, -4, 2, -11, 24, -18, -24, 86, 11, 10, 61, -1, -56, 93, 34, -7, -28, 52, -96, 21, -22, 5, 42, -21, -11, 58, 11, 14, 23, 9, -70, -38, 82, -16, 5, -22, -8, -10, -23, -18, 82, 34, -32, 45, 40, 26, -44, 24, 79, 10, -24, 3, -21, 25, -49, 19, 8, 67, 57, 68, -11, -34, 1, 85, 20, -5, 21},
{-62, -10, 67, 6, 26, 11, -38, 44, -59, -35, 36, -2, -23, 1, -38, 64, -14, 41, 44, -12, 36, 36, -77, 1, 21, -4, -56, 4, -7, -51, -35, 0, 18, 8, -68, 32, 31, -40, 56, 89, 46, -41, -15, 55, -83, -2, 20, -64, 48, -39, 0, 35, -5, -29, -3, -62, 3, 28, 18, -16, 14, -49, -25, 0, 15, 14, 58, -5, 29, 46, 33, -32, 13, -8, -22, -20, 6, 32, 35, 26, -58, -22, -48, -2, 36, 27, 22, 60, 56, 26, -11, 35, -16, 52, -29, 56},
{13, 36, 59, 63, -36, 20, 7, 36, -32, -9, 25, -13, 32, 28, -19, -36, -42, 17, 38, -18, -8, 17, 27, 1, 33, 32, -100, 2, 28, 13, 29, 1, -56, 41, -8, -12, 5, 41, -49, 2, -6, -11, 33, 0, -14, -22, -66, 4, -14, 2, 38, -29, -19, -14, -59, 43, -15, 11, 18, -19, 12, 16, -9, 0, 13, -33, -33, -11, -61, 35, -2, -7, 24, -66, 42, 51, -20, -53, -9, -54, -7, -62, -45, 43, 48, -66, 35, -53, 4, 27, 6, 75, -18, -28, -26, 26},
{41, 39, 9, -75, -23, 17, -1, 49, 50, -30, -36, -8, 69, 80, 45, -61, -110, -42, 22, -5, 2, 42, 0, -34, -67, 43, 36, 18, 23, 51, 7, -14, -27, 10, -48, -27, 47, 49, -7, 9, 11, 19, 30, -16, 58, -41, 47, -10, -76, -49, -12, -11, 55, -30, 17, -22, 14, -44, 15, -15, 2, 36, 18, 12, -32, -3, -32, -27, -11, 0, 31, -87, -53, 13, 28, -40, -1, 76, -65, -19, 85, -8, 47, 67, -5, -55, 61, 77, -21, 39, -8, 69, 83, 23, 50, 64},
{30, -19, 56, 6, -25, 8, -19, 15, -43, -54, 15, -2, 57, 58, 18, -78, -15, -17, -9, -4, 37, 69, -42, -60, -19, 54, -46, 2, -19, 6, 20, -9, -53, 47, -61, 24, -65, 15, 29, -14, -8, -36, -52, 30, -13, -19, 17, -12, -27, -71, -10, -35, 47, -41, 3, -25, -12, -31, 55, 31, -31, -34, -21, 1, 40, -79, -22, -5, -1, -75, 22, -54, -38, -13, -73, -12, -19, 38, -5, 25, 83, -5, 76, -49, 46, -53, 36, 74, 0, 13, 24, 79, -13, 44, 31, -40},
{59, -53, 38, 33, 23, -34, 48, -43, -63, 41, 22, 17, -8, -33, -29, -67, -58, -13, -15, 23, -45, 11, 44, 48, 70, -31, -74, -66, -18, -42, -31, 27, 97, -10, -20, 38, 17, -72, -28, 9, 28, 29, 10, 7, 10, 63, -42, 43, -45, 43, 63, 3, -7, -29, 30, 3, 5, -23, -25, -67, -21, 50, -17, 49, 59, -11, 34, 3, 3, 71, -14, -15, -29, -57, 30, 89, -4, 73, 16, -74, 27, -3, 4, 29, -33, 71, 27, -46, -34, -13, -1, 1, -32, -52, -88, 2},
{113, -13, -85, 69, 7, -11, 74, -15, 11, -12, 26, -3, 39, -35, -1, -60, 48, -17, -13, -32, -3, 31, 10, 74, -12, -90, 51, -60, 31, -44, -19, 12, 56, 14, -60, 44, 15, -108, 25, -21, 55, 96, -24, 23, 66, 8, 24, 59, -65, -29, 10, 22, -49, 15, -13, 19, -14, 1, 28, -65, 20, 60, -38, 66, -109, 6, 41, -13, 25, -9, 60, -79, -65, 19, 33, 65, 9, 94, -49, -28, 5, 75, -11, 1, -93, 101, 40, 79, -65, -21, -33, -36, 24, -29, -96, -22},
{102, -20, -32, 53, 9, -27, 19, 9, -46, -32, 36, 16, 22, -40, -21, -11, 51, 2, -16, 34, 35, 24, -57, 58, 52, -45, 13, -30, 23, 23, -10, 5, 22, 46, -47, 22, 22, -91, 51, 4, 3, 4, -65, 43, 23, 39, 10, 21, 2, -43, -22, -40, -10, 2, 13, -8, 10, -2, 27, -14, -1, -42, -5, 19, 12, -4, 24, -13, 21, -62, 48, -11, -43, -13, -67, 93, -8, 70, -44, 37, 9, 18, -1, -46, -81, 46, 36, 74, -18, -26, -10, -20, -35, -10, -99, -28},
{-17, -8, 45, -59, -22, 62, -79, 43, -79, -1, 46, 23, 46, -50, -33, -46, -14, 4, -24, -5, -24, 7, 39, -22, 73, -63, 0, 2, -77, -76, -10, -10, 18, -52, 17, -12, 10, 9, -83, -3, -44, -29, -8, -20, -22, -4, -32, 100, -14, 12, 39, -24, -49, -66, 33, -46, -24, 26, 10, -6, -25, 53, 10, 22, 50, 12, -13, -5, -33, -29, 8, 18, 4, -29, 33, 22, -40, -9, 82, -71, -2, 14, 38, 25, 41, 26, 4, -45, -43, 29, 39, -22, 17, -71, 117, 20},
{16, 41, -36, -55, 39, 61, -89, 17, -35, -38, -19, 21, 54, -37, -60, -38, 39, -25, -5, -40, 32, 20, 18, -21, -15, -73, -12, 35, -17, -23, 8, -20, -103, -3, -5, -117, 14, -34, 0, -25, -83, 18, 19, -33, 5, -50, 52, 115, -30, -64, -2, 26, -76, -34, -96, 30, -64, 54, 39, -43, -6, 78, -4, 14, -89, 62, -33, 7, -37, -10, 79, 46, -53, 15, 19, -41, -66, 2, 93, -12, 19, -35, 1, -68, -9, -10, -29, 65, -81, -7, 46, -61, 28, -31, 102, 26},
{33, 45, 31, -89, -2, 35, -66, 41, -74, -25, -4, 21, 44, -15, 9, -16, 32, 28, -5, 19, 38, 64, -74, -24, 55, -48, 27, 24, -46, 24, -4, -27, -53, 24, -28, -57, 73, -6, 10, 10, -82, -14, -53, 28, -24, -52, -2, 95, 19, -37, -28, -49, -66, -15, -44, -34, -27, 34, 26, -23, 1, -37, 9, 32, 7, 31, 0, -16, -14, -22, 58, 64, -7, -3, -62, 31, -50, -34, 6, 45, -44, -56, -24, -40, -34, -7, -45, 42, -31, 22, 77, -54, -24, -11, 88, 39},
{-43, -35, -19, 49, -54, -16, 25, 40, -79, 54, 23, -21, 21, -98, 40, -18, 56, -12, 15, -7, -11, 1, 12, 40, 42, 34, 16, 34, -37, 39, 8, 24, 60, -18, -20, 40, -6, 11, -41, 10, -16, 23, -67, 22, 42, -16, -56, 55, -21, 17, 30, -12, -1, 1, 49, 33, -21, 30, -19, 78, 34, 28, 28, 19, 27, 36, -46, -12, -21, -78, -20, 13, 33, -7, 55, -4, -18, -54, -11, -66, 18, 9, -32, 62, 30, -29, 21, -57, 2, 4, 4, 80, -43, -53, -40, -46},
{-34, -47, -98, -49, -49, -37, -5, -33, -7, 0, -49, -3, 29, -36, 19, -36, 24, -19, -3, 20, 22, 22, 25, 21, -14, 19, -64, 73, 34, 94, 13, 16, 63, -41, -69, 53, -67, 4, 11, -4, -27, 33, 39, 21, 63, -47, 22, 40, -55, -29, 6, 43, 12, 21, -11, 108, -7, 14, 21, -19, -36, 49, 13, 27, -36, 0, 25, 16, -28, 61, 11, 4, -45, 11, 42, -31, -3, 35, -41, -24, 74, -34, 36, 10, 34, -50, 62, 82, -5, -51, -4, 24, 30, 15, -16, -63},
{-28, -70, 28, -27, -41, 3, 35, 8, -56, -40, 13, -12, -18, -41, 6, -45, 53, 0, -16, 6, 21, 28, -41, 18, 2, -7, -25, 67, -35, -17, -33, 2, 40, -25, -53, 43, -103, -5, 48, -5, 60, 20, -56, 32, -24, -72, 6, 35, 1, -74, -13, -13, -12, 37, -13, -10, 12, 3, 46, 48, 49, -58, 2, 27, 15, -36, 69, 11, 16, 18, 17, -60, 9, 29, -78, 11, -7, -29, -80, 33, 26, -50, 13, 1, 27, -33, 41, 60, 39, -18, 18, 6, -16, 33, 6, 46},
{-51, 29, -43, 76, 30, 24, -41, 11, 0, -12, 10, 16, -23, 14, 15, 50, 35, 33, -28, -7, 42, 11, 23, -16, 60, 39, -1, 16, 38, 15, 0, 10, 13, -39, -18, -8, 23, 46, -30, 26, -22, -24, 7, 9, 7, 23, -70, 16, -10, -23, 44, -60, -61, -42, -93, 32, 4, -13, -20, 73, 11, 28, 38, 12, 24, 8, -44, 6, -80, 81, -13, 71, 37, -25, 38, 59, 18, -55, 45, -27, 25, -19, -64, -29, 5, 6, 2, -67, 0, -9, 10, 57, -21, -13, -51, -55},
{-56, 26, -82, -66, 19, 5, -59, 45, 42, -69, -47, 3, -45, -5, 69, 65, -20, 2, -73, 26, 6, 81, 4, -17, -2, -10, 99, -16, 14, -4, -28, 18, 103, -87, 32, -59, 30, 98, -21, -11, 29, 1, 18, -24, 80, -14, 32, 12, -8, -78, -9, -6, 21, -17, -56, -40, 18, -23, 32, 37, 12, 31, 58, 25, -58, 77, -14, -7, 13, 46, 22, -3, 4, -19, 32, 9, 46, 10, 8, -17, -27, 46, 19, -38, -48, 43, 34, 43, 23, 17, 15, 41, 47, -25, 33, 44},
{-58, -56, 20, 28, 18, 29, -11, -71, -4, -82, 5, 16, -19, 11, 55, -1, 26, -19, -77, -12, 2, 19, -55, -27, 74, -1, -6, 3, 17, -8, -13, 13, 34, -26, 14, -30, -59, 78, 12, -12, 47, -62, -50, -34, 23, 29, 23, -3, -5, -51, -14, -43, -25, -29, -22, -7, 3, -13, 45, 50, -16, -38, 31, 5, 44, -35, 50, -17, 28, -35, 13, 1, 28, -29, -83, -19, 37, -6, 32, 21, -14, 44, -15, -119, -25, 6, -18, 34, 16, -24, 31, 41, -32, 16, 67, 35},
{-27, 86, 3, -67, -18, -3, 22, -2, -9, -6, 19, 46, -10, 20, -8, 67, -56, -63, 55, 12, 0, -51, 30, 42, 66, -35, 19, -1, -10, -52, -19, -26, -32, 56, -6, 75, -39, -33, -45, -20, -11, -26, 11, 64, -59, -3, -37, 19, -18, -30, 57, -3, 23, -51, 66, 42, 19, -18, 18, -6, -25, -13, -30, 53, 75, -23, -68, 8, -77, 56, 3, 92, 45, -23, 64, -40, 32, 32, 39, -58, 78, -21, -4, 56, 83, 52, 70, -37, -8, -16, 44, 22, 5, 24, -45, -41},
{-77, 121, -1, -28, -26, -34, 79, 29, 55, -26, -78, 15, -6, -66, 56, 99, 43, -92, 44, -6, 15, 70, 11, 88, -59, -84, 21, -20, 46, -87, -13, -28, -62, 104, 61, 65, -79, -17, 42, -13, 32, 48, -2, -37, -56, -15, 41, 21, -27, -97, 6, 14, -12, 22, 10, 62, 2, -52, 44, -16, 49, 54, 11, 62, -75, 55, -10, 35, -19, -49, 18, -16, 37, 6, 43, -126, 36, -36, 2, -11, -14, 36, 6, 59, 64, 48, 46, 85, -33, 10, 91, 0, 17, -50, -8, -19},
{-69, 91, 64, -63, -13, -31, 65, 3, 4, -63, -61, 3, -35, -33, 81, 72, 57, -82, 55, 22, 37, 84, -36, 54, 39, -57, -20, -60, 8, 42, 15, -33, -71, 124, 28, 27, -14, 21, 30, 2, -9, -56, -18, -14, -31, 12, 10, -4, -26, -69, -9, -27, -26, -2, 42, 76, 26, -43, 38, -28, -14, -51, 29, 12, 47, -52, 21, -2, 1, -57, 34, 30, 71, 8, -80, -69, 26, -19, -27, 28, -10, 9, -15, 18, 6, 32, 19, 50, 10, -17, 78, -14, -20, -20, -2, -18},
{33, -27, 12, 43, 81, 4, 19, -55, -4, 51, 91, 52, -57, 48, -64, 49, -79, -22, 15, 1, -9, -5, 26, -70, 68, -1, 86, -31, -74, 34, 25, 2, 81, -88, -47, 26, -14, 27, -67, -12, -28, -30, -22, 26, 12, -25, -35, -33, 13, 9, 66, 12, 71, -59, 79, -124, -14, 7, 10, 13, 14, -7, 41, 37, 37, -46, 14, 7, -27, 50, -10, -49, 17, -55, 30, -37, -23, 42, 48, -54, 14, -27, 1, 42, 47, 1, -16, -42, 13, -1, 45, -85, -1, 19, 16, 48},
{26, 10, -23, 107, 83, 32, 63, -53, 59, 4, -45, 10, -73, 32, -44, 54, 38, 1, 33, -13, -34, 30, 38, -100, -31, -30, -22, 18, -70, 39, 72, 22, 39, -53, -44, -15, -29, 27, -23, -5, 12, 13, -10, -53, -17, -26, 0, -22, -25, -59, 8, 66, 93, 10, -62, -90, -41, -3, 56, -31, 17, 33, 41, 14, -94, -11, 47, 67, -14, 16, 38, -84, -39, -56, 27, -67, -20, -56, 51, -11, -13, -44, 5, -64, -22, -47, -6, 84, -19, 6, 26, -67, 28, 8, -20, -36},
{31, 20, 24, 14, 51, 9, 75, -27, 20, -41, -29, 1, -83, 10, -22, 41, 35, -9, 54, 10, 38, 52, -29, -54, 38, -52, 37, 7, -63, 98, 57, 22, 24, -37, -11, -55, 48, 45, -3, 7, -22, -43, -86, -41, 7, -22, -9, -43, -35, -66, -19, 13, 38, 11, 49, -95, 10, -17, 22, 27, 6, -50, 62, 5, 29, -51, 35, 40, -19, 55, 30, -61, -14, -11, -82, 14, -10, -71, -54, 29, -17, -24, -14, -45, -75, -41, -54, 23, 30, 9, 14, -75, -18, 10, 14, 14},
{12, 15, 8, 27, -35, -17, -73, -13, 23, 26, 79, 13, -27, -21, 10, 60, -25, 32, -52, -28, 17, 0, 11, -15, 37, 24, 51, 42, 33, 1, -17, -9, -45, 24, 25, -3, 72, 22, -35, 30, 4, -15, -51, 21, 17, 82, -52, 45, -27, -23, 43, -36, 27, 47, -19, -12, 22, 71, 0, -10, 21, -6, 44, 47, 16, 42, -20, -46, -2, -75, -14, 18, 52, -13, 33, 18, 13, -12, 30, -20, -62, 51, -53, 91, 0, -17, 39, -49, 8, 3, -6, 51, -4, -70, -58, 21},
{32, -17, -5, -18, -29, -20, -73, -92, 73, -22, -84, 2, -26, 37, -1, 14, -84, 45, -52, 32, 28, 71, 9, 7, 22, -17, -53, 46, 65, -12, -1, -13, -59, 53, 2, 25, 36, 7, 5, -11, -2, -49, 35, -12, 4, 103, 4, 17, -3, -65, -3, 77, 68, 87, -77, 31, 43, 74, 14, -96, -67, 25, 5, 33, -8, 19, -23, 0, -22, 25, 16, 61, -52, -40, 44, -44, 3, 16, -14, -20, -7, 50, 79, -17, -39, 2, 41, 49, 34, 3, -21, 57, 58, -52, -22, -11},
{20, -9, 81, -14, -16, 20, -15, -52, 40, -39, -21, 13, -55, 40, -48, -32, -15, 37, -73, -23, 32, 79, -25, -15, -17, -45, 18, 42, 30, -104, -36, -25, -61, 31, 12, -24, 16, 50, -9, 8, 49, -37, -100, 25, -20, 26, 30, 6, -3, -94, -14, 10, -25, 110, -37, -42, 38, 55, 24, 30, 6, -26, 13, 43, 36, -28, 25, 26, 26, 5, 3, 7, -20, -14, -71, 23, 15, -36, -67, 25, 11, 70, 59, -5, -1, 26, 12, 60, 77, 3, 12, 37, -47, 40, 12, -12},
{-2, 21, 31, 14, 18, -13, -11, -6, -2, 39, 34, 5, -17, -5, -66, 20, 41, 9, -12, -26, 8, -21, 41, 1, -58, 38, -42, 26, -6, 31, 18, 34, -49, 49, -80, 12, 13, -24, -43, -49, 7, -61, 20, 36, -66, -35, -89, 6, 2, -33, 34, -81, -16, 15, 4, 7, 4, -12, 9, 16, -2, -47, 5, -66, 6, -12, -102, 33, -69, -3, -28, 50, 4, 92, 36, -9, -3, 9, -78, -1, 11, -34, 30, -43, -60, 15, 38, -27, -26, -7, -28, -28, -20, 4, -13, -95},
{17, -45, -13, -47, 4, 16, -21, 35, 45, -14, -43, 7, -17, -45, -110, 13, 16, -11, -4, 29, -22, 33, 20, -24, -50, 15, 15, -18, -33, -38, 14, 65, 63, 24, 30, -26, 31, 2, 26, -51, 29, 30, 58, -34, 10, -20, 12, 28, 68, -49, -1, -20, 92, -17, 27, -37, 21, -52, 25, -38, 17, -39, 15, -74, -21, 46, 4, -12, 53, -44, -31, -3, -38, 36, 34, 4, -21, 10, -48, 1, -46, -69, 70, 80, -5, 76, 5, 36, 27, 24, -12, -7, 53, -3, 21, 15},
{1, -62, 24, 14, 21, -6, 24, -40, 7, -40, 0, -10, -2, -13, -102, -50, -24, -59, -28, -23, 1, 32, -58, -16, 11, 54, 27, 2, -40, -33, 5, 44, -22, 44, -7, 19, -24, 40, -8, -65, 59, -38, 0, -29, 56, 45, 26, 8, 45, -62, -20, 13, 35, -11, 33, 40, -1, 2, 67, -28, -13, -45, -16, -67, 15, -74, 35, -33, 37, -9, -82, -4, -6, 0, -59, -7, -10, 46, 86, 16, -9, -67, -16, 35, 42, -15, -48, 39, -7, -28, -47, -35, -64, 31, 24, 6},
{5, -32, -9, -35, -69, -73, -50, -80, 29, -16, 87, 34, -24, 44, 11, -9, -31, -45, -39, 10, 25, 2, 43, -4, -34, 3, 9, -45, -9, 82, -8, -44, -28, -44, -69, 27, -5, -76, -72, -64, -42, 1, 38, 56, -51, -13, -29, -46, 3, -75, 59, -62, -54, 53, 26, -7, 4, -19, -11, 34, -25, -42, -75, -8, 23, 18, -55, 21, -24, 58, -21, -42, -39, 97, 32, 10, 3, 29, -61, -22, 16, 70, 18, -62, -10, -42, 104, -31, -25, 11, 46, -53, -35, 54, 18, 30},
{-14, -52, -56, 68, -93, -55, -42, -19, 89, -53, -33, -5, 14, -46, 19, -73, 28, 1, -10, 29, -50, 75, 29, -5, -30, 6, -39, -16, 50, -7, -9, -30, 14, -19, 38, 32, -11, -95, 8, -72, -26, 97, -20, -95, -37, -11, 7, 37, 107, -92, 8, 20, -56, 60, -45, -91, -18, -22, 9, 75, 35, -49, -120, -29, -62, 84, 43, 5, 6, -55, -26, -41, -43, -1, 33, 34, 3, -66, 4, 20, -76, 58, 37, 7, 81, -56, 85, 31, 0, 68, 53, 1, 63, -67, -33, 70},
{28, 1, -20, 4, -53, -72, -13, -66, 51, -105, -3, -21, 14, -50, 31, -40, -66, -28, 33, -18, 28, 45, -46, 43, 13, 35, -8, -54, 51, 82, 33, -21, -10, -49, 73, 0, 60, -39, 6, -49, -13, 21, -12, -84, 103, 48, -6, 37, 2, -31, -15, 3, -60, 55, 23, 62, -3, 0, 51, 38, -15, -52, -115, -37, -15, 1, 46, -41, 18, 54, -68, -41, -47, 15, -74, 47, -2, -22, 92, 26, -21, 58, -37, 21, 39, -59, -20, 31, 13, 10, 50, -35, -68, -19, -45, 20},
{-46, -19, 6, -50, 53, 3, -33, 35, 30, 76, 81, 38, -82, 17, 62, -13, -9, 24, -9, -24, 41, -5, 53, -29, -26, 56, 35, -61, -35, -40, -49, -16, -19, 11, -61, -46, -15, -41, -63, -59, 53, 4, 44, 69, -19, -23, -53, -85, -52, -93, 48, -39, 34, -47, 29, -17, 7, -20, -10, -64, -11, -48, 10, -42, 68, -30, -31, -19, 67, -23, -23, 5, 3, 0, 32, -41, 12, -4, -74, -17, 10, 22, -14, -55, -58, -54, 88, -60, -80, -55, -80, 1, -24, 73, 58, 2},
{-57, -46, -25, 61, 53, 39, -3, 109, 85, 62, -65, 1, -73, -9, 57, -48, 35, 85, 68, 23, -55, 87, 19, -14, -18, 55, -99, -60, -31, -82, -41, 7, 17, 48, 47, -57, 14, -14, 0, -73, 2, 71, 45, -52, -23, -29, -18, -18, 37, -91, -2, 64, 70, -49, -90, -19, -25, -15, 32, -61, 6, -33, -39, -63, 5, 36, 40, 3, 95, -68, -50, 68, -17, -100, 52, 14, 1, -55, -1, 13, 13, -42, -8, -15, -1, -97, 56, 34, -81, -34, -104, 54, 37, -34, 25, -39},
{-24, 41, 36, -48, 11, -20, -4, 81, 56, -4, -55, -17, -68, 11, 30, 1, -22, 44, 100, -25, -11, 3, -38, -20, -28, 60, 9, -18, -25, -46, -8, 9, 7, -39, 74, -60, 116, 13, -34, -73, -44, 20, -23, -65, 113, -18, 3, -23, -58, -60, -13, -4, 30, -59, 14, 68, -8, -18, 44, 10, -3, -16, -5, -91, 0, -25, -4, -17, 89, 13, -61, 49, -11, -74, -73, 63, 18, -17, 8, 26, 62, 10, -17, 70, -29, -67, -21, 23, -6, -58, -59, -8, -69, 17, -22, -70},
{14, -5, -3, -13, 20, -56, 33, 27, 38, 57, 72, 9, -40, 24, 36, 48, 44, 34, -20, -19, 34, -28, 19, 47, -17, 26, 52, 34, 37, 92, 0, -14, -29, 21, -56, -4, -38, 3, -39, -41, 49, -31, 33, 13, -45, 7, -80, -23, 18, -46, 34, -76, -59, 11, 35, 50, -2, 68, 26, -20, 31, -55, 27, -46, -23, 23, -34, -18, -9, -37, -10, -55, 57, 67, 10, -32, -14, 31, 0, -16, -48, -25, -84, -25, -59, 44, 37, -57, -5, 14, -9, -28, -27, 5, 17, 78},
{28, -40, -52, 2, 28, -42, 53, 37, 68, 49, -99, -7, -18, 58, 14, -29, -21, 66, 23, 52, -14, 67, 18, 21, 9, 23, -40, 74, 55, 31, 27, -1, 40, 14, -12, 44, -63, -14, 41, -62, -35, -6, 74, -88, -44, 35, -3, 31, 74, -53, 10, 42, -19, -6, 13, 38, 4, 48, 22, -45, -38, -51, -22, -65, -21, 72, -19, 9, 9, 4, -36, 10, -32, -13, 13, 9, -16, 43, 65, 0, -10, -64, 18, -4, 10, 93, -2, 40, 27, 39, -28, 45, 74, 9, 11, 23},
{27, 16, 26, 8, 11, -34, 70, 10, 6, -38, -44, -3, -7, 30, -51, -41, 10, 33, 34, -27, 9, 37, -59, 27, -24, 49, 38, 75, 2, -55, 11, 5, 29, -43, 45, 52, -44, 64, -12, -58, -63, -9, -28, -65, 56, -33, 15, 30, 5, -40, -22, -10, -73, 32, 67, -7, 0, 31, 53, 118, 17, -50, -51, -48, -7, -24, -31, 5, -4, 72, -67, 7, -41, 33, -83, 59, -12, 64, 8, 14, 55, 29, 17, 17, 45, 92, -73, 34, 20, 20, 2, -7, -62, 51, 4, -36}};

const ap_int<8> embed_linear_b[96] = 
{1, 0, 1, -2, 1, 1, -2, 1, 0, 1, -1, 0, 1, 1, -1, 0, -1, 0, 0, -1, 2, 0, 1, 0, -1, 0, 1, 0, 2, -4, 1, -1, 0, 1, 2, 1, 0, 0, 0, -1, 1, 0, 0, 1, -1, 1, 0, -1, 0, 2, 0, -1, -1, -1, 1, 0, 2, 1, 0, -3, -1, -1, 1, -1, 0, 0, 1, 0, 0, 2, 0, 0, 1, 0, 0, 1, 0, -1, -1, 0, 0, 2, 3, -3, -1, -2, 0, -1, 0, 1, -1, -2, 0, 1, 0, 0};

const ap_uint<8> embed_linear_s[96] = 
{10, 10, 10, 10, 10, 10, 10, 10, 10, 10, 10, 9, 10, 10, 10, 10, 10, 10, 10, 9, 10, 11, 10, 10, 10, 10, 10, 10, 10, 10, 9, 9, 10, 10, 10, 10, 10, 10, 10, 10, 10, 10, 10, 10, 10, 10, 10, 10, 10, 11, 9, 10, 10, 10, 10, 10, 9, 10, 10, 10, 9, 10, 10, 10, 10, 10, 10, 9, 10, 10, 10, 10, 10, 10, 10, 10, 9, 10, 10, 10, 10, 10, 10, 10, 10, 10, 10, 10, 10, 9, 10, 10, 10, 10, 10, 10};

const ap_int<8> blocks_0_token_mixer_affine_1_w[96] = 
{87, 76, 111, 115, 65, 109, 102, 109, 72, 115, 109, 102, 80, -64, 109, 89, 68, 94, 76, 96, 65, 69, 83, 108, 86, 109, 70, 67, 87, 127, 126, -65, 86, 74, 87, -65, 67, 107, 83, 71, 85, 118, 78, 91, 67, -65, 71, 126, 93, 88, 105, 101, 64, 73, 68, -74, 83, 122, 106, 74, 68, 106, 71, 101, 105, 106, 117, 84, 74, 85, 105, 80, 105, 92, 98, 71, 65, 92, -66, 109, 79, 64, 66, 108, -72, -65, 71, -69, 66, -64, 77, 104, 72, 118, 116, 97};

const ap_int<8> blocks_0_token_mixer_affine_1_b[96] = 
{-11, -7, 2, 4, -3, -6, -5, 8, 9, -11, 1, -2, 0, 0, 7, -7, -5, -1, 5, 8, -8, 15, -3, -4, -7, 11, -4, -7, 5, 11, -20, 6, -1, 4, -2, 3, -2, 1, -14, -4, -5, 6, -2, 3, 2, 0, -10, -4, -1, -13, 20, 5, -7, 1, 0, -1, 2, 2, 35, 0, 2, 11, -4, -2, -2, -9, -6, 11, 1, -1, 4, 1, 3, 6, -7, 3, 5, 2, -2, -19, 4, -2, -16, 12, 7, 6, 10, -1, -2, 7, -1, 0, 15, -5, 3, -8};

const ap_uint<8> blocks_0_token_mixer_affine_1_s[96] = 
{6, 6, 6, 7, 11, 8, 11, 6, 8, 9, 7, 6, 6, 7, 6, 6, 7, 9, 8, 7, 6, 6, 6, 10, 6, 6, 4, 7, 8, 9, 7, 11, 7, 7, 6, 11, 7, 7, 7, 6, 6, 8, 6, 6, 7, 10, 6, 7, 6, 7, 9, 9, 7, 11, 6, 9, 9, 7, 7, 5, 4, 7, 6, 6, 7, 9, 6, 6, 12, 5, 6, 8, 7, 6, 6, 7, 6, 9, 14, 7, 5, 8, 5, 7, 14, 10, 8, 13, 7, 10, 7, 7, 5, 7, 9, 7};

const ap_int<8> blocks_0_token_mixer_linear_w[64][64] = 
{{-70, -76, -37, 6, 3, -4, 20, -41, -25, 1, -1, -7, -4, -3, 3, 6, -12, 8, 3, -1, -2, 3, 4, 1, -2, 1, 0, -1, 1, 3, 3, 2, -4, 1, 2, 2, -1, 2, 2, 4, 0, 5, 4, 0, 3, 5, 6, 3, -7, 1, 8, 2, 1, 2, 7, 2, -19, -1, -1, 5, 4, 4, 3, -1},
{-70, -1, -107, -28, -6, -8, -10, 8, 26, -19, 5, -4, -7, -4, -6, -1, 0, -11, 0, 1, 1, -2, -1, 2, -8, -6, -1, 2, 2, -1, 4, 7, -3, -5, -2, 3, 2, 0, 3, 1, 0, -3, -1, -1, 3, 1, -1, -1, 8, -2, -7, 5, 5, -3, 1, -5, 17, 1, 2, 1, 4, 0, -1, 2},
{-38, -78, 19, -100, -33, -9, -5, -25, -5, 9, -13, 8, 0, -4, -6, -19, -1, -2, -12, -1, 1, 0, -5, -11, -1, -5, -8, -5, -1, 0, -6, -4, 2, -2, -7, -3, -1, -3, -1, -1, -1, -4, -4, -2, -5, -3, 0, -1, 3, 0, -1, -7, 0, 2, -3, 2, 4, 3, 5, 2, 0, -3, 1, 0},
{-38, -35, -88, 32, -96, -42, -12, -45, -3, -4, -2, -6, -3, -5, -2, 1, -1, 1, -1, -9, -4, -2, 1, 0, 1, 1, -1, -5, -5, -6, 0, -8, -3, 3, 0, -6, -1, -3, -1, 0, -1, 0, 0, 1, 1, -2, -1, 0, 3, 6, 5, 3, -3, 1, 4, 1, 11, 5, 0, -6, -4, -5, -2, 7},
{-16, -10, -45, -93, 32, -80, -34, -62, -4, -1, -5, -2, 0, -2, -4, -1, 2, -1, -1, -3, -12, -2, 1, 2, -5, 2, -3, -3, -6, 0, 3, 0, -2, -4, 0, 0, -5, 5, 0, -4, 2, 1, 1, 0, 1, 0, 2, 2, -2, -2, 1, 0, 0, 3, 2, -2, 5, -2, -1, -7, -6, 3, 4, 13},
{-10, -7, -8, -34, -97, 13, -73, -91, -15, -6, 0, -4, 6, -15, 10, -5, -12, -3, 0, 3, 0, -8, 1, 2, -3, -10, -3, -2, -4, -6, -6, 6, 0, -3, -1, -1, -2, -5, -1, -2, 2, -4, -3, -4, -3, -2, -1, 0, -3, 1, 2, -4, -3, -2, 2, 5, -6, -4, -4, -1, -2, 3, -4, 9},
{5, -8, -5, -10, -29, -109, -8, -121, -2, -9, -1, -5, -6, 11, -18, 21, 6, 0, -3, -2, 4, 0, -13, 2, 7, 4, 2, 0, 3, 0, -6, -9, 4, 2, -1, 0, 1, -1, -4, -5, -3, 0, 0, 1, -2, -2, -5, -2, 0, -3, -2, 6, 4, -6, -6, 8, -1, 6, 1, 7, 0, 6, 2, 6},
{-11, 13, -7, 1, 8, -40, -72, -124, 5, -1, -5, -4, -6, -1, -2, -24, -1, 3, 4, -3, -3, 5, 3, -10, 0, 5, 5, 0, 0, 1, 1, -5, -1, 1, 3, 1, 2, 1, -2, 0, 3, 7, 2, 1, 4, 2, 3, -1, -3, 4, 0, 0, 1, 5, -1, -11, -12, 3, 1, 2, 9, -1, 1, -24},
{-36, 13, 9, -11, -12, -14, -16, 10, -10, -92, -32, -5, -8, -6, -3, 9, -32, 11, -5, -7, -5, -4, 5, 16, -14, 8, 3, -1, 1, 1, 7, 4, -8, 5, 3, 2, 2, 5, 7, 2, -4, 1, 1, 2, 0, 2, 3, -4, -3, -2, 2, 1, 0, 2, 4, 2, -13, 0, 3, -2, -1, 5, 8, 6},
{-7, -40, 12, -6, -8, -9, -20, 5, -90, 21, -105, -29, -10, -12, -11, -5, 21, -25, 8, -7, -6, -6, -7, -1, 4, -16, -1, 3, -3, -2, -9, 5, -4, -9, -5, -4, -2, -3, 3, 7, 2, -9, -2, 0, -1, -1, 1, 4, 0, 0, -3, -2, 0, 0, -4, -2, 9, -6, -4, 6, 1, 1, -1, -4},
{10, 4, -22, 6, -2, -8, -12, -43, -34, -93, 45, -108, -36, -12, -18, -11, -6, 9, -10, 7, -3, -3, -6, -9, -4, -5, -13, -2, 3, -3, -1, -12, 1, -5, -4, -4, -4, -1, -5, -1, -6, 3, -5, -2, -1, -4, 1, -1, 0, -1, -1, -4, -4, -4, -3, -9, 3, 0, -3, -8, 0, 2, -3, -4},
{-3, 5, 9, -14, 5, 4, -11, -7, -24, -43, -90, 58, -103, -37, -16, -13, -7, -4, -2, -6, 3, -4, -5, -6, 3, 2, 0, -15, 0, 3, 1, 7, 4, 2, -2, -6, -1, -3, -2, 0, -2, -5, 2, -4, -3, -1, -8, 2, 2, -1, 0, 2, 0, 0, 0, 7, 1, 3, 2, 2, 2, -1, -1, 2},
{-6, -7, 8, 6, -12, 6, 4, 3, -10, -13, -40, -98, 57, -90, -41, -25, -5, -4, -2, 2, -3, 1, -6, -5, 2, 2, 1, -2, -14, -5, 0, -3, -4, 1, -2, -3, -4, -2, 1, -2, 1, -5, -4, 0, -3, 1, -2, -6, 4, 1, -1, -1, 1, 0, -2, 1, 2, 1, 1, 2, 1, 5, 6, 2},
{-19, -15, -8, -1, 7, -23, 1, 27, -12, -14, -10, -37, -109, 42, -92, -40, -9, -10, -6, -6, 6, -12, 9, -2, -9, -4, 0, 4, 0, -12, -4, 3, 2, -7, -3, -2, -6, -6, -5, -2, 0, -1, -2, -2, -1, -6, 2, -1, -4, -4, -2, -2, -1, -1, -1, 1, 2, -7, 3, 0, -4, -5, 0, 3},
{-3, -18, -6, -9, -5, 14, -38, -17, -6, -7, -13, -11, -31, -108, 18, -88, 6, -8, -5, -7, -7, 9, -24, 18, 2, -5, -2, -2, 1, 1, -17, 2, 6, -1, -1, 0, -3, -3, -9, -2, 1, 3, -2, 1, 0, -4, -7, 1, -2, -3, -1, -1, -2, -4, 2, -1, 2, -2, -2, 1, 4, -5, -7, 10},
{-1, -11, -11, -8, -7, 9, 15, -69, 7, -2, -5, -6, -6, -30, -89, -15, 8, 5, -4, -4, -6, -5, 9, -29, 5, 4, 1, -1, -1, 0, 8, -15, 1, 4, 5, 2, 3, 4, 5, -4, -3, 1, 4, 0, 1, 2, 0, -5, 3, 4, 3, 1, -2, 4, 1, -3, 4, 9, 4, -1, -3, 1, 1, -9},
{-4, -1, -10, -5, -5, -8, -13, 3, -37, 6, -3, -10, -10, -8, -5, -1, -6, -100, -31, -15, -8, -11, -13, 4, -30, 13, -11, -9, -6, -5, 1, 5, -15, 1, 1, -4, -1, 3, 7, 9, -1, 0, 0, 1, 2, 4, 2, 3, -2, 5, -2, 2, -2, 5, 7, 2, -7, -2, 1, 7, -3, 4, 5, 5},
{7, -23, -4, -9, -6, 0, -15, -7, 9, -23, 2, -8, -4, -8, -7, -10, -96, 36, -104, -25, -15, -11, -12, -13, 22, -19, 9, -6, -12, -7, -8, 1, 9, -13, 0, 4, -4, -4, -2, 0, -1, -4, -2, -5, -1, -2, 3, 0, 1, -5, -1, -2, -2, -7, 5, 3, 3, 2, -6, -1, 0, -6, -6, 2},
{7, 8, -10, 1, -1, -3, -1, -19, 9, 12, -21, 2, -6, -7, -7, -14, -33, -91, 51, -105, -32, -17, -17, -12, -2, 16, -9, 6, -4, -6, -10, -13, -2, -1, -8, 0, 5, -3, -3, -5, 2, -4, -1, -4, -4, 0, -4, -1, -1, 2, -1, -2, -4, -2, -2, -1, -1, -2, -1, -4, -4, 5, 0, -5},
{5, 10, 3, -7, 4, 4, 3, -2, -7, 4, 8, -15, 6, -3, -5, -5, -21, -33, -90, 63, -101, -34, -19, -15, -11, -4, 4, 1, 7, -2, -6, -7, -5, 2, 0, -8, 0, 2, -1, 1, -2, -3, -4, -1, -2, -1, -4, -3, -6, -3, -1, -2, -1, -1, -3, 2, 3, 3, 0, 0, 1, -2, 1, 11},
{-4, 7, 3, 3, -6, -2, 11, 5, -4, -8, -2, 4, -13, 8, 2, -7, -18, -14, -36, -102, 61, -91, -31, -19, -10, -8, -3, 7, 2, 2, -1, -8, 0, -1, 4, 1, -7, 1, 4, -1, -4, 0, -1, -4, -2, -4, 2, -3, 4, -2, -4, 2, 0, -2, 0, -1, 7, 3, -1, 0, 1, 2, 0, -1},
{-10, -11, 0, -1, 3, -7, 10, 14, -18, -9, -7, -5, 0, -17, 11, 16, -13, -18, -16, -31, -107, 52, -91, -32, -10, -9, -7, -4, 7, -7, 11, -6, -3, -4, -3, 2, -2, -8, 2, 0, 0, -3, 3, -2, -3, -2, -4, 0, 2, -2, 0, -5, -1, 0, 2, -1, -3, 3, 2, -4, -4, -4, -1, 0},
{-1, -8, -2, -6, -9, 0, -23, 6, -3, -7, -7, -5, -6, 3, -27, 8, -10, -12, -10, -14, -26, -106, 34, -92, -2, -5, -6, -11, -10, 8, -19, 23, 0, 0, -4, -4, 4, -2, -15, 6, 2, 2, -4, 0, -3, -2, -7, 1, 5, 1, -4, -3, -2, -2, -3, 7, -3, -9, -5, -1, -2, -2, 0, 7},
{4, -20, -2, 1, -10, -5, -2, -33, 1, -8, -10, -9, -7, -2, 2, -33, 6, -12, -14, -11, -12, -31, -98, -8, 2, -3, -7, -6, -9, -8, 11, -28, 11, 5, 0, -4, -2, 0, 5, -14, 1, 1, 4, 1, 0, 1, 2, -4, 3, 6, 3, 0, 2, -1, 1, -5, 2, 4, 3, 3, 5, -1, -3, -10},
{-17, 2, 0, -11, 1, 3, -8, -4, -15, 4, -6, -2, 0, -3, -8, 7, -28, -3, -5, -6, -6, -4, -10, -5, 2, -101, -27, -13, -9, -11, -13, -4, -24, 4, -9, -8, -5, -9, -1, 1, -11, 1, 1, -2, -3, 0, 6, 9, -1, -5, 1, -3, 4, -1, 3, 0, -3, -2, -1, -3, -5, -1, 0, 3},
{-1, -7, -7, -10, -8, -3, -4, -10, -4, -19, 1, -4, -1, -4, -6, -6, 23, -18, -3, -8, -6, -5, -2, -18, -95, 37, -103, -26, -13, -10, -9, -15, 22, -13, 6, -10, -9, -10, -14, -5, 11, -11, -1, 2, -3, -3, -3, 5, 4, -5, -7, -2, -2, -3, -3, -1, -1, 5, -1, -3, -2, -3, 0, -1},
{-5, -5, -9, -3, -9, -1, -1, -6, 8, -1, -8, 1, 3, 1, -4, -13, 6, 9, -14, 0, -6, -5, -11, -11, -17, -91, 58, -109, -31, -16, -17, -14, -1, 14, -7, 10, -5, -8, -12, -11, 4, 9, -6, -3, 2, -3, -5, -2, -5, 2, -2, -2, -3, 0, -4, -1, -2, 1, 1, 1, -1, -1, -1, 0},
{3, -2, -6, -4, -2, -6, 6, 4, 8, 6, -2, -5, 1, 3, 6, -1, -8, -1, 8, -14, 2, -2, -4, 0, -21, -26, -92, 65, -101, -32, -19, -19, -8, -1, 9, 3, 8, -4, -7, -10, 1, 5, 3, -1, 0, 1, -1, -5, -5, -3, -2, 2, -2, -4, -1, -7, -1, 0, 4, 2, 1, -2, 2, 2},
{5, 1, -11, -2, -4, -6, 0, -4, 2, 3, 4, -2, -7, -1, 8, 7, -3, -3, -6, 6, -12, 6, -5, -6, -18, -16, -32, -100, 64, -90, -24, -16, -10, -7, -2, 8, 2, 7, -2, -8, -5, 0, 2, -2, -2, 3, 4, 2, -6, -1, -4, -1, 2, -1, -3, -8, -1, 2, -1, -3, -1, -3, 1, -2},
{-3, -1, -2, -5, -7, -4, -4, -7, -15, -1, 2, 5, -2, -8, -1, 5, -8, -9, -6, -6, 0, -17, 15, 0, -14, -21, -15, -31, -108, 56, -92, -24, -9, -12, -9, -5, 8, -6, 14, 1, -4, -5, -3, 3, -4, -3, 9, 3, 2, -5, -2, -5, -4, 1, 1, -6, -3, -2, 0, -2, 2, 2, 3, -4},
{-8, -3, -3, -4, -7, -8, -12, -9, -7, -6, -2, -4, -1, 1, -15, -1, -13, -4, -6, -2, -6, -2, -17, 15, -16, -11, -11, -12, -26, -105, 38, -90, -5, -12, -8, -9, -9, 8, -15, 21, 4, -5, -3, -4, 6, -2, -12, 9, -3, 0, -2, 1, -1, -6, -5, 5, 3, -2, -4, 0, -5, -3, 4, -5},
{7, -7, -4, -3, -9, -1, 3, -23, 6, -4, 1, 1, -5, -7, 5, -16, -3, -5, -3, -9, -6, -1, -2, -25, -7, -10, -11, -7, -13, -26, -98, -5, 8, 3, -8, -4, -11, -8, 4, -23, 4, 8, 0, -2, -4, 1, 1, -11, -2, -3, 2, 0, -1, 4, -5, -2, 0, 2, 1, -4, -4, 0, -3, 5},
{3, -1, 0, 11, 3, 2, 10, 1, -8, 4, 4, -3, 2, 0, -3, -9, -12, 3, -3, 0, -1, -1, -3, -2, -20, -2, 1, -6, -7, -4, -4, -6, 1, -93, -31, -14, -12, -13, -16, -6, -22, 7, -6, -9, -9, -10, -4, 3, -10, 3, 2, -3, -2, -3, 3, 0, -3, -7, 0, -1, 1, -1, -1, 3},
{-2, 1, -3, -2, 7, -4, -6, 7, 0, -12, -4, -4, -4, -1, -2, -3, -5, -11, -4, -2, -3, -4, -7, 1, 14, -18, -4, -6, -3, -9, -6, -9, -93, 37, -98, -28, -15, -11, -13, -11, 20, -11, 6, -5, -9, -11, -13, -2, 15, -11, -1, 2, -2, -2, -3, 5, 5, -2, -7, -2, 0, -2, 1, -3},
{-3, 0, 3, -3, -3, 7, -5, 12, 4, -3, -2, -3, -6, 1, -5, -6, 6, -4, -10, -3, 3, 1, -4, -10, -1, 14, -18, 2, -8, -3, -10, -10, -20, -96, 53, -103, -35, -18, -18, -16, 1, 14, -7, 7, -4, -6, -10, -14, 6, 8, -2, -2, 1, -3, -8, -6, -2, 7, -1, -1, -2, -3, -4, 3},
{0, -8, -3, 3, -6, -6, 1, 7, -1, -5, -7, -6, -4, -9, 0, -6, 6, 3, -3, -7, -5, 1, 2, -2, -5, -5, 5, -19, 5, -8, -6, -7, -18, -26, -90, 59, -96, -35, -18, -18, -4, -2, 9, -1, 11, -3, -8, -17, 1, 9, 4, 0, -1, 4, -1, -3, -10, -2, -1, 2, -1, -6, -5, -11},
{1, 1, -3, -6, 7, -3, -8, -14, 0, 4, -2, -5, -4, -4, -2, -2, -1, 4, 0, -2, -8, -3, 4, 7, -7, -6, -6, 5, -17, 7, -4, -5, -18, -19, -36, -94, 58, -89, -26, -21, -14, -4, -2, 10, 0, 12, -1, -4, -5, 1, 4, 2, 1, 1, 3, 1, -7, -5, -3, 0, 4, 1, -3, -7},
{2, -3, 8, -6, -5, 0, -2, 6, -9, -4, -2, -6, -4, -4, -3, -2, -11, -8, 1, 2, -3, -9, -3, 4, -9, -9, -7, -7, 1, -18, 11, 1, -18, -18, -17, -36, -103, 52, -96, -21, -14, -17, -6, -4, 10, -7, 15, 3, -8, -8, -2, 2, -1, -1, 12, 7, 1, -4, -5, -3, -3, 1, 3, -2},
{1, -7, -7, 7, 0, -3, -1, -3, 0, -3, -2, -4, -2, -3, -10, -6, -3, -2, -5, -4, -3, -2, -17, -3, -9, -6, -7, -5, -4, -1, -21, 7, -16, -11, -11, -15, -30, -99, 38, -91, -4, -8, -9, -10, -8, 8, -13, 20, 6, -4, -3, -1, 1, -2, -12, 15, -3, -2, 0, 2, 0, -5, 0, 1},
{3, 6, -1, 3, 8, 4, -3, -11, -4, -4, 0, -3, 0, 2, 5, -3, -3, -4, -1, 0, 0, -6, 5, -10, -6, -6, -2, -8, -3, -1, -2, -20, -6, -13, -12, -12, -12, -32, -89, -5, 1, -4, -10, -7, -7, -9, 7, -21, -1, 4, -4, -4, -4, -1, 1, -11, 4, 3, -1, -3, -2, -1, -7, 0},
{-15, 1, -2, 2, -1, 2, 8, 10, -3, 2, 0, 3, -3, -2, 2, -3, 1, 1, 2, 0, -1, 0, 3, -7, -9, 5, -3, -1, 0, 0, -3, 4, -25, -4, 1, -6, -5, -3, -7, -1, 2, -85, -40, -19, -12, -12, -17, 0, -20, 12, -8, -8, -8, -12, -10, -2, -10, 4, 6, -2, 2, -8, 0, 5},
{-1, -9, -5, -6, -2, -4, -1, 10, 2, -7, -6, 1, 3, -3, -7, 2, -2, -7, -1, -2, -2, -3, -2, 2, -3, -16, -4, -3, -2, -3, -5, 0, 13, -21, -1, -5, -6, -5, -4, -10, -98, 29, -92, -36, -18, -10, -11, -17, 19, -12, 5, -6, -5, -5, -9, -2, 16, -11, -4, 2, -3, 1, -10, 11},
{8, 5, -1, -3, -4, 2, -7, -8, -10, 2, -2, -6, -1, 1, -2, -4, -2, -3, -1, -5, -3, -3, -6, -6, 3, -2, -10, -5, -1, -2, -5, -10, -3, 13, -21, 1, -11, -9, -8, -3, -27, -100, 49, -94, -36, -22, -15, -15, 4, 16, -6, 9, -5, -6, -9, -13, 11, 10, -1, -2, -1, -4, -6, -7},
{0, 0, 3, 4, -1, 6, 2, -10, 1, -10, -3, -1, -5, -5, 1, -2, -2, -2, -2, 0, -7, -3, -4, -8, 5, 0, -3, -7, -4, 3, -2, -3, -11, -5, 8, -18, 6, -10, -13, -10, -18, -27, -94, 46, -99, -37, -21, -16, -6, 0, 8, -6, 9, 1, -6, -12, 3, 2, 6, -3, 3, 4, 3, -9},
{-2, 0, 4, -1, 5, 2, 1, 4, -4, 5, -6, -4, -2, -2, -7, -3, -6, -1, -3, -3, 1, -6, 0, -1, -8, -2, 1, -5, -5, -4, 1, 2, -8, -12, -7, 6, -17, 8, -7, -10, -21, -21, -36, -94, 46, -91, -31, -21, -9, -7, -1, 10, -2, 7, 3, -3, -7, 0, 1, 3, -3, 5, 9, 0},
{0, -2, 0, -1, -5, -3, 7, 13, -5, -7, 2, -3, -5, -3, 0, -3, -7, -5, -3, -5, -4, -1, -1, -2, -7, -7, -1, 0, -3, -11, -3, 4, -6, -10, -9, -9, 1, -18, 14, -5, -16, -14, -24, -36, -95, 44, -102, -30, -14, -13, -7, -4, 9, -4, 14, 1, -3, -7, 0, 0, 0, -5, 11, 11},
{3, -2, -3, -2, -6, -8, -13, -4, -2, -6, -8, 5, -2, -4, -5, 1, 3, -4, -3, -2, -2, -1, -9, -1, 0, -6, -5, -4, -4, -4, -15, 0, -6, -3, -6, -6, -4, -2, -21, 10, -12, -15, -12, -20, -36, -89, 33, -98, -5, -8, -3, -6, -8, 8, -11, 17, 9, -4, -2, -1, -1, -2, -13, 16},
{6, 10, 1, -4, 2, -3, -1, -20, -2, 5, -7, 2, 3, 1, 2, 1, -5, 3, 2, 0, 0, 0, 2, -4, 4, -1, -2, 1, -1, -4, 5, -9, -3, -7, -1, -6, -6, 1, -3, -21, 3, -17, -14, -12, -19, -39, -82, -3, 1, -8, -13, -9, -5, -5, 12, -19, 10, -1, -6, -2, 0, 8, 0, -5},
{3, 4, 4, -3, -2, 5, 12, -2, 3, 2, 2, 3, 0, 0, 7, 7, -1, 8, 0, 2, -1, -2, 3, -1, -2, 4, 2, 3, -1, 1, 1, 5, -13, 8, -2, 3, 0, -1, 0, 2, -22, 0, 3, -1, -1, -5, -6, 5, -4, -81, -46, -19, -15, -11, -16, 1, -8, 19, -4, -16, -13, -20, -21, 0},
{-1, -6, -1, 1, -5, -2, 1, 16, 2, -7, -3, -4, 0, -3, -1, 9, -3, -9, -2, -2, 2, 0, -2, 7, -3, -7, -6, -3, -5, -3, 2, 4, -3, -16, -6, -4, -2, -5, -3, 1, 17, -24, -2, -6, -7, -5, -1, -6, -102, 21, -80, -45, -23, -15, -17, -16, 19, -17, 12, -5, -4, -5, -9, -9},
{-1, 5, 1, 1, 3, -2, -8, -9, -1, 5, -2, -3, 0, 0, -6, -4, -5, -1, -5, -6, -4, 1, -4, -6, 1, -5, -2, -5, -5, -4, -9, -8, 6, -2, -8, -6, 0, -2, -11, -9, -6, 16, -19, 2, -10, -10, -12, -9, -40, -103, 36, -89, -44, -25, -22, -21, 9, 12, -11, 8, -5, -3, -12, -11},
{-5, -1, -1, 1, 6, -4, -11, 7, -8, 5, 1, 4, 0, 3, 0, -5, -3, -6, -3, -2, -2, -6, 0, -4, -2, 0, -2, 1, -4, -3, -1, -7, -1, 2, -4, -7, -5, 2, 1, -6, -10, -11, 10, -17, 7, -8, -12, -11, -26, -37, -89, 35, -90, -44, -24, -21, -8, 1, 10, -3, 8, 1, -7, -5},
{1, -9, -1, 5, -5, -2, 1, -4, -3, -2, 3, 1, 5, 0, 2, -2, -1, 0, -4, -2, -3, 1, -4, -3, -6, -1, -5, -5, 3, -5, -2, 3, -10, 1, 0, -6, -8, -4, 4, 0, -13, -12, -11, 7, -14, 9, -7, -12, -23, -22, -45, -88, 35, -92, -37, -25, -7, -6, 1, 9, -4, 9, 1, -4},
{-2, -7, -4, 0, 3, 0, 6, 1, -2, -7, -3, -2, -5, -1, 2, 2, -8, -3, 0, -4, -6, -7, -2, -2, -9, -7, -3, -4, -9, 0, -6, -2, -6, -11, -3, -3, -7, -7, -1, 5, -8, -9, -14, -9, 1, -19, 15, -10, -23, -20, -25, -43, -91, 33, -102, -40, -16, -13, -6, -1, 9, -8, 14, 8},
{11, 1, 2, -6, 0, 1, 1, 4, 10, -2, -1, -3, -2, -4, -9, -4, 8, -3, 0, 3, -2, -3, -7, -2, 4, 2, -2, -3, -3, -4, -5, -6, 4, -1, -4, 0, -3, -8, -18, -3, -7, -4, -3, -6, -7, -6, -22, 18, -20, -17, -17, -22, -41, -84, 22, -102, -13, -11, -3, -6, -8, 15, -15, 19},
{-3, 15, 6, 1, -6, 4, 7, 5, 1, 9, 3, 1, 3, 3, 4, -1, 1, 2, -3, 1, 2, 3, 8, -1, 8, 2, 2, 0, 1, 2, 3, -3, 1, -1, -3, 2, 2, 0, 3, -10, 2, -7, -1, -3, -2, 6, -2, -21, 1, -20, -14, -15, -23, -49, -82, -15, 3, -20, -24, -15, -16, -2, 14, -12},
{-1, 10, 5, 4, 5, 3, -15, -16, 5, 5, 5, -6, 2, 5, 4, -18, -7, 5, 4, 3, -1, -2, 2, -7, -3, 7, 1, 1, 1, 0, 0, -7, 1, 5, 1, 1, -2, 0, 0, -1, -18, 4, 2, 2, -1, -2, -2, -7, -12, -1, 3, -4, -5, -2, -3, 4, -48, -74, -51, -18, -13, -10, -10, -24},
{7, 5, 5, 0, 3, 4, 9, 0, 4, -1, 1, 3, -1, 2, 1, 10, 3, -3, -1, -3, 1, 0, -1, 8, 3, -8, -1, 1, 4, 1, -1, 5, -6, -8, -4, -3, 1, 2, -1, 2, 3, -15, -5, -1, -1, -1, 0, 3, 19, -9, -5, -4, -3, -2, 0, 1, -93, -1, -85, -47, -26, -17, -13, -19},
{-7, 2, 1, 0, -4, -9, -2, -8, -6, 0, -1, 3, -5, -8, 1, 0, 3, 1, -1, -1, 0, 0, -5, 1, -3, -1, -2, -3, -4, 3, -3, -3, 3, -3, -4, -6, -4, -5, -6, -4, 7, 1, -9, -8, -2, -4, -10, -6, -11, 13, -9, 2, -7, -8, -11, -14, -58, -100, 19, -82, -43, -27, -17, -24},
{8, -9, 1, 1, -3, 3, -11, 8, -1, 3, -1, -1, 2, 2, -6, -3, 0, 2, -1, 4, -1, 1, 3, -3, -3, -1, 2, -3, -3, -5, 3, -5, 0, 4, 0, -1, -2, -2, 0, -8, -4, 3, -1, -4, -4, -1, -3, -9, -10, -12, 8, -6, 0, -15, -9, -15, -34, -50, -87, 17, -91, -53, -27, -27},
{3, -2, -2, 0, 0, -1, -2, -3, -5, -3, 0, 1, -1, -2, 2, -3, -8, -1, 0, 2, 2, -2, -1, -3, -1, 0, -5, -2, 1, 0, -1, -2, -8, 1, -1, 1, 1, 3, 1, 0, -7, -2, 2, -5, -4, -2, 3, -2, -14, -8, -12, 2, -4, 8, -8, -9, -20, -22, -51, -90, 21, -85, -47, -30},
{-6, 1, -5, -2, 1, 4, 0, -2, 2, -7, -4, -2, 4, -3, 0, -5, -2, -8, 2, -3, -1, 0, 1, -1, -7, -4, 0, -2, -5, -5, -3, -1, -2, -9, -5, -3, -6, -6, -4, -4, -11, -12, -5, -2, -8, -4, 1, 4, -11, -14, -9, -12, 0, -6, 13, -8, -17, -18, -24, -40, -78, 19, -103, -62},
{-6, 6, -3, 2, -1, 6, 7, 9, 9, 4, -3, -2, 1, 4, 2, 3, 6, 3, -2, 1, 0, 0, -3, 3, 6, -1, 1, 3, 2, -1, -5, -5, -1, -2, 0, -1, -2, 0, -6, 0, 3, 3, -1, 0, -1, -8, -16, 1, 7, 4, 0, -4, -3, -6, -13, 19, -17, -13, -15, -30, -45, -85, 5, -88},
{-19, -10, 10, 3, 9, -1, 12, -19, -22, 5, 1, 1, -6, 3, 3, 3, -8, 3, 1, 1, 1, 3, 6, -6, -3, 3, 0, 0, 1, 4, 7, 1, -4, 2, 2, -2, 1, 0, 6, 0, -1, 1, -1, -2, 1, 1, 5, -13, 7, 0, 0, -1, -3, 6, 1, -9, -17, -7, -6, -10, -15, -52, -63, -48}};

const ap_int<8> blocks_0_token_mixer_linear_b[64] = 
{-6, -6, -3, -3, -3, -3, -7, -6, -6, -2, 0, 1, 1, -1, -2, -6, -4, -1, 1, 2, 2, 1, -1, -4, -3, 0, 2, 3, 2, 2, 0, -3, -2, 1, 3, 3, 3, 3, 1, -2, -1, 2, 4, 4, 3, 4, 2, -2, -2, 2, 4, 4, 4, 4, 2, -2, -1, 1, 3, 3, 3, 3, 0, -1};

const ap_uint<8> blocks_0_token_mixer_linear_s[64] = 
{8, 8, 8, 8, 8, 8, 8, 9, 8, 8, 8, 8, 8, 8, 8, 8, 8, 8, 8, 8, 8, 8, 8, 8, 8, 8, 8, 8, 8, 8, 8, 8, 8, 8, 8, 8, 8, 8, 8, 8, 8, 8, 8, 8, 8, 8, 8, 8, 8, 8, 8, 8, 8, 8, 8, 8, 8, 8, 8, 8, 8, 8, 8, 8};

const ap_int<8> blocks_0_token_mixer_affine_2_w[96] = 
{73, 70, 127, 121, -78, -122, 86, 75, -124, -79, 71, 121, -64, -85, 64, -64, 70, -65, -65, 76, 120, -117, 93, -92, 91, -109, 70, 111, 127, 73, 124, 86, 127, 107, -82, 93, 74, -84, -99, -68, 123, -71, 115, 69, 66, -64, 73, -88, -70, 115, -69, -115, 104, 121, 127, 95, 98, 127, 124, 82, 64, -122, 85, -120, -65, 66, 94, 118, 84, 65, 70, 86, 67, -113, -64, 110, -89, -85, 127, 120, 102, 127, 69, -118, -73, -94, -86, 67, -107, 69, -73, -74, 106, 123, 127, 82};

const ap_int<8> blocks_0_token_mixer_affine_2_b[96] = 
{-1, 0, 1, -1, -1, 0, 1, 0, 0, 0, -1, 1, 0, 2, -1, 0, 1, 0, 0, 1, 0, 0, 2, -1, 0, 0, 1, 0, -2, -1, 0, 0, 1, 1, 0, 1, 0, -1, -1, 1, -1, -1, 2, 1, 0, 0, 1, 1, 0, 1, 0, 2, 0, -1, 0, 0, 0, 1, -2, 0, 0, 1, 1, 1, 0, 0, -1, -1, -1, 2, 0, 0, -1, -1, -1, 0, 1, -1, 0, 1, 0, 0, 1, -2, 1, -1, 0, 0, 1, -1, 1, 0, -1, 0, -1, -1};

const ap_uint<8> blocks_0_token_mixer_affine_2_s[96] = 
{9, 9, 9, 11, 9, 9, 9, 12, 8, 9, 7, 8, 9, 10, 10, 9, 9, 11, 12, 11, 8, 7, 7, 8, 8, 9, 11, 9, 10, 11, 13, 10, 12, 16, 9, 8, 10, 10, 7, 7, 10, 9, 9, 7, 13, 9, 7, 9, 8, 7, 8, 11, 10, 9, 11, 9, 8, 11, 7, 9, 11, 9, 11, 9, 12, 7, 8, 10, 8, 11, 7, 9, 7, 10, 8, 11, 11, 10, 11, 7, 10, 11, 8, 15, 10, 11, 8, 6, 8, 9, 7, 11, 8, 8, 11, 8};

const ap_int<8> blocks_0_token_mixer_res_affine_w[96] = 
{103, 102, 101, 101, 102, 102, 102, 102, 102, 102, 102, 102, 102, 102, 102, 102, 102, 102, 102, 107, 102, 100, 102, 103, 102, 101, 103, 102, 102, 104, 103, 104, 102, 102, 102, 102, 106, 102, 101, 101, 101, 102, 103, 102, 102, 102, 102, 102, 101, 102, 102, 102, 103, 101, 102, 102, 101, 101, 102, 102, 103, 102, 102, 102, 103, 102, 102, 103, 102, 102, 102, 102, 102, 102, 103, 102, 101, 101, 102, 102, 103, 102, 102, 101, 103, 102, 102, 102, 102, 102, 101, 102, 101, 102, 102, 102};

const ap_int<8> blocks_0_token_mixer_res_affine_b[96] = 
{0, 0, 0, 0, 0, 0, 0, 0, 0, 0, 0, 0, 0, 0, 0, 0, 0, 0, 0, 0, 0, 0, 0, 0, 0, 0, 0, 0, 0, 0, 0, 0, 0, 0, 0, 0, 0, 0, 0, 0, 0, 0, 0, 0, 0, 0, 0, 0, 0, 0, 0, 0, 0, 0, 0, 0, 0, 0, 0, 0, 0, 0, 0, 0, 0, 0, 0, 0, 0, 0, 0, 0, 0, 0, 0, 0, 0, 0, 0, 0, 0, 0, 0, 0, 0, 0, 0, 0, 0, 0, 0, 0, 0, 0, 0, 0};

const ap_uint<8> blocks_0_token_mixer_res_affine_s[96] = 
{7, 7, 7, 7, 7, 7, 7, 7, 7, 7, 7, 7, 7, 7, 7, 7, 7, 7, 7, 7, 7, 7, 7, 7, 7, 7, 7, 7, 7, 7, 7, 7, 7, 7, 7, 7, 7, 7, 7, 7, 7, 7, 7, 7, 7, 7, 7, 7, 7, 7, 7, 7, 7, 7, 7, 7, 7, 7, 7, 7, 7, 7, 7, 7, 7, 7, 7, 7, 7, 7, 7, 7, 7, 7, 7, 7, 7, 7, 7, 7, 7, 7, 7, 7, 7, 7, 7, 7, 7, 7, 7, 7, 7, 7, 7, 7};

const ap_int<8> blocks_0_mlp_linear_1_w[96][96] = 
{{79, 103, -5, 9, -12, 4, -29, -1, 20, -9, -25, 7, 17, -5, 6, -14, -37, 14, 38, -72, 4, 5, 15, 10, -3, 35, -27, -23, -37, -56, -64, -18, 3, -6, -12, 28, 6, 15, 10, -1, 23, 8, 25, 0, 30, 49, 2, 0, 23, 15, -4, 16, -16, 10, -37, -24, 2, -3, 19, 0, -1, 3, 7, 5, 14, 2, -28, 67, 7, 78, 25, -3, -1, 11, -20, -11, 30, -64, -4, -3, -5, 11, 1, -5, 3, 2, -68, -32, 1, -33, 16, -2, 28, 22, -4, -15},
{-6, -18, 16, -22, -6, 5, -31, 69, -1, -10, -42, -16, 31, -7, -15, 31, 66, -1, 35, -10, 13, 27, -46, -2, -7, 9, -32, 66, 8, -16, -3, 16, 22, -14, 48, 82, -5, -47, 5, -15, -6, -9, 16, 16, -28, 21, -1, 60, 33, 43, -5, 6, 25, 37, -76, 18, 47, -25, -14, -25, 11, 10, 19, -9, -57, -13, 17, -22, 40, -9, 5, -5, 7, 11, -1, -9, 9, -40, 9, -17, -5, 5, 45, 21, -4, -57, 24, 4, 16, -18, 9, 10, 21, -29, -1, -15},
{-47, -8, 24, 6, -38, 5, 29, 35, -3, -25, 47, -39, 10, -5, 0, -64, -22, -23, 9, 5, -6, -14, 21, -21, 48, 9, 14, -21, -18, 21, -19, 5, 51, -4, 13, -3, 12, 27, -4, 3, -34, 5, 21, 13, -32, -10, 72, -63, 9, 16, -10, -6, 21, 6, -22, -8, 9, -8, -32, -16, 13, -4, 2, 8, 45, -54, 26, 26, 0, -75, 17, -78, 9, 21, -4, 15, -10, 10, -9, 13, 11, 5, 8, 33, 38, -15, -1, 23, -6, -5, -19, 29, -20, 25, -17, -29},
{-35, 30, 7, -24, -6, 0, 20, -65, 7, -36, -42, 1, -25, -6, -11, 59, 78, 75, 2, -33, 39, -22, -36, -60, 0, -62, 33, 10, 38, -8, 11, -12, -13, 5, -20, -65, -9, -38, 16, -2, 35, 7, 9, -3, 17, -7, 3, 7, -6, 1, -9, 15, 8, -23, 39, 2, 33, 2, 34, -30, -14, 1, -10, 8, -96, 12, -10, 26, -6, -54, 9, 11, 70, -6, -5, 0, -11, 2, 9, -3, -15, 6, -53, -2, -8, 13, 6, -4, 5, 9, -12, 2, 38, 23, 8, -6},
{-19, 45, 11, 0, 2, 1, -21, -5, -13, -44, 22, 4, 10, 1, -6, -23, -1, -1, 3, 113, 0, -4, -4, -23, 4, -5, 39, 4, -2, -57, -98, 7, -3, 19, 14, 3, 12, -8, -2, 3, -24, 6, -5, 21, -15, 74, 0, -54, -10, 8, -7, -51, 3, 34, 19, -4, -16, 46, -3, -3, 15, -1, 5, -13, -12, -5, 43, -4, -6, -7, 4, 8, 2, 21, 5, -14, -37, -24, -16, 16, -13, -30, 14, -9, 5, -2, 19, -13, -5, 8, 50, -4, -112, -43, 0, 4},
{-11, -52, -19, 8, -5, -13, 21, 25, -28, 24, 14, -33, 77, 0, 0, -8, -37, -1, 19, 25, 0, 5, -7, -56, -3, -6, 20, 41, 3, -54, -105, -7, -6, 11, 4, 17, 46, 1, 0, -2, 59, 8, 14, -7, 8, 46, -10, 25, -69, -17, 15, -33, -6, -1, -10, -10, -15, 45, -1, -16, -15, -35, 9, 25, 6, 9, 52, 7, 1, -2, 19, -7, -9, -7, 2, 26, -40, -5, -21, 8, -15, -15, -46, 1, 3, -16, 50, -2, -1, -8, -4, -25, -9, 38, 15, 35},
{64, -34, 11, 5, 32, 11, -4, 15, 43, 34, -22, -11, 25, -15, 20, -47, -57, 44, 58, 30, 10, 12, -51, -49, -2, 84, -26, 27, 47, -17, -22, 6, 0, 5, -9, 1, -2, -17, 25, -21, 71, -11, -18, -13, -19, 4, 10, -10, 9, -56, 3, 55, -40, 36, -19, 61, -5, -13, -13, 10, -20, 7, 35, 60, 25, 20, 27, -16, 11, 20, 5, 43, -16, -14, -2, -8, 53, -37, -15, -2, 24, -10, 1, -55, -2, 47, 9, 3, 60, -7, 9, -2, -51, -26, 6, -9},
{-36, 13, 14, -2, -4, 11, -4, -50, -10, -49, 0, -25, 18, -3, -12, -84, 19, 14, 4, -78, -44, 45, 111, -71, 5, -12, 54, 43, 37, -4, -24, 7, 20, -4, 5, -35, 1, 44, 30, -31, 38, 8, 69, -6, 2, 8, 9, -39, -10, 73, 0, -4, 12, -7, 34, -10, 21, -5, -58, -64, -4, 11, -48, 29, 72, 15, 38, -46, 56, 55, 4, -1, -9, -14, -5, -3, 1, 33, -13, 19, -3, -10, 8, 13, 10, -61, -10, 2, -10, -10, -13, 5, -26, 38, 27, -15},
{22, -41, -3, -4, -36, 5, 93, -11, 17, -28, 8, -42, -15, -4, 2, 14, 29, 20, 5, -3, 4, 9, -6, 50, -8, 6, -14, 25, 40, 10, -1, 8, 22, 46, 10, 23, -29, 7, -7, 31, 21, 1, 7, 4, -91, 29, -3, 30, -67, -3, 19, 33, 6, -35, -4, 1, -28, -45, -3, -10, 32, -4, -6, -3, 7, -4, -13, -17, 45, 24, 16, 53, -5, 40, 2, 3, -65, -17, 9, -5, 52, -2, 6, -3, 31, -8, 30, 35, 0, -10, -16, 3, 5, -19, -12, -60},
{-27, -20, 15, -24, -31, -23, 15, 3, 4, 15, -11, 79, 2, -9, -17, -11, 10, 12, 7, -7, -1, 20, 23, 19, -22, 27, 6, 3, -5, 21, 22, -30, 68, -11, 73, 9, -52, 6, -1, -48, -16, 3, 32, -5, -4, -28, 75, -8, -68, 8, -2, -30, 33, 4, 19, -16, 12, -52, 23, 25, 19, 31, 6, 24, 5, 34, 43, -12, 23, -2, 110, 0, 1, -110, 0, -11, -20, -39, -6, -7, 82, -2, 21, -8, -45, -11, 9, 62, -12, -1, 12, -25, -1, 30, -8, -14},
{-12, -4, 22, 13, -28, -51, 0, 23, -23, -12, 16, 50, 19, -2, 8, 8, -4, 11, -9, -15, -6, 35, -17, -17, 31, -17, -22, 7, 46, -30, -10, -45, -15, 24, -25, 16, -16, -19, 8, 40, 56, 16, 3, -9, -51, -18, 65, -8, -30, -16, 15, -15, -19, 1, -40, 9, -37, -1, 13, 28, -18, -5, 9, -1, -26, -32, 52, -24, 5, -14, 41, -74, 4, -20, -4, 15, -10, 19, -30, 37, 1, -13, -35, -27, 19, 1, 24, 38, 6, 60, 2, -11, 14, -21, 48, -35},
{21, 12, 10, 0, -38, -2, -71, 5, -30, -15, -2, -7, 7, 0, -1, 12, -8, 3, -9, 40, -1, 3, 0, -7, 11, 0, -7, 0, 39, -16, -96, 14, -9, 45, -5, -30, -40, 1, 3, -13, 12, -4, -8, 67, -103, -26, -4, 8, 0, -2, 6, -20, 0, -88, -7, 6, 57, -39, 4, 0, 19, 61, 1, 8, -8, -4, -12, -19, -13, 2, 22, 5, 1, 12, -13, -27, 39, 3, 48, 2, 11, -33, 85, -3, -10, -2, 9, -15, -4, 18, 19, -5, 75, 38, -3, -18},
{-29, -5, -4, -19, 41, 1, -23, 15, 9, 2, -1, -37, 68, -5, -8, -5, 44, -5, -10, -2, -2, 7, 1, -55, 3, 11, -15, 42, -62, -68, 47, -4, 27, -9, 26, 15, 24, 3, 4, -61, 84, 10, 25, 13, 83, -22, -11, 44, 110, 15, 28, -21, 15, 38, -16, -4, 14, 8, 7, -12, -21, -13, -6, 4, 4, -20, 18, 93, -82, 20, -26, -6, -5, 76, 5, -9, 20, -44, 5, 1, -21, -17, 19, -4, 17, -20, 31, -68, 0, 2, 6, -31, -5, 53, -14, 3},
{-100, 61, -7, -20, 18, -2, -21, 26, -3, -22, 50, 23, 36, -23, 28, 41, -22, -12, 38, 22, 14, -45, 12, 38, 0, -49, 44, 1, -3, -31, -9, -17, -17, 8, 21, -59, 0, 8, 1, 36, 6, -15, 8, -16, -4, 1, 10, -51, 34, -53, -17, -21, 19, -13, -74, -12, -9, 16, -3, 34, -5, -20, -33, 55, -3, 6, -8, 42, 8, -71, 3, -14, -5, -5, -21, 0, 19, 101, 1, 25, 17, 13, 20, -35, 11, 86, -18, -7, -7, -23, -35, -4, 9, -8, -19, -32},
{-47, 50, 19, 11, 15, 1, 34, -19, 71, -75, -25, 19, 10, -14, 6, 6, -28, -23, 33, -54, -8, 67, 60, -26, -12, -13, 17, -25, -10, 7, 27, -1, -20, 0, 3, 2, 13, -43, 8, 39, 2, 35, -20, 3, 6, -23, -11, -41, 63, 2, -4, -38, 71, -29, 54, 7, 3, 2, -42, 6, 14, -22, -73, -45, -23, 19, 54, 26, -24, 76, -9, 22, -17, 10, 30, -2, -20, 31, 2, -34, 24, -16, 8, -6, -14, 1, -3, -20, 57, -11, -8, -10, -16, 46, 44, -10},
{32, 24, -5, 0, 19, 13, 29, -56, 26, 20, 8, 11, 5, -9, -3, -11, 6, 24, -21, 20, -10, 21, 16, -24, 0, 14, -16, -36, 9, -25, 21, -13, -14, 2, -1, -9, -35, -2, 18, 48, 74, -2, 13, 9, -10, -18, 7, 4, 36, 11, -5, 16, -4, -10, 15, -12, -19, 5, 23, 18, -22, 0, -9, -1, 16, 13, 21, 107, -99, 20, 9, 22, -11, -21, -13, 1, 19, -6, -4, -1, 52, 3, -11, -50, 3, 10, 19, 10, -20, 7, 17, -3, 31, -18, 0, -31},
{33, 38, 15, 2, -17, 0, 25, -56, -4, 13, -29, 14, 41, -20, -19, -35, 26, -45, -19, -3, 3, -7, 4, 17, 4, 12, 33, -20, -48, -6, -57, -13, -25, 3, -6, 61, 3, 2, 7, 44, -74, 3, -2, -17, 60, 17, 9, 67, 25, 50, 3, 22, -10, 3, 32, -1, -39, -2, 59, -13, 16, -6, 11, -5, -10, -6, 43, 7, 10, 87, -4, -1, 44, 22, 1, 0, -8, 20, 6, -25, 30, -8, 21, 7, 4, -6, 12, -11, -16, -5, 22, 5, 14, -43, 7, 6},
{80, 26, 3, 67, -9, -8, 5, 24, 14, 17, -9, 21, -15, -18, 6, -4, -36, -24, -44, -3, -8, 7, -46, 13, 7, -24, -20, -39, -28, 8, 5, 12, 35, -9, -32, -10, -21, -10, -12, -27, -16, 21, -58, -7, 0, 20, 0, -50, 1, 0, 20, 23, -97, 11, 0, -26, -25, -6, 36, 23, -10, 2, 17, -47, 20, 2, -50, -21, -30, 7, 9, 17, 0, 2, 14, 4, -5, 69, 0, 6, -5, 2, -45, 2, -11, 25, -9, 19, -17, 17, 19, -12, -17, -47, 66, 19},
{25, 96, -7, -4, -7, -10, 5, -41, -44, 36, -7, -9, 4, -37, -8, -4, -6, 18, -43, -63, 5, -47, 49, 13, 3, 43, -1, 41, -30, -47, -31, 3, 18, 14, 13, -88, 3, 15, -10, -14, -7, 41, 28, 8, -29, 14, 9, -47, 6, -10, 5, -9, 54, -5, 51, -46, 23, 12, 35, -5, 8, -2, -8, -3, 0, 0, -1, 15, 12, -12, -17, -16, -10, 7, -1, 0, -36, -79, 6, 31, -20, -19, -84, 40, 4, 80, 1, -22, -20, -20, 3, -3, -46, 32, -39, 35},
{-18, -14, -38, -14, 0, -1, -8, -28, 19, -22, 4, 41, -8, 14, 1, -53, 23, 48, 8, -5, -19, 38, -1, 66, 5, 21, -13, -11, 19, -11, -1, 14, -47, 32, 5, -9, 12, 15, -56, 15, 37, -5, 26, 12, 14, 16, -18, 5, -9, 21, 1, 26, -4, -20, -5, 9, 15, -3, -59, 113, -11, -3, 11, 21, 30, -31, 28, -4, 13, -19, 1, 13, 76, 8, -4, 0, 66, -8, -9, 13, 17, 15, 42, -75, 2, -51, 14, -3, 3, 3, -6, 7, -4, -7, 11, 0},
{-4, -54, -19, 0, 35, -1, -71, -11, -6, 12, -16, -35, -5, -22, 2, -27, -15, -7, 16, 40, -1, -9, 4, -17, 45, -3, 10, 21, -46, 23, -46, -26, 35, 24, 6, 1, 36, 4, 1, -42, -20, 5, -1, -11, 71, 28, 4, 18, -92, -23, -14, -18, 2, -69, 79, -1, -10, -45, -4, -4, 21, 27, -4, 0, -2, -33, -79, -5, -7, 0, 6, -12, 2, 45, -26, -44, 70, -2, -28, -12, -11, -2, -24, -13, 26, -38, -28, -46, 3, 20, 12, -2, 36, 6, 11, 17},
{1, -17, -21, -3, -69, -21, 53, -16, -14, 8, -4, -19, -45, 4, 0, -7, 6, -11, -6, -4, -6, 14, -1, -8, 14, 7, -26, 4, -17, -3, -8, 124, -55, 9, 1, 4, -17, 4, 10, 8, -45, -4, 2, -12, -16, 0, -19, -46, -8, -15, 8, -2, 0, -77, 4, -8, 33, -19, 23, 18, -13, -22, 1, 23, -7, 44, -26, -1, -3, -4, -15, 12, 4, 60, 3, 2, 21, 4, -3, 4, -1, 33, -13, 21, -26, -3, -17, -48, 2, -16, 2, -32, 29, 14, -20, 6},
{9, 4, -43, -6, -31, -78, -28, 42, -6, 34, 19, -7, -7, 8, -7, 3, -4, -17, -6, -24, -1, 1, -2, -4, -55, 4, -14, -6, -14, -17, 14, 8, 0, 11, 12, 6, 19, 11, -3, 24, 23, 2, 5, 5, 16, 27, 23, -3, -57, -9, 0, 20, -6, 42, -12, 3, 30, -2, 1, -4, 17, -11, 13, 16, -4, 18, 43, 10, 7, -8, 4, -2, 3, 11, 6, 7, -86, -13, -9, -3, 30, 20, -16, 5, -36, -23, -52, 4, 3, 13, -4, -9, 8, 1, -10, -46},
{9, 52, 8, -10, 16, 10, -1, -10, 30, 5, 33, -21, 6, -14, 7, -5, -2, 28, -7, -27, -2, -24, -6, 3, -5, 18, 17, -6, -35, 79, 103, 8, 3, 12, 4, -10, 0, -20, 9, -9, 25, -6, 46, 16, -36, -94, -10, -40, 45, -49, -6, -29, -11, -1, -4, 2, -6, -61, 3, 4, 1, 12, 2, 46, -12, 7, -36, -5, -3, -19, -6, 2, 3, -4, -2, 2, 34, 11, 22, 54, -12, 24, 46, -11, 2, -7, -42, 4, 7, -13, -7, 4, 57, -43, 11, -12},
{-11, -17, 6, 4, -5, -16, 36, 22, 8, -6, 22, -18, -79, 2, 3, -40, 16, 42, 3, 29, 15, -4, 1, -50, 22, -11, -38, -71, 6, 27, 22, -19, 21, 21, 12, 19, 2, -38, 17, 0, 41, 6, -8, -7, 72, -8, 29, 34, -63, 28, 40, -21, 15, 25, -12, 1, -43, 24, 24, -2, -6, -20, -16, 9, -20, -32, -42, -23, 6, 27, 31, -28, -11, 32, -10, 5, -7, 16, -7, -21, -33, 42, -6, -4, 13, -29, -65, 38, 4, -5, 3, 10, -30, 10, -6, -21},
{3, 20, -22, -5, 11, -5, 17, 7, 11, -16, -9, 2, 18, -12, -6, 59, -8, 27, 73, 36, 10, -2, 15, 8, -5, 0, 26, 68, 4, 2, -20, -4, -4, 8, -7, -17, 43, -6, -2, 8, 20, -8, 5, 4, 22, 16, -6, -16, -15, -19, 10, 28, -7, 30, -4, -26, 17, -19, -17, 5, 14, 16, -4, 55, -13, -21, 9, 56, 53, 0, 3, -4, 6, 9, -45, -10, 15, 32, 5, -68, 60, -40, -2, -17, 0, 61, 3, -10, 14, -2, -3, 0, -82, -4, -1, 28},
{6, -51, 1, -2, -5, -11, -5, 0, -5, -9, -62, 12, 0, 25, 0, -17, 8, 11, -9, 28, -80, 106, -6, 20, -1, 3, 21, -6, -22, -39, -41, -2, -29, 20, 22, -1, -25, 9, -10, 2, -18, -17, 1, -1, 16, -14, 9, 1, 21, 2, 4, 12, -6, -10, 14, 3, -57, 4, -4, 70, -13, 2, -13, 17, -16, 0, 8, 30, -40, 21, -4, 9, -12, 3, -1, -7, -16, 22, -7, 10, 26, -19, 10, -55, -8, -30, 4, -16, -13, 22, 7, -8, -21, 29, 95, 9},
{4, -6, 4, -26, 12, -3, 15, -10, 32, -15, -46, 20, -2, -31, 3, 3, -5, -2, 67, 32, 2, -15, 14, -23, 2, 83, 9, -6, 7, 3, 32, -6, -21, -7, 26, 27, 8, -11, -2, 33, 12, -44, -18, -1, 0, 6, 0, -5, 51, 28, 13, 80, 122, -26, -44, -3, -26, -33, 17, 14, -16, -14, 6, 19, 1, 17, 22, -15, -8, -1, 0, 2, -1, -6, 12, 8, -14, -98, 4, 9, 21, -10, 5, -13, 3, 32, -29, 38, -18, 12, 2, -9, 25, 10, -68, -26},
{-7, -23, 17, -10, 25, -6, 26, 24, 6, -9, 2, 34, 23, 4, 1, 27, 25, 8, -20, 4, -2, -23, 20, 32, -6, 12, 28, 15, -21, 2, 78, 22, 14, -5, 13, -15, 36, -14, 7, 34, 1, -11, 3, 53, 0, -46, -6, -51, -37, 13, 2, -10, 19, 14, 2, -7, -4, -71, 5, -1, 24, -33, 4, 31, -13, -13, -65, -8, -6, 6, 3, 11, 0, -21, 6, 9, 65, -17, 17, 48, -25, 76, 8, -15, -3, 8, 15, 33, -6, 49, 65, -11, 36, 1, -29, 9},
{-5, 8, 10, -4, -2, 4, -10, -105, 61, 8, -18, -38, 58, 2, 42, 36, 41, -20, 51, 0, 26, 29, -77, -3, -5, 4, -27, -6, 17, -4, -3, 20, 0, 4, 20, 64, 5, -56, 3, -10, 14, -3, -54, 15, 23, 21, -3, 7, 47, 13, -4, 13, 1, -35, 92, -45, -25, -7, -57, 41, 0, 1, -12, 28, -89, -40, 1, -5, 15, 11, 15, 38, -57, 18, 1, 2, 8, 6, -21, 3, 31, 3, 23, -72, 3, -18, -1, -1, -11, 14, -25, 12, 4, 2, 21, -21},
{-6, 2, 5, -15, -9, -8, 12, -69, -21, -13, -31, 18, -22, 8, 38, -24, 28, -11, -29, 25, 37, -38, -72, 48, 5, 6, 57, -19, -59, 5, -35, 1, -5, 4, -33, 6, 18, -29, -21, 20, -33, -6, -16, 3, 49, 18, 8, 30, -12, -21, 4, 42, -17, 3, 54, -51, 8, -3, -49, 13, 27, 4, 18, 35, -17, 4, 14, 29, -16, -27, -19, -8, -9, -3, 12, 18, -30, 19, 0, 32, 7, -10, 34, 40, 3, -28, 7, -5, -55, 4, -9, -15, -7, -39, 15, 32},
{44, -37, 9, -4, 13, -4, 15, -21, 9, -26, 0, 22, -15, -37, -26, 5, 41, 16, 48, -23, 2, -19, -8, -15, 3, -17, 9, 16, -10, -12, 33, -24, 2, 9, -10, 5, 18, 3, -3, 1, 6, -57, 64, -17, 19, -44, -1, 43, 4, 3, 1, -18, -125, -2, -47, -9, 23, 14, 43, -14, 5, -11, 15, 54, -44, 5, 4, 0, 17, 16, -3, -15, -9, -15, 6, 0, 3, 63, 10, -4, -19, -5, -8, 30, -1, 47, -11, -9, -17, 14, 26, -7, 23, -46, 39, -6},
{-48, 54, -11, 13, 7, -11, -9, -47, 22, 39, 2, -1, 29, -8, 18, -71, -113, -59, -9, 25, 23, -34, 21, 6, 3, 40, 11, -2, -24, 23, 45, -6, 1, -1, -7, -31, -8, -16, -10, 2, -47, 4, -20, -9, -33, -36, 3, -40, 3, -36, 0, -15, 26, -35, 35, -1, -68, -1, -27, 41, -1, 10, 22, -6, 116, -29, 16, -1, -13, -82, 12, -4, 26, -2, 0, 5, -1, 17, 5, 8, 28, 24, 19, -33, 8, 36, 6, 24, 3, 17, -8, -6, -36, -3, -18, -17},
{26, 4, 1, 38, -6, -3, -33, -47, 29, 15, 4, -18, 41, -4, -35, 21, -99, -60, -17, -21, 37, -4, 70, 11, 0, -15, -56, -22, -48, -21, -41, 23, 4, -9, -22, -119, 11, -20, 10, 16, -27, -12, -7, -19, -20, 24, -6, -61, 34, -21, 14, -41, -7, 1, 32, -10, -33, -13, -4, -22, 10, 3, 25, -42, 112, -10, 3, -1, -10, -68, -2, -11, 18, 32, 4, -7, -15, -48, 7, -52, -1, -6, -69, 3, -3, -3, 1, -26, -20, -10, 31, 13, -40, 34, -12, 1},
{-7, -7, -9, 11, 6, -20, 7, -22, 6, 17, -2, 27, -10, 15, 6, -1, -30, -3, 4, -8, -11, 12, 22, 31, 6, 4, 11, 24, -14, 48, 37, -11, 20, 7, -14, 10, 16, 15, -19, 3, -84, 3, -16, 2, -16, -2, 2, -32, -58, -29, -34, -22, -7, 24, 7, 13, 52, 39, -5, -23, 69, 4, -3, -14, 21, 25, -6, 79, -5, 15, -13, -25, -2, -4, -41, 18, -6, 29, 29, 24, -77, 53, 18, 93, -11, -32, -17, 18, 10, -17, -6, 1, -34, -10, 7, 12},
{-17, 9, 12, 8, 25, -4, 19, 17, 24, 24, -13, -18, 10, -2, 12, -6, 8, -21, -6, 8, 7, 38, -13, -13, 2, -17, 11, 16, 31, 29, 70, -8, 16, -16, 15, 22, 22, -1, 1, -26, 34, -10, -27, 27, -25, -90, -24, -33, 32, 36, 3, -52, 28, 25, -44, -20, 6, -59, 2, -14, -10, -16, 11, -72, 18, 18, -14, -4, 13, 0, -7, -11, -5, 4, 0, -5, 28, -28, 24, -60, -46, 37, 28, -6, -8, -32, -19, 0, -10, 5, -3, -1, 36, 32, 4, -8},
{0, -38, 2, 10, 1, 5, -8, 81, -24, 13, 6, 7, 29, 21, 7, 118, -39, -33, 11, -9, 27, -3, 26, -28, 2, 1, -6, -9, 1, -2, -28, 3, 0, -9, 3, 61, 8, -37, 15, -4, 3, -9, -29, 6, -8, -26, 6, -10, 3, -93, 1, -24, 35, 11, -73, -52, -29, 6, -24, -17, -12, 0, -24, -11, -28, 17, -1, 0, -4, 67, 3, 1, 40, -6, 2, -2, 9, 10, 4, -16, 11, 1, 20, -10, 2, 18, 8, -13, -27, 10, 8, -3, 26, 0, -7, -8},
{23, -73, -18, -23, -23, -9, 21, -2, 1, -48, -1, -23, -50, 7, -4, 36, -2, -8, 88, 24, -19, 19, 10, 45, -1, 59, -16, -30, -35, -8, 9, 23, 22, -6, 31, -27, -43, 24, -24, 4, -69, -40, 38, -4, -4, 47, -5, -33, -25, -73, -6, 29, 1, -3, -17, -3, 22, -43, -98, 1, 25, 22, -18, 123, 4, -33, 6, 49, -87, 21, -9, -3, 3, 24, 15, 14, -19, -36, -8, 12, -53, -10, -26, 41, -6, 32, -4, 4, -5, -13, -7, 3, -17, 49, -6, 62},
{-17, -21, 6, 13, 86, 14, -24, -34, 8, -6, 9, -105, 10, -7, -6, 12, 7, -11, 4, -24, -1, 16, 1, -16, 9, -30, -29, -26, 33, 77, 25, -6, -36, 27, 0, 3, -59, -4, 19, -14, -9, -10, -24, -26, -17, -37, -51, -26, -44, 24, -14, -45, -11, 40, 30, 3, -9, -32, 11, -9, 7, 26, -10, 2, -6, -3, -26, -30, 19, 9, -76, 76, -7, -23, -8, 7, 40, 19, -6, -34, -104, -19, -7, -34, 17, -3, -14, 65, -6, 19, -6, 22, 37, -35, 8, -45},
{13, 25, -17, 1, 20, -5, 14, 9, 50, 34, -2, 12, -21, -2, 6, 14, 14, -11, -3, -20, -1, 4, 0, 28, -1, 3, 3, -4, 22, 76, 6, 41, 0, -13, 2, -15, -85, 0, 7, -76, -3, 4, -1, 17, -38, 20, -1, 11, 42, -1, 12, -3, 2, -75, -8, 3, -36, 24, 4, 27, 43, 28, -1, 3, 9, -4, 5, -7, -5, 0, -17, 25, -2, -30, -8, -50, -15, -2, 13, -6, 0, -51, 63, 4, 4, -5, 2, -13, -7, 69, 10, 3, -16, 29, -1, -56},
{-1, 6, 2, 26, -10, 5, 20, 39, 4, -33, 76, 9, 35, -24, -41, 76, -6, -40, 52, -38, -19, 54, 11, -18, 2, -59, -123, -10, -2, -13, -10, -18, 3, -1, -21, -32, 2, -18, 1, 8, -4, -14, 15, -2, -41, 26, -4, -6, 64, -18, -10, -49, -62, 36, -73, 4, -26, -22, 29, -1, 9, -3, 13, -10, -28, 12, 11, 15, -8, -15, -14, -3, 24, -7, 9, -14, 2, 16, -3, -28, 30, 0, -48, 6, -7, 46, -8, 14, 1, 9, 10, -2, 22, -6, 46, -16},
{-15, -28, 37, 17, 38, -24, -33, -11, -24, 46, 29, 0, 8, 23, -5, 34, -4, 28, -13, -89, -17, 5, -9, 23, 7, -41, -37, 45, 22, 37, -4, 12, -17, 6, -7, 38, -6, 39, -4, -41, 15, 28, 6, -14, -29, -69, -30, -47, -29, -19, 19, -43, -7, 35, 31, -1, 41, 21, 9, -11, 16, 13, -18, -44, -32, 84, -23, -20, 30, 7, -33, 30, 2, -58, -35, 20, 32, 20, 12, 29, -38, -22, -28, 1, -71, -27, 6, -10, 9, -3, -9, 10, -16, 26, 18, -2},
{-34, 23, 12, 18, -37, -52, 7, 37, -7, -38, 64, 51, 9, -5, -6, -61, 3, 3, -22, -30, 39, -41, 22, 69, -36, -45, -27, 57, 32, -10, 9, -14, -33, -19, -75, -9, 9, -22, -8, 30, -31, -7, 8, -18, -36, 39, 13, -42, 13, 59, -28, 26, -22, 13, -25, -3, 23, 18, -24, 10, -9, -52, -28, 6, 18, 71, 70, 33, 25, -2, 42, -14, -18, -34, 11, -5, -79, 57, 26, 25, 22, 26, 4, 23, -60, -4, 53, -35, -4, 6, -30, 0, 33, -7, -13, -27},
{-43, 101, -23, 6, 24, 36, -23, -16, -10, 92, 52, 5, 20, 6, 0, -19, -11, 3, 2, -57, -1, 13, 4, -62, -17, -5, -29, 18, -78, -43, 30, -33, -14, -2, -2, 27, 8, -13, 2, -8, 18, -8, -1, 10, 82, 30, -41, -24, 73, -30, 6, 0, 10, 4, 20, 6, 71, -25, -5, -27, 5, 32, -16, 16, -10, -22, 6, 5, 6, 3, 20, 19, 0, 0, 23, 6, -12, 21, 8, 24, 12, -50, -6, 26, -7, -32, -98, 24, -2, 3, -7, -29, 33, -5, 4, -4},
{-5, 1, -19, -2, -3, -14, -54, -26, -30, -69, -16, 41, -76, 6, -6, 47, 46, -9, 37, 12, -25, 57, -4, 111, 0, -30, 1, 16, -118, -49, 3, -15, -13, 21, -1, -8, -6, -10, -68, 20, -73, -12, 27, -38, 45, 1, 4, 6, -11, 17, 21, 20, -30, -6, -7, 11, -3, 23, -30, 60, -13, 33, -8, 15, -51, 27, -8, -64, -6, 8, -38, -12, -25, -15, 12, 19, -43, 23, 3, -21, -83, -27, -9, 82, 3, 9, -1, -1, 22, -10, 6, -19, -26, -7, 55, 63},
{-47, -93, -16, 5, -3, 4, -29, 9, -11, -26, -8, 13, -16, 71, -6, -5, 29, 29, -2, 23, 25, 22, -5, -42, -5, -40, -32, 8, -27, -18, 4, -20, 37, 23, 0, -10, -17, -87, 2, 30, 26, -28, -25, -29, -18, -21, 23, 54, 15, 28, -14, -19, 45, -43, 29, 64, 17, 0, -74, -13, 2, -6, 4, -63, 6, -30, 7, 53, -39, -54, 18, -11, -13, 0, -1, 23, 14, 3, 11, -27, 14, 8, 52, 21, 26, -121, 16, 27, 17, -2, 8, -2, -5, 27, 34, 7},
{-14, 16, 2, -11, -32, -67, -45, -25, 16, 27, -14, 60, 28, -5, -4, 12, 3, 2, -12, -16, 5, -9, 8, 57, 6, 14, 16, 44, -12, -55, 51, -1, 40, -13, 23, 3, 0, -5, -3, -26, 21, -7, 2, 22, 31, 29, 99, 1, 0, -4, -2, -12, 32, 22, 3, -9, 31, -9, -5, 16, 3, -25, -1, 8, -15, -11, 64, 10, -10, -5, 17, -50, 2, 48, 11, -9, -45, -15, -1, -18, 32, 116, 17, 12, 1, 24, -27, -72, -2, -5, 1, 17, 29, -22, -34, -57},
{28, -53, 15, 14, 14, -3, -43, -18, -16, -25, 10, 5, -34, 7, 2, -9, -32, 14, 13, 40, 0, -4, -11, -17, 5, 7, -5, -50, -63, -67, 37, 12, 37, 6, -20, 67, -30, 9, 3, -19, 49, -7, -12, -2, 82, 17, 4, -14, 46, -3, 84, -9, 3, 8, -9, 24, 20, 13, 30, -26, -17, -2, 4, 3, 19, 12, -66, -104, 20, 21, -3, -55, -2, -15, 37, 4, 5, -4, 12, -32, -52, -6, 18, 20, -24, 16, -30, -30, -12, -4, -7, -16, -3, 9, 1, 10},
{-1, -10, 13, 11, -20, -5, -1, -5, -31, 15, 22, -21, 37, 3, 3, -55, 2, -12, 15, 50, -6, 14, -41, 3, 8, -11, -32, 44, -13, -3, -62, 28, -10, 1, -19, 36, 30, -3, 13, 33, -3, -11, -21, -16, 11, 12, 9, -2, -61, 36, -15, -29, -9, 56, -5, 8, 39, -22, 15, -36, 32, 20, 4, 7, -11, 14, 51, 66, 49, 11, 8, -26, 3, 17, -70, -12, 7, 5, 5, -38, 3, -71, -23, 22, 0, -19, 17, -28, -7, -32, 17, 9, -64, -27, 8, 23},
{9, 24, 26, 0, -9, -3, 68, 2, -85, 10, -6, 49, 7, 0, 2, 4, -1, -5, -7, -2, 1, -1, 2, 62, -15, 0, 2, 0, 8, 31, -66, 21, -48, 21, 2, -13, 15, 6, 1, 35, -7, -1, 1, -67, -33, 8, 16, -1, -25, 4, -3, -14, 4, 54, 1, 2, 13, 34, -1, 2, -12, 14, 0, -5, 1, -9, 6, 4, -1, 1, -19, -15, -4, 17, -3, 13, -60, 4, -92, 2, 37, 18, 34, 4, 0, 7, 16, 29, -3, -21, 7, 0, -46, 1, -3, -15},
{4, 21, 29, -6, -35, 7, -106, 0, 12, -3, -2, 62, -12, -1, -2, 3, 0, 8, 2, -3, 3, -12, 3, 26, -17, 2, 7, 7, -12, 45, 14, 25, -27, 9, 6, -1, 3, -2, -4, 10, 13, 0, 0, -38, -89, 44, 26, -6, 5, -3, -3, -12, -1, -38, -27, 2, 8, 19, -2, -8, -4, -40, -1, -1, -14, 37, 8, -5, -7, 1, 66, 48, 9, 3, 0, 8, -57, -9, -30, 11, 31, 4, 1, -13, -32, -2, -3, -64, -1, 3, -5, 2, 62, 16, -3, 60},
{9, 2, 15, -33, 18, -7, 20, 15, -47, -1, -39, 16, -53, 4, -13, 19, -24, 9, -3, -34, 15, 20, -15, 1, 14, 48, -4, -23, -32, 32, 18, 29, -19, 5, 57, -22, -35, -8, -1, 11, -30, 11, 29, 24, -18, -17, -29, 31, -53, -56, -12, -22, 48, -15, -11, -7, 22, -17, 22, -20, 15, 16, 5, -4, -8, 61, 10, 12, 3, -20, -57, 18, -14, -24, -10, 11, -35, -104, 1, 12, -79, -11, -27, 34, -54, 16, -2, 12, 4, -25, 4, 17, 5, 94, -28, 15},
{46, -44, -13, 28, -18, 6, -12, -49, 14, 7, 46, -25, 9, -7, 45, -44, -61, 8, -6, 12, -4, -28, -5, -1, -6, 21, 5, 13, 10, 20, 16, 16, -5, 21, 4, 6, 9, 39, -16, -25, -16, 0, -81, -10, 30, -15, 5, -55, -18, -19, 9, -43, 26, 6, 32, 38, -16, -21, 63, 37, 12, 20, -36, -21, -22, -51, 36, -57, 37, 76, 4, 6, 32, 13, -5, -2, 48, 0, -3, -11, -1, -17, -27, -33, 16, 27, 11, 25, -4, -6, -2, 4, 0, 25, -27, -14},
{-57, 14, 1, -3, 9, -8, -6, -16, -6, 53, 23, -7, 23, -24, 13, -18, -16, -57, 50, 65, -6, 0, -47, 15, 8, -9, 5, 22, -41, -26, 4, -4, 3, 12, 31, 107, -15, 28, -11, -7, -49, 0, -56, -10, -22, 16, -7, 35, 16, 67, -1, -55, 46, -24, -28, 9, -16, -11, 49, -1, 16, 4, 21, -11, -1, 13, -3, 46, -19, -24, -18, -10, 9, -4, -8, 8, -21, 29, -14, -75, -21, -11, 51, 19, -8, -10, 6, -22, 16, -25, -11, -3, -6, -13, -36, 17},
{-4, -42, 16, 1, 4, -4, -3, -66, -12, -68, 76, 12, -18, 21, 7, -22, -5, -38, 50, 36, 29, -68, -3, -29, 5, 16, -29, -19, -34, 7, -21, 2, -12, -12, -12, 13, -11, 12, 26, -11, -4, -1, 11, -14, -8, 10, -12, -38, -2, -9, 15, 9, -17, 18, 31, 45, -64, 8, -43, -55, -5, 5, 0, 33, 4, 74, 2, -42, -29, 3, -27, 23, 31, -29, 10, -4, -10, 9, 6, 12, -8, 14, 48, 23, -27, -19, -13, -20, 44, -9, -12, -5, 36, -16, -46, 24},
{45, 15, -2, 46, 14, -11, 1, -76, 40, -7, -9, 38, -4, 4, -15, 64, -55, 23, 43, -7, 56, -45, 77, 41, 10, -10, -36, 24, -24, -12, 46, -24, -6, 9, 0, 21, 8, -66, -42, -19, 1, -23, -42, -11, 6, 31, 1, -18, -17, 1, 2, -27, 19, -24, 18, -8, -6, 11, -20, 59, -4, 2, -19, -30, 62, 9, 16, -23, 41, 64, -24, 16, -14, -22, 0, 27, -13, -10, -6, -84, -20, 6, 13, 1, -3, 0, 3, 22, 2, -11, 18, -12, -26, 2, -18, 17},
{-23, 20, -3, 13, -20, 2, 4, 29, 39, 19, 36, -14, 35, 8, 0, -1, -29, -4, 22, 22, -11, -12, -1, -14, -6, -14, -8, -28, -50, -8, 61, 1, 46, -11, -62, -28, -49, 9, 3, 61, -28, -29, -38, 4, 14, 38, 7, 0, 57, 3, -11, -17, 1, 2, -63, 8, 56, -7, -8, 9, 1, -18, 7, -58, 2, -7, -31, 28, -40, -23, -1, 3, -25, 1, -7, 12, -43, 12, 12, -36, -27, 9, -9, -9, 4, 8, 2, 43, 17, -6, 18, 3, -28, -51, -3, -44},
{-5, -16, -2, -17, -29, 0, 10, 18, 32, 17, -16, -34, -4, -10, 8, 3, 10, -7, -8, 30, 2, 7, 1, -7, 7, 57, -2, -18, 35, -27, -85, -63, 12, 11, 25, 17, 25, -5, -5, 3, 23, -22, 2, 11, 22, 48, -5, 6, 5, -9, 2, -1, 25, -36, -15, 2, 14, 108, 4, 12, 5, 2, 6, -2, -1, 3, 47, -17, -4, -7, 20, -20, 10, -7, 9, 1, -25, -57, 0, 2, 22, -19, -5, 13, 5, 9, 29, -25, -2, -61, 9, 0, -20, 24, -9, -10},
{11, 7, 12, -2, 11, 36, -3, 18, -30, -13, 4, -38, 2, 2, -7, -14, -3, 3, -7, 20, -2, 8, -2, 5, 13, -2, -19, -2, -32, -32, 58, 11, 20, 13, -15, -7, -49, -13, 7, -26, 32, -3, 3, 50, 28, 14, -34, -9, 16, 3, 11, 24, -15, -1, 24, 2, 2, 21, -5, 10, -11, -98, 4, 29, 5, -9, -45, 4, 4, 3, 39, 22, 7, 34, -14, -19, -28, -10, 5, -25, -8, 111, -32, -19, -3, -9, -74, -75, 1, -8, 3, 73, -59, 25, 17, -2},
{-57, 0, -17, -10, 3, 8, -16, 6, -29, 32, 49, 28, 18, 4, -28, -28, 2, 14, -44, 31, 21, -4, 43, -35, -40, 8, -93, -19, 15, -6, 20, -4, -47, -15, 39, 1, -16, -52, 13, -5, 44, 4, 46, -16, 43, 0, -49, 8, 25, 12, 23, -53, 52, 1, 17, 11, -42, -16, 44, 9, 4, 23, 16, -19, 31, 47, 13, -19, -3, -84, -4, 33, -21, -15, 1, -13, 7, -10, 20, 14, -14, -30, 10, -30, -28, -12, -6, -9, -3, -2, -11, -32, 23, -8, -42, 20},
{23, 39, -11, 9, 20, -16, 0, -85, 18, -1, 98, -21, -1, 1, 1, 43, 15, 7, -17, -48, -95, 74, -9, -39, -2, 7, -61, 4, -7, 3, 39, -5, 3, 10, 19, 28, -9, 93, 5, -5, 5, 0, 4, 4, -2, 14, -3, 13, 29, -16, 6, -21, -40, 18, 75, -26, -6, -16, 14, -17, -10, -2, -3, 3, -20, 0, 4, 2, -4, 30, 11, 10, 67, -21, 7, -8, 0, -24, 4, -1, -9, 8, 0, -7, 3, 5, -6, 4, -6, -2, 13, -11, -22, -34, -3, -8},
{7, 17, -40, -3, 3, 10, -24, -10, 40, 14, 1, -73, -2, -6, 2, 8, -14, 10, 8, 3, -2, -5, 0, -103, -2, -5, -4, -9, 67, 45, -13, 24, 44, -77, -1, 4, -21, 2, -5, -32, 59, 3, -5, 16, 24, 45, 11, 3, -65, -4, 2, -3, -2, -96, -4, 6, -10, 15, -2, -87, 9, -11, 1, 10, -13, 11, 23, -12, 9, 1, -7, -16, 2, 46, -13, -23, -42, -8, -1, -7, -53, 6, -5, -41, -5, -7, -6, 4, -5, 28, -11, -10, -57, -21, -7, -15},
{-20, -22, 3, -25, -29, -7, 47, -25, 22, -29, -14, 7, -51, 3, -16, 3, 30, -27, 22, 45, -21, 25, 18, 24, -12, 6, 13, -113, 15, 72, -13, 35, -19, -9, 19, 28, 7, -6, -6, 11, -8, -25, 61, 0, -29, 21, 3, 23, -54, 15, 1, 3, -5, -17, -21, 2, -55, -9, 11, -1, -2, -8, -7, 54, -3, -11, 0, 9, -49, 15, 18, 1, -7, -10, -9, -12, 2, 16, -14, -3, 5, 18, 20, -4, -3, 25, 0, 20, -13, 4, -10, 27, 15, -4, 10, -14},
{-7, -42, -2, 3, -2, -1, 78, 17, -16, 3, -7, -15, -62, 5, -2, -5, -3, 10, -20, -13, -6, 10, 3, 15, 0, 0, -18, -99, 67, 69, -15, 9, -37, 23, 1, 0, 19, 3, 10, -41, 5, 5, -13, 12, -16, 15, -9, -31, -55, -3, 5, -2, 7, -32, -8, -1, -68, 27, 0, 8, -26, 17, 6, -31, 0, -8, -25, -13, -24, -11, 22, 9, 0, 15, 43, -28, -3, -9, -27, -7, 30, 9, -21, -9, -4, -12, -48, 16, 2, -18, 4, 16, 41, 10, -2, -24},
{-1, 1, 8, -1, 16, -7, -8, 4, 99, 2, -19, -67, 1, -1, -3, -7, 1, -2, 0, -8, 7, 12, 7, 5, 39, 9, -8, -11, 7, -8, -14, -11, 8, 25, 7, 5, -10, 1, 4, 20, 27, 3, 4, 45, -14, 10, 43, -6, -11, 13, -2, 11, -5, 6, -19, -2, 10, 14, -2, -11, -15, -12, 0, 8, 11, -117, -37, 8, -7, 7, 58, -58, -18, 23, 3, 18, -5, 2, -24, -6, -31, 10, -13, 1, 54, 5, -13, 18, 4, 29, -8, -7, 36, 3, -1, -14},
{71, -23, 17, -5, -26, -17, 5, -50, -9, -7, -47, 59, 7, 10, 11, -12, -16, 10, -5, -4, -36, 25, -22, -11, -9, 57, -6, 15, 7, -29, -1, -21, -48, -28, 51, -47, 65, 28, 19, 65, 30, -6, -45, 15, 5, 18, -12, 11, 36, -32, 3, 26, 43, -41, 5, 29, -6, 11, 7, -40, -17, -63, -4, -18, 6, 73, 56, -10, 10, 46, -9, -7, 0, -13, 1, -18, -14, -85, 13, -25, 15, 31, -39, 0, -21, 17, 0, -90, 9, -45, 8, 8, -9, 22, -8, 10},
{-6, -5, -12, -5, 21, 62, 28, 34, -25, -62, 47, -5, 3, 8, 1, 29, 26, -9, -44, -9, 3, 46, 1, -4, 10, 2, -113, -3, -19, 33, 26, -3, -9, -13, 15, 6, 48, -31, -4, 26, -53, 9, -5, 3, -22, -72, -42, 31, 60, 9, -25, 21, 3, -17, -9, 9, 5, 6, 31, -12, -9, -81, 12, 4, -56, 16, -60, -2, 5, 11, 7, 28, 9, 0, 4, 7, 7, -45, 5, -16, 1, -10, 5, 18, 21, 24, -10, -1, 13, -3, 6, 9, -16, -57, -18, 53},
{0, -25, -6, 10, 0, 3, -28, -28, -4, -60, 37, -34, -34, -14, -1, 25, -19, 41, 53, 23, -25, 87, 23, 25, -7, -8, -104, 58, 23, 24, 10, 8, 3, 16, -6, -56, 14, -71, -18, 3, -37, -10, -11, -6, -10, 20, -6, -22, -5, -20, -8, -18, -18, 6, -11, 27, 39, -8, 12, 36, 17, -2, -13, 19, 19, -41, 15, -38, 61, -7, -10, -17, -19, 25, -9, -1, -25, -9, 8, -11, 1, 7, -6, -11, 5, 51, 37, 19, 18, -2, -10, 16, -26, 19, 64, -14},
{4, -16, -4, -20, -3, 5, 24, -15, -9, -7, -9, 3, 23, 31, -10, 10, 19, 0, -3, -28, -22, 2, 17, -34, 4, 7, -51, 34, 3, -25, 18, -36, -33, 23, 21, 1, 54, -14, 2, 58, -68, 2, 38, 8, 27, 4, -7, 29, 32, 7, -4, 59, 5, -32, -4, 12, 37, 55, -6, -26, -7, -10, -2, -6, -4, -21, 7, 30, 23, 5, -59, 7, -1, 10, -4, 30, 2, -9, 22, 23, -9, -5, -9, 15, 18, -13, 23, -2, 17, -22, -16, 13, -41, -1, -4, 10},
{16, 20, -3, -5, -3, -2, 17, 58, -2, -18, 99, 23, -33, -16, 11, -4, 46, 56, 1, 1, 22, -127, -26, 26, 0, -3, -23, -14, 21, -22, -23, 2, -16, 14, -31, -37, 3, 99, -27, 14, 55, 3, -17, 10, 33, 5, 1, 4, -11, 25, -4, 6, -3, 16, -45, -3, 15, 7, -1, 59, -8, 2, -13, 7, -53, -7, -7, 18, -25, 22, 2, 1, -38, -4, 2, 2, 10, -36, -7, 1, 5, -10, -20, -23, 0, 0, -9, -5, -3, -2, -1, 6, 2, 8, -126, 14},
{-15, -50, 31, 0, 25, 7, 48, 4, -52, -61, 4, 52, -17, 1, -5, -23, -16, 6, 18, 56, 2, 9, 5, 19, -5, 4, 0, 9, -19, 53, 38, 18, 15, 28, -5, 15, 1, 7, -6, 47, -22, 4, 5, -23, 73, 33, -9, -25, -30, 2, 5, -27, -2, 68, 26, -7, -77, 20, -4, -3, -15, -7, 1, -7, -3, 1, 46, 21, 8, 3, -15, 25, -1, -9, 14, 32, -13, 3, -71, 4, 12, -9, -38, -7, 2, 7, 16, 19, 3, -5, 10, 0, -77, 6, -3, -14},
{18, -72, -4, 24, -13, 4, 17, -33, 49, -4, -16, -15, -6, 27, -23, -5, -68, 77, 0, 4, 41, -81, 65, 16, -5, 34, 80, 30, 49, -22, -19, -3, -20, -2, -10, 114, -6, 13, 6, 9, 20, -18, 35, -24, -4, 19, -6, 9, 28, -36, -19, 28, 4, -7, 48, 35, 67, 6, 13, 4, -5, -20, 10, 4, 80, -13, 10, 44, -10, 71, 8, -5, -3, 12, -2, 4, 29, 48, 15, 14, 12, -24, 39, -20, -7, -1, 39, -3, 13, -15, 17, 6, 9, -34, -23, -8},
{-51, -25, -2, 15, 10, 27, -28, 33, -23, 16, 19, -9, -9, 3, 15, 29, 5, 4, -13, 40, 5, -26, -21, 39, -2, -29, 73, 14, 12, 0, -51, 51, -14, 0, -5, 55, 23, 39, 4, 9, 21, 5, -16, -11, -17, 8, -36, 3, -33, -14, 15, -54, 4, 24, 15, 4, 9, -3, 38, -11, 7, -16, 0, 28, -22, 27, -60, -29, 33, -35, -26, 51, -11, 6, -9, -20, 10, 88, 9, 12, -13, 35, 6, -7, -5, 29, 16, -75, -1, -3, -10, 42, -25, -32, 11, 41},
{-99, 29, 5, -24, -24, -5, 11, 10, -1, -75, 51, -27, -55, 2, -9, -64, 43, 38, -17, -13, 16, -4, 29, -34, 0, -46, -30, -23, -40, -31, -19, 10, 40, 7, 3, 31, -6, -19, 4, 15, 1, 20, 30, -9, 10, -14, 4, 20, 18, 53, 32, 8, 16, 30, 19, 3, 6, 14, -8, -36, -24, 10, -4, -18, 2, -10, -29, -5, -50, -9, -1, -10, -6, 18, 15, -5, -43, 41, 11, 55, -27, -27, 55, 42, -3, -39, 22, 12, 13, 3, -35, 0, 42, -38, -9, 49},
{4, 3, 8, 3, -3, 13, 78, -21, 65, -29, 11, -118, 28, 2, -3, -7, 4, -20, -4, 27, 0, -9, 5, -72, 5, 0, 0, 12, -15, 20, -25, 30, -48, 15, 2, -21, 13, -7, -12, -6, -2, 0, 5, 9, -16, -32, -37, 11, -2, 1, 3, -31, -2, 95, -24, 2, -5, 33, 5, 25, -4, -74, -5, -2, 1, -12, 20, 0, 1, 5, -51, -41, -3, 64, 3, -34, -52, 0, -19, 1, -55, -11, 41, 5, 17, 4, -22, 27, 2, -15, 11, -16, -12, -35, 13, -9},
{12, -58, 6, -10, -32, -11, -15, -26, -24, -43, 26, 1, -30, 37, -6, 102, 1, 8, -6, -33, -5, -47, -42, -42, 10, -46, 2, 48, -42, 10, 11, 5, 59, 22, -15, -84, 36, 57, -3, -5, -41, -12, -25, -1, -11, -7, 29, -9, 5, -96, 6, -7, 2, -8, 29, 50, 30, 29, 1, -36, 8, -26, -16, -14, -85, -82, -43, -52, 73, -25, 48, -94, -14, 39, -7, -3, 22, -38, 7, 5, 8, 35, -42, 65, 48, 10, 34, 23, 24, -14, -2, -8, -1, 9, -55, 9},
{52, -39, -1, 43, 5, 0, 10, 20, 35, -10, 19, -13, 9, 4, -14, 48, 13, -16, 29, -54, -8, 2, 46, 22, 2, -56, -13, 10, -5, -12, -8, 2, -18, 11, -26, -32, -36, 11, -10, 28, -14, 12, -14, -3, -22, -14, -6, -33, 20, 37, -19, -18, -30, 24, -2, 6, 27, 2, -55, 6, 18, 10, -16, -28, -17, 8, -9, 90, -54, 19, -10, 4, -9, -12, -15, -3, -8, -28, -4, -33, 1, -18, -41, -1, -14, -58, 17, -20, 23, -11, 31, 6, -26, 15, 14, 7},
{46, 36, -15, -7, -33, 5, 0, -82, 6, 40, 31, 1, -3, 11, 14, 54, -46, -11, 6, -12, -1, -31, -9, -43, -4, 79, -32, -23, -24, -6, -4, -3, 30, -2, 15, 81, -25, 28, 12, 38, -18, 34, 24, 19, -23, -26, 10, -26, 23, -91, -13, 17, -14, 38, 60, -16, 12, -1, -17, -53, 10, 0, 10, 10, 5, -21, -2, 50, -31, 37, 17, -6, 19, 24, 3, -2, -1, -1, 6, 57, 6, 6, 35, 48, 14, 61, 15, 12, 30, -7, -11, 8, 13, -43, -34, 9},
{11, -3, -2, 7, -13, -2, 15, -1, -9, 57, -21, -1, -92, -18, 33, -83, -38, 107, -45, 20, 51, 37, -13, -4, 10, 50, -43, 16, 11, -27, -29, 17, 9, 26, 24, -15, -11, -98, -19, 3, 38, 6, -16, -9, 3, 4, 1, -61, -27, -27, -1, 8, 7, 4, -1, 31, 103, -4, 71, -21, -16, -3, -31, 24, -5, -4, 31, 25, -26, 39, -1, -25, 16, -6, -12, 14, -53, 18, 26, 53, -36, -11, -10, 53, 4, 62, 2, -13, -26, -3, -19, 7, 1, 46, 28, 37},
{-17, -4, -7, 0, 22, -6, -6, 4, -68, -25, 3, -25, -8, 0, 3, 2, 1, 10, 12, 41, 1, 5, -4, 29, -3, -2, 8, 5, -35, -6, -1, 9, 23, -17, 1, 5, 17, -1, 0, 30, 12, 0, 6, -18, 28, 32, 7, 3, -1, 4, 4, 11, -2, 17, 27, 1, -20, 51, 3, -13, 23, -60, -1, -5, 2, 2, 6, -2, 5, 0, -4, 35, -1, 8, 10, 79, -90, -2, -57, 0, -40, 33, -11, 0, 6, 7, -3, 23, 0, 14, 5, 14, -78, -17, -1, -13},
{14, -15, -6, -8, -20, -8, -33, 55, -1, -26, -46, 21, -33, 3, -13, 59, -32, 13, 28, 18, 21, -46, 22, 29, -5, 3, 95, -16, -44, 1, -39, -8, -31, 7, -7, -30, -3, 28, -23, 5, -7, 21, 37, 13, 44, -4, 6, -16, -68, -38, 32, -14, 12, -25, -43, -25, -18, 5, -32, 45, -13, 2, -25, 3, 14, -11, -28, -42, 10, -2, 9, -6, -1, -5, -3, -14, -48, -10, -13, -3, 36, -8, -13, -14, -16, 8, -27, -17, 2, -2, -1, 2, 3, 52, -22, 40},
{18, -41, 14, -6, 10, 3, -6, -39, -48, -23, 84, -14, 0, 11, -17, -44, 53, 31, 0, -25, 33, -51, 7, 5, -7, 27, -103, 13, 20, 20, 16, -3, -1, -14, -9, -2, 3, -8, 19, -10, 1, -24, 51, 12, 8, -5, 4, 21, -8, 25, 3, 49, -25, 22, 23, -34, 4, 1, -59, -19, -4, 8, 5, 46, 34, 17, -4, -13, 29, 22, -8, -10, -10, -1, -11, -1, 20, -23, 7, 27, -4, 3, 35, 3, -4, -41, 16, -3, -48, -9, -15, 0, 19, 15, -57, -2},
{-36, -16, 9, -5, 35, -26, -5, -58, -9, 7, 66, -12, -3, 0, 3, -3, 42, 4, -24, -18, -2, 31, 0, -16, 32, 10, -79, 19, 33, 18, 32, 27, 37, 1, 9, 24, -11, -34, 0, -24, -26, -10, -1, -5, -28, -9, 36, -6, -61, -2, -20, -38, 24, -6, 53, 3, 24, -10, 19, 1, 11, 26, -48, -8, -5, -20, 36, 14, -4, 43, 4, -38, 3, 4, -1, 17, 31, 33, -24, 10, -2, 50, 7, 10, 13, 5, 71, 11, -5, -9, -21, 9, -6, 68, -12, -14},
{-28, 13, -9, 2, -16, 6, -19, -22, -16, 23, 6, 3, -80, -2, -20, 90, -74, 127, 18, 30, -46, 44, 17, -5, -1, 0, -3, 12, 45, -22, -21, 3, -5, -2, 12, 52, 5, 27, -3, 2, 67, 0, -9, -9, -37, 11, 5, 8, -21, -60, -6, -44, 16, 2, 24, -34, 70, 5, 14, -6, -15, 5, 32, -16, 33, 3, -7, -5, 3, -42, 8, -4, -20, -1, 3, 5, 3, 8, -4, -26, -20, -3, 17, 14, 1, 48, -2, -8, -7, -10, 2, 1, 9, -27, 7, 21},
{-39, -59, -2, -27, 5, 3, 13, -56, -17, -20, -2, -15, 80, 12, -35, 72, -4, -79, -14, 24, -4, 13, 13, -3, 3, -33, 9, -1, -19, 9, -13, 4, 0, 0, 7, -33, 10, 8, -2, 0, -20, -13, 55, -5, 21, 31, -5, -14, 27, -87, 3, -24, 4, -10, 46, 49, -55, -9, 82, 22, 11, 12, -4, 30, -70, 9, 58, -20, 7, -29, -13, 15, -24, 9, 0, 2, 20, 4, -3, 33, 20, -17, -33, -30, -6, 56, 16, -13, -8, 10, -5, 6, 15, -16, -10, -1},
{34, 61, -11, -10, -9, -2, -9, -24, 6, -24, 3, 1, 15, -15, 15, 32, 19, -6, 47, 9, 19, -11, -33, 27, -2, 33, -43, 28, -6, -14, 8, -11, -25, 9, 6, 24, 16, -37, -10, -1, -8, 65, 50, 32, 22, -1, 2, 2, 21, -11, -2, 38, -40, 31, 19, -48, 17, 16, -86, 16, 10, 7, 14, 54, 13, -9, 14, -17, 19, -43, -2, 7, 13, -8, 5, 2, -29, 10, 1, 48, 3, -13, 15, -11, 4, 45, -35, 8, 64, 8, -23, -9, 0, -4, -7, -23},
{-7, 10, 4, -21, 85, -14, -4, -30, -5, 15, 18, -53, -39, 5, -4, -19, -8, -15, -10, 18, -5, 42, -1, -26, -2, 39, -23, -5, -44, 12, 26, -109, 84, 6, 5, 22, -68, 8, -24, -61, -16, -10, 37, -25, -10, -44, -16, -20, -13, -55, 13, 9, 1, 22, 31, 14, -7, -56, 21, -8, 8, 82, 5, 46, -16, -34, 9, -7, -26, -2, -26, 37, -1, -44, 12, 9, -21, -3, 8, 51, -69, -90, 1, 21, 21, 15, 42, 100, -19, 5, -24, -35, 7, 34, -27, -7},
{0, -6, 10, -1, 42, -34, -112, 13, 19, -15, 8, 107, -16, 0, 4, 8, 9, 28, 2, 3, -2, -5, 0, 90, -4, -4, -9, -3, -17, -10, -37, 27, 15, 13, -1, 1, -1, 2, 5, -5, -1, -2, 4, -6, -77, -1, 1, -5, -17, -9, 0, 2, 5, -35, -46, 0, 25, -31, 0, -7, 16, 54, 1, -6, 10, 15, 126, 6, 2, 2, 6, -44, 3, -34, 18, -67, -21, -4, -9, 2, 80, 5, -18, -22, -20, -3, 40, -14, 2, 5, -27, -27, 51, -6, 4, -39},
{19, 5, -23, 1, -13, -5, -18, -3, 21, -16, 3, -3, -12, -59, 6, -40, 31, -41, 48, 11, -19, 1, -43, 14, -10, 6, -26, -22, 18, 71, -23, 22, 39, 7, -4, -15, -36, 22, -4, 13, -100, -30, -48, -15, -14, 4, 2, 21, -2, 94, -23, 20, 29, 48, -27, -11, 35, -10, 5, -22, 42, 20, 7, 27, -14, -60, -1, 40, -28, 3, 16, -1, -17, 6, -4, 0, -30, -97, 11, -120, -19, -16, 18, 59, 39, 33, -47, 24, 1, 13, -3, 4, -29, 34, -12, 12},
{18, -50, 16, 23, 12, 2, 3, -11, -23, -14, 5, -4, 18, 15, 70, -58, -51, 26, 10, 28, -43, 11, -81, -82, -3, 26, 31, 6, 3, -7, 17, -22, -11, -20, -9, -80, -17, 55, 27, 3, 29, -27, -114, -1, -20, 1, -11, -87, 33, -21, -4, 58, -11, -19, -13, 6, 40, -6, -104, -73, -6, -10, -11, 19, -21, 62, 20, 23, 5, -57, -11, 23, 4, -21, -1, 1, -9, 14, 15, 17, -27, -17, 1, 35, -28, 15, 31, -3, -28, 8, -29, -4, -15, 14, 21, -8},
{-53, -40, -2, -29, 42, 9, 5, 5, 3, -9, -8, -7, 15, 3, -25, 31, 16, 28, 2, -14, 10, -15, 20, 18, 11, -34, 9, 27, 36, 40, 21, 34, -41, 14, -11, -1, -24, -3, 7, -48, 2, -9, 45, 12, -18, -1, -5, 36, 18, 16, -24, -10, 12, 5, -9, 12, 47, -19, -12, 14, 27, -22, 14, 35, 4, 21, 13, 24, 66, -15, -19, 15, 3, -21, -40, 8, 42, -17, 4, 9, 6, 10, 52, -26, -30, 7, -35, 21, 6, -11, -23, 7, 6, 15, 7, -56},
{-20, 11, 5, 14, -13, 5, 6, -26, 64, -73, -23, 10, -23, -54, 2, -2, -11, 41, 110, -2, 11, -9, 52, -27, 1, -35, 43, -22, 8, -5, -21, 4, 17, -14, -12, -21, 11, -6, 18, -11, 41, -18, 4, -16, 6, 33, -1, -13, 17, 85, 7, -31, 9, -24, -64, -5, 13, -34, -33, -35, -10, -5, -24, 67, 32, 21, -13, -42, -24, -10, 9, 18, 12, 0, 19, 0, -16, 41, -8, -99, -14, 8, 2, 10, -9, 9, -29, -4, 43, -6, 3, -6, -5, 7, 20, 8},
{-8, -33, -75, 5, -21, -7, -10, -10, 14, -71, 2, 25, -25, -4, 8, -19, 1, 11, 12, 49, -12, 7, -6, -3, -100, 2, 11, -10, 15, 17, 31, -14, -8, -24, 8, 5, -2, 2, 0, -19, 1, 4, -4, -28, -46, 2, -52, -7, -62, 15, -4, -26, 12, 64, -40, -7, -46, 6, -12, -17, 5, -12, -13, -3, -10, -26, 11, 2, 0, 1, 4, 53, 4, -27, -17, -7, -33, 6, 32, 7, 9, -27, 1, 7, -21, 10, 26, -35, -1, 13, -5, 11, 19, 37, 11, 65},
{1, 4, 4, -13, 42, 44, 40, 31, -5, -14, 7, -42, 51, -3, -12, -7, 16, 7, 1, -22, 3, -27, 2, -20, 31, 6, 6, 25, 40, -44, 14, -19, -10, 5, 25, -3, 1, 8, 11, 7, 12, -9, 20, 11, 0, 17, -52, -24, 87, 15, -16, 29, 20, -32, -10, -20, 5, -19, -30, 23, -1, 6, -7, -7, -11, -45, 13, 24, -4, -7, -8, -38, 2, 17, 22, 16, 17, -18, -33, 12, -58, -17, -14, -56, 21, 0, 50, 61, -1, -26, -15, -23, -10, 46, -28, -22},
{44, 17, 15, -7, 10, -9, 2, 80, 6, 12, -24, 10, 47, -7, 34, -82, -20, -68, -12, 11, -14, 47, 10, 18, 6, 123, -14, 19, -21, 2, 40, -20, 8, -11, -11, 25, 9, -31, -11, -18, -48, -14, 36, 5, -2, -15, -9, -49, 33, -51, 4, 56, -22, 30, -52, 8, -22, 16, -31, 0, 16, -20, -10, 82, 65, 5, 33, 11, 16, 31, -11, -9, 1, 3, 3, 5, -1, 28, 8, 96, -22, 20, 22, 12, -9, 69, 5, -5, -2, 9, -20, -3, -21, -13, 28, -4},
{-26, 21, 6, 2, -31, 6, -14, 14, -122, 5, 72, 38, -2, 0, 30, -19, 13, -7, 5, 23, -18, 77, -25, 4, 3, 6, -105, 0, -7, -12, -80, -6, -14, -20, 2, -42, 7, -12, 9, 5, -9, 8, -21, 5, 25, 23, 17, 17, 20, 19, 9, 29, -9, -26, -6, 17, 4, 36, -5, -4, -1, 4, -18, 19, 14, -9, 40, -5, 1, -11, 4, -4, -4, 19, 4, -16, -39, -10, 3, 8, 39, -27, 67, 2, 3, -31, -16, -26, 1, 30, -3, 1, 72, -4, -6, 19}};

const ap_int<8> blocks_0_mlp_linear_1_b[96] = 
{1, 4, -2, 1, -1, 2, -1, -2, -2, -1, -1, 2, 0, 1, 2, 1, 2, 0, -1, 3, 2, -1, 1, 1, 0, 0, 2, -1, -1, -2, 1, -2, -1, 1, 0, -2, 2, -1, 0, 4, -1, -1, -1, 1, 0, -1, 2, 2, 1, -1, -2, 3, 1, -2, -1, -2, -3, 2, -1, 3, -2, -3, -1, -1, -1, 2, 0, -1, 0, -1, -2, -2, -1, 0, 2, 0, 1, 0, -1, 0, 1, 3, 4, 3, 1, 2, 0, 0, 0, 2, 1, 0, 1, -2, -1, -1};

const ap_uint<8> blocks_0_mlp_linear_1_s[96] = 
{9, 9, 8, 8, 9, 8, 9, 9, 9, 9, 9, 9, 9, 8, 8, 9, 9, 9, 9, 9, 8, 9, 9, 9, 8, 9, 9, 9, 9, 9, 9, 9, 9, 8, 9, 9, 9, 9, 8, 9, 9, 8, 9, 8, 9, 9, 9, 9, 9, 9, 8, 9, 9, 9, 9, 8, 9, 9, 9, 9, 8, 9, 8, 9, 9, 9, 9, 9, 9, 9, 9, 9, 8, 9, 8, 8, 9, 9, 8, 9, 9, 9, 9, 9, 9, 9, 9, 9, 8, 8, 8, 8, 9, 9, 9, 9};

const ap_int<8> blocks_0_mlp_linear_2_w[96][96] = 
{{44, 7, 10, -19, -15, -6, -12, -7, -2, 25, -11, -84, -71, -18, 32, -8, -4, 39, -20, 14, -59, 11, -5, 20, -35, 21, -3, -9, -34, -24, -7, 43, 32, -13, -30, 43, -26, 19, -13, -6, 0, 12, -8, -65, -27, -38, -13, -38, -3, -11, -16, -99, 36, 65, 24, 6, -17, 17, -15, -69, 4, 22, 53, -8, 29, -40, 15, 22, 8, -9, 14, -13, -35, -54, -8, -17, -1, 11, -6, -21, 2, 2, -81, 23, -23, -16, 2, 39, -8, -32, 4, -23, -58, -4, -25, -89},
{5, -24, 34, 3, -3, 7, 37, 38, 12, 0, 4, 23, 37, 24, -39, -7, 45, -57, 6, 0, 62, 14, -6, -47, 48, -15, -5, 8, 26, -18, 1, -27, 0, 8, 1, 6, 3, -24, -15, 14, 1, -37, 17, 71, 22, 13, 7, 0, 12, 0, 13, 55, 11, -54, -13, 7, 4, -22, -37, 77, -13, -2, -44, -2, -36, -16, 11, -28, -56, 22, 0, -5, 87, 38, 13, -39, 12, 21, 23, -11, 38, 2, 52, 43, -1, -18, 25, -34, 14, -11, 5, 42, 27, 16, 29, 73},
{-22, 16, 4, -6, 8, 7, 28, 31, 23, -51, 27, -1, 12, 49, 0, -4, -1, 41, -2, -61, -3, -17, 46, 9, 42, 87, -29, 32, 5, -30, 22, -3, 30, -8, 102, -14, -10, -9, -45, -15, 3, 20, -27, -21, -45, 9, 19, 0, -31, 6, 41, 13, 43, -61, -10, -7, 14, 38, -61, 7, 14, -29, -5, -64, 32, -5, 71, 5, 24, -74, -7, -10, -45, 17, 2, -4, -32, -33, -26, -4, 1, 20, -14, 5, 31, -18, -14, 2, -20, 34, 8, 15, 35, 10, 5, 8},
{0, 52, -6, 25, 3, 3, 19, 75, 33, -14, -29, -5, -12, 21, 22, 13, 36, -43, 3, 44, -13, 8, -21, 55, -47, -1, 29, -3, -4, -26, -18, 27, -26, 24, -6, 50, -53, -23, 11, 25, -46, 52, 4, 1, -10, -16, 7, 21, -37, -29, 0, -24, 35, -19, 21, 27, -36, -11, -11, 39, -18, 17, 41, -28, -5, -24, 15, 2, -26, -99, 10, 22, 18, -64, 15, -43, 1, 10, -6, -6, 12, 8, -80, 46, 5, -6, -3, 27, -12, -25, 49, -42, -50, 0, -24, -40},
{20, -7, 58, 26, 14, 74, 0, 50, -8, 22, -18, -9, 2, -24, -24, -29, 6, 1, -21, -30, 63, 60, 53, 14, -2, 20, 27, -8, -1, -33, 10, -63, 9, 45, 38, 15, -11, -13, -84, 0, -13, -20, 22, 26, 27, 37, -14, 25, -7, -3, -23, -1, -18, -33, -18, 11, -27, 16, 7, 20, 9, 29, 11, 85, 23, 76, 33, -13, -119, 5, -14, -82, -42, -25, 0, 21, 32, 9, -8, -14, -12, -31, 21, 35, 27, -25, 0, 25, 45, 0, 20, 34, 0, 6, -4, -32},
{-9, 45, 20, 0, -3, -28, 6, -115, -8, 13, -8, 46, 0, -29, -25, -55, -11, 20, 27, -51, -94, -22, 21, -57, 38, 24, 29, -19, -35, 32, -4, 48, 12, 17, 35, 41, 34, 3, 4, 9, -11, -63, -37, -13, -46, -21, 21, 1, -6, -7, -55, 71, 126, -40, -7, -7, 3, -3, 29, 6, 11, -30, 5, -56, -29, 50, 31, -78, 55, 35, -22, 79, 20, -27, -28, -3, -23, 5, 2, 42, -17, 21, 9, -68, -33, -39, -5, 16, -3, -41, 27, -26, -24, -15, 81, -11},
{-5, 41, -25, 1, 19, -31, 6, 10, 23, -16, -20, 43, -8, 4, 23, 18, 26, 20, 8, 37, -22, 19, 22, -39, -85, 74, 37, -23, -51, -50, -9, 67, 32, -23, 19, -88, -4, 25, -46, -84, 9, 51, -3, -61, 16, -29, -21, 27, -15, -27, 70, 2, 24, 25, -12, 6, 14, 16, 53, 29, 5, -30, 52, -43, 22, -34, -40, 120, 67, 74, -39, -19, 20, -39, -3, 10, 1, 9, 10, -15, 9, 26, 35, 99, -57, 11, -22, -48, -4, -29, -34, -26, -4, -32, 47, -20},
{100, -30, 17, -2, -7, 21, 0, -37, -13, 19, -8, -31, -5, -7, -49, -42, -9, -1, 34, 55, -7, 9, -29, -7, -35, -16, -2, -12, -97, -7, 10, 56, -23, -2, -23, 30, 73, -29, 4, -6, 21, -52, -6, 29, -6, -7, -10, -37, 48, 6, -57, 98, -12, -42, -27, 32, -12, 8, 16, 34, 44, 15, 4, -4, 6, -15, -16, 7, -9, -61, -37, 7, -13, -15, 32, -6, -12, -10, -4, -45, -16, -52, 19, 22, 4, 32, 22, 25, 1, 8, 38, -36, 2, 73, -4, -22},
{76, 42, 61, -14, -7, 5, 9, 29, -11, -24, 47, 6, 5, 25, -68, -23, 3, 5, -3, -20, 12, 37, 19, 32, -46, 10, 6, -11, -61, -18, -19, -12, -54, -13, -51, 46, -9, -38, 0, 2, -15, 53, -18, 12, -35, 61, 10, 26, -5, 1, -20, 13, 5, 15, 28, -16, -69, -22, 80, 3, -15, -15, 27, 35, -15, -22, 15, -8, -51, -12, 21, -29, -29, -34, 6, 12, -41, 29, 0, 33, 0, -21, -31, 53, -51, 12, -10, -5, 6, 25, 58, -34, -3, 34, -16, 27},
{22, 24, 23, 8, -7, 47, -19, 79, 13, -15, -39, 33, 18, 9, 18, -21, -13, -33, 7, -31, 4, 18, -57, -16, -21, 56, 24, -52, 19, -4, -24, -11, 31, 5, -92, -18, -9, -27, -21, 37, -14, -36, 3, 32, 40, 26, -14, -14, 3, 7, -13, -37, 26, 1, -42, -12, 21, 35, 24, -8, 47, 55, -2, -1, -38, -31, 22, -98, -22, 4, 2, -21, 79, -30, 0, 46, 65, 17, -9, -15, 25, 18, 40, 69, -74, -12, 2, -34, 18, 12, 27, 61, -9, 22, 0, -11},
{15, -64, -27, 5, 19, 28, -17, 14, 8, 52, 27, -98, -16, -45, -30, -8, -16, 24, 28, 42, 9, 3, -18, -34, -50, 17, 34, 9, -22, 14, -19, -61, -13, -16, 7, -19, 17, -29, 29, 8, 8, -32, 21, 23, -20, 35, -25, -3, -9, 28, 31, 41, 14, -27, -41, -5, -19, 52, 13, 51, -51, -10, 1, 14, -34, 36, 39, -8, 20, -87, -7, -17, -17, -4, 22, -20, -18, -10, 1, 11, 45, -14, 50, -14, -4, -10, -1, 2, 26, -4, 62, -97, -34, 6, -21, 23},
{-30, 3, 31, 7, 26, 8, 14, 10, 14, -45, -18, -52, -28, 38, -4, -12, -16, 18, 3, 13, 29, 13, -56, -3, -24, -87, 0, 0, 11, 11, 16, 80, -16, 25, 51, -2, 2, -19, 54, -9, 17, -7, -27, -19, 4, 2, 0, 2, 4, 11, -82, -103, -31, -9, 19, 6, 26, 29, 62, -16, 11, -61, -35, -57, 47, -27, 59, -92, 75, -1, -65, -12, 76, 16, -73, 11, 7, -36, -2, 48, 1, -13, 13, -41, -45, 2, -83, 41, -5, -26, 14, -13, -40, 49, -8, -2},
{62, 29, 32, -31, 20, -16, 46, -38, -56, 22, -1, 74, -3, 38, -7, -14, -52, 87, -8, -30, 44, 13, -61, -24, 4, -9, -22, 0, -21, -20, 3, 8, 26, 5, 76, -27, -6, 9, -28, -18, 13, -22, 7, 6, 16, 47, 7, -32, 20, 13, 4, -3, 55, 15, -27, 10, -31, -59, 1, -23, 15, 25, 44, 14, 4, 6, -42, 23, -2, 46, -22, -13, -7, 10, -2, -8, -21, 2, 16, 11, -5, 32, 58, 27, -38, -20, 21, 4, 26, -3, -61, 78, 48, -7, 17, -44},
{-4, 57, 19, 27, -33, -63, 23, -9, 13, 13, -34, 14, 19, 22, -33, 22, 6, -16, -40, -7, 3, 20, 62, 77, -7, -35, 24, 14, -19, 10, 26, 71, 49, 0, -21, -34, -78, 45, -4, -14, -33, -28, -23, -33, -12, 31, 8, -13, -88, 8, 6, -7, -4, 2, -35, -5, -2, -36, 10, 5, -7, -12, 16, -33, 22, -16, 3, -16, -63, -47, 29, -23, -8, -17, -3, 7, -1, 15, -14, 5, 25, -2, -37, -5, 29, 1, 5, 21, -16, -12, 21, 26, -27, -25, 42, 2},
{-37, 0, 11, -7, 6, -6, -52, 3, -13, -8, -3, 40, -15, -6, 31, 16, -50, 7, 85, -60, -15, -3, -4, -30, 61, 52, 32, -32, 13, 2, -4, -31, 19, -4, 7, -10, -65, 7, 9, 0, -3, 57, -2, 12, 3, 53, -7, -17, -34, 1, 24, -25, -9, -25, -22, -72, -28, -49, 7, -71, -16, -5, -23, 27, -23, -1, -9, -11, 23, 39, -26, 15, -8, 20, -2, 63, 2, -13, -34, -8, 41, -33, 81, -4, -7, 7, 23, -6, -4, 7, 14, 24, 28, 9, -33, 5},
{-33, -27, -42, 12, 57, 23, 72, -16, 9, 66, 29, 18, -4, 8, -30, 5, 24, -13, -68, 92, 47, -2, 21, 15, -69, 38, -30, 47, -16, -17, -7, 17, -38, 0, -66, -78, 94, 32, -30, 34, 24, 6, -9, 12, 7, -39, 11, -32, 28, -8, -14, 94, 33, -12, 48, 75, 14, -11, -14, 39, -16, 8, 5, 19, 20, -14, 93, -24, -7, -3, -5, 21, 20, 11, -10, -60, -35, 7, 3, 2, -16, 9, -35, 3, -42, -13, -15, -3, -1, -30, -47, 27, 0, -57, -26, 44},
{-42, 15, -9, -31, -28, -14, -33, 13, -5, -23, 10, 24, -20, 1, 9, 22, -57, 9, 69, -34, -18, -6, 3, -43, 44, 30, 54, -28, -7, 10, -1, -53, 13, -12, 25, 20, -94, 17, 19, 2, -20, 41, -8, -25, -4, 44, 0, -10, -60, 0, 5, -41, -38, -13, -24, -52, -32, -31, 24, -62, -11, -5, 7, 14, -13, 26, -42, -11, 21, 19, -16, -1, -28, -1, 4, 52, -4, -21, -30, -5, 23, -31, 42, -30, 0, 15, 16, 16, -11, 18, 18, 22, 6, 13, -11, -19},
{-11, 29, 0, -47, 0, -19, 16, 114, 36, -41, 13, 8, 7, 23, -5, 18, 9, -29, -20, 62, -29, 17, 48, 9, 29, 75, 2, -25, -40, 7, 6, 1, 22, -9, -39, -23, -22, 27, -6, -41, -2, 30, 24, -13, -9, -17, -12, -41, 32, -8, -8, 93, 37, 12, 24, 24, 15, -14, 49, -22, 12, 23, 7, 14, 60, -20, 16, -109, -9, 75, 28, 16, -50, -60, -9, 3, 20, 10, -57, -15, -12, -62, 6, -48, -20, 30, 42, -8, 5, -24, 33, 7, -29, 21, -1, -9},
{-24, -64, -6, -52, -18, 38, -18, 11, -31, 16, 42, -34, -36, -21, -12, -9, -9, 43, 13, -8, 21, -9, -20, -47, 4, -19, -22, 12, 24, 25, 9, -40, 25, -11, 25, -47, 55, -3, -45, -9, 42, -31, 18, 32, 4, -7, -11, -30, 54, 8, -1, 27, 7, 16, 20, -15, 4, 81, 4, -27, 17, 4, -24, 27, -15, 36, -7, 39, 55, 12, -22, 6, 26, 27, -21, -18, -1, 0, 29, 0, -22, 10, 90, 4, 12, 0, -14, -12, 7, 21, -17, -18, 40, 24, -12, 14},
{4, 18, 3, 9, -14, 22, -28, 38, 18, -3, -44, 27, 28, 15, -52, 5, -7, -79, 1, -13, -4, 14, -25, -11, -29, 47, 41, -32, 16, -35, -10, 9, 8, -9, -66, -13, -26, -27, -38, 16, -27, -38, -4, 9, 26, 17, -9, -1, 0, 7, -4, -29, 11, 47, -26, -2, 35, 43, 9, 0, 24, 49, -14, -28, -42, -46, 51, -96, -64, -23, -1, -9, 67, -14, 5, 12, 38, 18, -4, -4, 16, 28, 35, 83, -60, -12, -21, -14, 45, 11, 47, -25, -18, 30, 11, -4},
{-11, 11, -47, 1, 8, 7, -76, 16, -74, 8, 89, -31, 9, -22, 22, 9, 12, -30, 4, -83, -9, -53, 11, 38, 96, -78, -109, -28, 27, 13, -23, 90, -52, -23, 10, -7, 4, 29, 20, -23, -7, 53, -78, -9, 11, -18, 31, 24, 31, -31, -47, 5, -49, -42, -11, -15, -15, -57, -83, 47, -15, 10, -34, -6, -27, 40, -11, -45, -21, 108, -59, -25, 5, 6, 47, 19, 9, 21, 10, 30, 10, 71, -11, 22, -18, -77, -7, -5, -5, -21, 33, 20, 18, -37, 65, 27},
{44, -51, 45, -16, -33, -8, -6, 13, -10, 34, 0, 18, 16, -86, -50, -27, -46, 53, 11, 52, 1, 11, 15, -27, 9, -2, -49, 8, -37, -2, 24, -11, -56, -10, 8, -3, 23, -7, -29, 0, 17, -49, 5, 3, -1, 13, -13, -12, -23, 1, -2, 100, -30, -55, -62, 16, 51, -24, -2, 26, 12, -4, -28, 26, -8, -13, -7, 35, -40, 15, -12, 12, -47, -6, 32, -17, -48, -16, 8, -21, 37, -27, 26, -36, 21, 34, 30, 25, 11, -8, 87, -41, -40, 37, -35, 16},
{0, -36, -38, 9, -26, -16, 26, -65, -9, -29, 20, 18, -18, -4, -49, 2, 32, -37, -24, 23, 47, -1, 0, 21, 43, -31, -44, 1, 21, 0, 4, -76, 34, 20, 17, 0, 72, -35, 33, -1, 17, -57, -4, -16, 15, -7, 5, 34, 0, 13, 3, 47, -22, 19, 16, 12, 82, 13, -13, 26, 23, 1, -33, 3, 5, 15, -36, 17, -64, 86, 34, -10, 9, 80, 4, -9, -13, 6, -16, -12, -4, -8, 52, -33, 51, 22, -2, 7, 33, -2, -25, 30, 1, -11, 27, 86},
{-67, 33, 5, -7, 20, -21, -5, -6, -23, -5, 39, 33, -21, 27, -50, 34, 25, -26, 12, 4, -42, 19, -9, -25, -35, 11, -10, -15, 14, 26, 3, 53, 11, 38, 2, 23, 11, -98, 24, -3, 0, -2, 2, 5, -31, -18, 1, 24, 22, 9, -26, -53, 48, 22, 23, 19, 60, 5, -31, -25, -10, -64, -26, 21, 34, -83, 2, 38, 28, -8, 16, 49, -21, 53, 4, -25, -13, 8, 3, 65, -9, -31, 15, 45, -13, -10, -10, 31, 10, 12, 8, 88, -60, 41, 26, -10},
{11, 30, 13, 4, 21, -36, -12, -45, -40, -5, -9, 73, -7, -18, -16, -1, 13, 24, 0, -33, -105, 18, 3, -46, 11, -15, 75, 17, -15, -5, 3, 106, 39, 14, 32, 19, 8, 7, 18, -2, -10, -55, -27, -19, -4, -14, -31, 11, 33, 9, -81, 107, 5, 13, -31, -7, -7, 8, -43, 5, 25, 48, 16, -63, -4, 51, 29, -14, 24, 70, -31, 31, -51, -14, 3, 31, 28, -32, 23, 7, 13, 9, 37, -91, -52, -8, -29, 3, -43, -16, -18, 33, 1, -28, 104, 13},
{28, 64, 7, 28, 0, 27, 30, 88, 37, -6, -8, 9, 27, 29, 36, 12, 22, -12, -5, 16, -7, 3, -3, 42, -74, 6, 32, 7, -9, 3, -12, 94, -58, 3, -23, 25, -50, 31, -20, 19, -55, 31, -9, 4, 6, -18, 6, 2, -48, -24, -2, -9, 27, -54, -5, 39, -46, 2, -28, 19, -7, -2, 51, -23, -12, -39, -30, -1, -31, -121, 28, 15, -10, -84, 4, -33, -1, 7, 2, -4, -4, 2, -89, 1, 11, -12, -7, 30, -12, -11, 32, -7, -38, -12, 18, -43},
{-56, -40, -12, 26, 4, 33, -64, -52, 15, 33, -25, -80, -47, -62, 103, 41, -10, -27, 22, 21, -35, -24, -25, 33, -9, -37, 6, -42, 28, 30, 8, -60, 26, 5, 0, -22, 22, 30, 33, 28, 9, 10, 4, -10, -2, -46, -19, -6, -5, 12, 56, -56, -54, 89, -32, -10, 15, 85, -14, -29, 4, 18, 6, -2, -1, 6, 67, 47, 71, 11, -10, -36, 17, 2, 12, 2, 17, -2, 11, 8, -5, 12, -3, 18, 3, -60, -3, -9, -9, 17, 17, -49, -67, -38, -77, -65},
{-30, 46, -20, 24, -4, 33, -25, -38, 34, -40, -16, -38, 10, 11, 3, 37, 55, -73, -1, 2, 0, 7, -11, 35, 79, 8, 35, -12, 31, -3, -2, -52, 44, -32, 42, 100, -24, -29, -31, -2, -20, 40, -5, -3, -20, -7, -6, 28, 50, -23, -6, -43, -70, -22, 34, 2, 46, -13, -43, 17, 32, 37, -61, -22, -2, -40, 18, 0, 18, 30, 49, 50, -2, 80, -5, 34, 42, 7, -63, 5, 8, -16, -3, -46, 54, 18, -20, 19, 19, -28, -7, -39, 4, 4, 23, -16},
{21, -19, -14, -27, 21, -22, 5, -2, 48, -39, 20, -33, -23, -45, 41, 13, -35, 14, -9, 30, -19, 19, 10, -17, -32, -86, -24, -41, -5, 31, 13, -35, 11, 13, -22, 13, 10, -16, 45, 33, 21, 32, -3, -4, 29, -22, -4, 43, -49, -31, 25, 43, 12, 78, -31, 9, -26, 59, -8, 13, -20, 9, 28, -59, -5, 5, 33, 41, 24, -6, 3, -28, -51, -49, 9, -4, -16, 0, 28, -9, -19, -23, 45, -33, 4, -37, 34, 27, -38, 45, -19, 41, -4, -6, -93, -16},
{-72, 19, 12, 23, -6, 60, -9, -18, 21, 4, 35, -26, -14, 5, 40, 20, 77, -9, -6, -6, -2, 19, 42, -17, 56, -59, 44, 10, -1, -24, 16, 5, -25, 31, 19, -33, 3, 22, 24, -55, -36, 63, -2, 24, 37, -4, -10, 13, -36, -22, 30, -40, -76, -74, 31, -23, 33, 59, 16, -19, -11, -23, -48, 23, -15, 13, -23, -12, 44, -4, -13, 17, -23, 54, 19, 24, -26, -7, 3, 34, -15, 13, -15, -12, 60, 0, -41, 20, 14, -12, 27, -32, 9, 0, 26, 17},
{4, -43, -14, 4, 1, -29, -52, -77, -14, 12, -10, -19, 2, -53, -19, 9, 8, -29, 0, 26, -29, -4, -15, 6, 14, -1, -91, -7, 1, 1, 0, 18, -5, -4, 58, 2, 8, -5, 33, -21, 51, -34, 4, -24, -9, 9, -2, -24, 6, 24, 19, -29, -19, 78, -45, -5, 41, 24, 86, -6, 35, 20, -26, 64, 19, -49, 6, -36, 74, 54, -34, 23, 7, 26, 29, -10, 12, -5, -20, 25, -12, -18, 52, 21, 13, 18, -9, 18, 37, 15, -29, -82, -37, -15, -16, -12},
{-11, -1, -12, -13, 29, 40, 3, 10, 17, 58, 38, -25, -39, 25, -28, -4, 9, -4, 7, 8, 13, -56, -9, -9, 67, -2, 56, -31, -23, -65, -39, -6, 1, 58, 2, -33, 41, -14, -18, -22, 13, -50, 30, 7, -16, 10, -2, -35, 11, 45, -31, 76, 15, 25, 84, -20, 38, -39, 37, 35, -4, -33, -30, -21, 4, 12, 0, -81, 33, -10, -15, 30, 42, 21, 7, -37, 7, 5, 10, 37, 2, -2, -33, -33, 23, -30, -43, -21, 96, 27, 34, 39, 26, 15, -31, 28},
{-53, -43, 25, -4, -5, -53, 2, -81, -65, 34, 28, 73, 0, -37, -11, -23, -5, -29, 4, 56, -45, 10, 1, -8, 21, 81, -43, 10, 53, 37, -34, -27, -19, -26, 18, 46, -2, 3, -50, -49, -8, -48, -51, -23, 12, -1, -12, -18, 30, -5, 0, -98, 41, -23, -40, -13, 58, -2, -43, 37, 9, 17, -49, -90, 46, 13, 8, 51, 34, 1, -41, -49, -7, -22, 33, 76, 25, -19, 3, 3, 8, 3, -14, 7, 12, 22, -11, -35, -34, 1, 12, 60, 23, 25, 5, 3},
{30, 3, -7, -7, 24, 12, 7, -40, -41, 8, -45, -11, 25, -21, -21, -16, 13, 31, 27, 38, 35, -27, -32, -11, -77, 17, -68, 8, -34, 15, 10, 52, -46, 41, -7, 2, -14, 36, 34, 48, 17, -90, -10, 9, -37, -79, -11, 4, 19, 13, 20, 4, -67, 4, 30, 18, 26, -36, -32, -15, -3, 13, -14, -18, 58, 39, 4, 32, -11, -17, -1, 39, 18, 54, -18, 5, -85, -18, -24, -49, -1, -4, -17, -28, 39, 25, -59, -55, -28, 1, 0, -108, -9, -33, 49, 23},
{-27, 2, -9, -34, -15, 33, 16, 95, 4, -12, 4, 10, 8, -7, 22, 8, -2, 13, -18, -24, 34, -15, -5, -11, -31, -26, 40, 11, 31, 49, 2, 47, 27, 5, -52, 17, -35, -14, -32, 0, -27, 1, 1, 15, 11, 33, -19, -26, -46, -31, 27, -13, -9, -12, 6, -17, -31, 74, -29, 0, -39, 28, -4, -15, -41, 32, -19, 4, 1, -62, -12, -12, 18, -43, -31, -16, 11, -2, 14, -8, 10, 16, 55, -15, 10, 28, -21, -10, -11, 6, 32, 17, 13, 24, -30, -3},
{-82, 16, -26, 28, 57, 26, 20, 15, -1, 64, -21, 81, 5, 22, -62, 37, -8, -66, 2, 5, 62, 7, 2, -19, -1, 24, 45, 12, -5, -20, -3, -16, -2, 32, -30, -48, 55, 25, -14, 19, 3, 20, -3, 44, 17, 14, 5, -69, -31, 18, 13, 69, -12, -19, 5, 35, 15, -51, 30, 33, 4, -6, -38, 23, 5, -7, 24, -68, -49, 25, -5, -15, 5, 22, -7, -6, 1, 11, -48, 2, 13, -8, 26, -28, -37, -1, -2, -13, 20, 3, 16, 37, -14, 1, -1, 60},
{1, 9, -14, 23, 25, 12, -39, -3, -11, 11, -15, 46, -20, 4, 8, 58, 3, -67, -13, -11, -29, -13, -47, 46, 24, -35, -19, 5, 22, 33, 8, -42, 28, -18, 34, 37, 0, 16, 22, 81, -5, 51, -2, 0, -31, 42, 11, 3, 49, 1, -22, 33, -29, -51, 30, 4, 30, -13, -67, -17, 37, 36, -44, -7, 32, -47, -3, -51, -6, 33, 32, 48, 35, 37, 9, -5, 45, -13, -76, 0, -3, -66, -57, -69, 56, 28, 8, -6, 4, 22, -10, -47, 22, -14, 23, 5},
{10, -3, -41, -14, -12, 39, -31, -55, 6, -4, 10, 29, 14, -30, -57, -39, -21, 18, -1, -17, -16, 18, -2, -61, -24, 35, -30, -19, -38, 4, -7, 63, 27, 16, 17, -33, 10, -8, 7, 9, 17, -2, -19, 19, 17, 7, 9, 18, -13, -9, -3, 105, 54, -37, -59, 9, 28, 74, -8, 34, -33, 19, 3, -24, -22, -35, 13, 31, -17, -77, -53, 26, 2, -1, 12, -28, -2, 3, -13, -10, -8, -37, -4, -15, 5, 3, 25, -13, 21, -23, 42, 39, 0, 17, -31, 16},
{12, -2, 23, -1, -5, -21, 34, -6, -31, 53, -21, -51, -10, -76, 50, 10, -65, 5, 15, -29, 3, -29, -2, -1, 23, -15, 25, 26, 26, 4, 2, 12, -25, -20, 10, 55, 21, -22, 18, -1, 10, -48, -15, -2, 11, -2, -18, 8, -37, 11, 0, -52, -53, 4, -17, -9, 10, -60, 19, 32, 46, 13, 3, 15, -37, 37, 33, 31, 11, 23, -5, -92, -21, -1, 7, 9, -18, -16, 37, -3, 20, 29, 9, -32, -3, -1, -11, -10, 4, 20, -34, -16, 19, 12, -10, -6},
{-7, 4, -30, 32, 16, -10, -33, 30, 3, 28, -32, 51, 14, 17, 17, 24, 3, -45, -12, -24, -32, -19, -26, 45, -14, 25, 12, -10, 20, 28, 8, -21, 50, 17, 6, -19, 13, -3, -20, -64, -18, 106, -4, -26, 5, 19, -1, -16, 4, -16, -41, 35, -53, -30, 13, 22, 27, 1, -39, -3, 29, 0, -64, -18, 39, -72, -20, -26, 17, 55, 15, 14, -3, 30, 8, 36, 30, 0, -76, 31, 14, -55, -29, 11, 33, 22, 5, -16, -12, -9, -28, -5, 14, -10, 38, -3},
{-67, -33, 7, 25, -3, 38, -38, -1, 35, 17, -21, -60, 3, -48, 25, 13, 48, -37, -4, 14, -6, 1, 15, 12, -68, 10, 34, 3, -14, 27, -6, 61, -18, 12, -58, -7, -3, -1, 18, 16, -8, 27, 2, -2, -22, 4, -15, -21, -16, 13, 26, 27, -83, -33, 23, -8, 30, 48, -29, 13, -7, -60, -17, 54, 26, 0, 48, -56, -31, -47, 1, 6, 19, -19, 14, -9, 40, 2, -29, -27, -2, -35, -70, -17, -23, 20, 6, 3, 6, 9, 63, -1, -45, -23, 62, 59},
{39, -35, 4, -37, -27, 34, -21, 2, -16, 20, -9, 17, 35, -14, -69, -17, -25, 25, -15, -4, 7, -15, 23, -35, -22, -5, -19, -6, 11, 48, 12, 41, 19, 10, -6, -3, 35, 41, 19, -1, 36, -84, -7, -3, 32, 14, -3, 6, 13, 12, 3, 24, -7, -18, -22, 9, 46, 65, -14, -20, 69, 3, 0, 2, -11, 1, -46, -9, 11, 17, 10, -34, 2, 16, -5, -18, 2, -3, 23, 15, -37, -5, 40, -33, 15, 22, -11, -21, 44, 32, -10, 44, 12, 10, 9, -12},
{43, -7, 25, -17, -33, 33, -19, -10, -3, 35, -33, 2, 17, 9, -70, -23, -15, -8, -15, 9, 2, 0, 19, 18, -46, -8, -17, -26, 1, 16, 13, 42, 15, 39, -7, 3, 35, 53, 45, 4, 27, -97, 2, -22, 33, -6, 8, 13, 1, 13, -7, -8, 13, -30, -15, 28, 40, 67, -2, -9, 97, -3, 23, -13, 14, -16, -68, -9, -31, -14, 19, -17, -18, -17, 9, -34, 2, 0, 22, -2, -32, 4, -39, -12, 15, 17, 3, -10, 41, 15, -5, 57, -40, 12, 12, -62},
{54, 3, 39, 25, 21, 14, 1, -1, 32, -3, 19, -1, -5, 46, 50, -2, 37, -26, -15, 71, 26, -7, -16, 40, 9, -3, 17, -56, 28, -16, 5, -1, -55, 33, 53, -56, 4, -34, 63, -23, 18, -30, 30, 28, -1, 32, 17, 57, 40, 0, 6, -69, -61, -13, 0, 9, -6, -32, -60, 33, -39, -49, 6, 8, 33, 4, -30, -16, -39, -10, 0, 47, -123, 11, 7, -3, -33, 33, 23, 41, -36, 17, -19, 20, 56, 27, -3, -13, -5, 4, -14, -19, 30, -14, -20, 22},
{-71, 23, -25, -31, 14, -14, 13, 41, -32, -36, 6, -22, -3, 17, 10, 1, 13, -16, -6, -2, -13, 2, 6, 32, 62, -22, -12, 4, -39, -26, 4, 66, 28, -76, 7, 17, -5, 16, 31, 35, -13, -19, 16, 22, -60, 9, 9, -71, 15, 25, 31, -117, 0, -1, 10, 1, -79, -15, 18, -60, -8, 8, 34, -14, 6, 21, 9, -35, -63, 11, 50, 18, 8, -14, 18, -28, -16, -6, -9, 49, 5, -4, -72, -98, -37, -27, -3, 3, 1, -2, 38, 6, -9, -27, -39, -50},
{-28, -7, 3, 12, -25, 29, 14, 15, 25, -1, -36, 34, -1, -22, 48, 12, -10, -24, 4, 1, 27, 6, -40, -10, -34, 22, 48, -25, -23, -40, 17, 15, 15, 7, -31, 7, 37, 15, -19, -12, -46, 48, 8, 6, 1, 6, 8, 5, -31, 2, -17, 19, 4, -43, -2, -15, -73, -1, -53, 11, -6, -29, 17, -14, 20, 69, 15, -3, -66, -8, 27, 12, -124, -12, -15, 8, -5, -1, 1, 10, -10, 15, -15, -36, 29, -19, -12, -32, -22, -22, 15, 51, -21, 4, 19, -39},
{-1, 16, -49, -15, -9, 22, 2, 25, 71, -6, -49, -35, 12, 20, 9, 26, 8, 18, 11, -10, 13, 1, -69, 26, -15, -124, 1, 13, 13, 56, -17, 12, 101, 8, -6, -49, 8, 22, 52, 39, 14, 105, -31, 5, 31, -28, 76, 3, 10, -3, -37, 54, -4, -25, -12, 15, 24, 1, -10, 49, -14, -13, -10, 40, -70, 9, -17, 18, 30, -48, 4, 14, -42, -19, -25, -100, 30, 21, -24, 10, -3, -23, -13, -5, -64, -20, 2, 86, 26, -11, -42, -79, -5, 52, 44, 4},
{33, 35, 37, -25, 1, -12, -14, 17, -11, -9, -4, -7, 32, -24, 45, -37, 18, -42, -3, 15, -12, 13, -23, 12, -28, 12, -55, -26, 53, -33, -25, -7, 23, 9, -4, -1, 26, 7, 22, -20, 30, 1, 29, -35, -13, -1, -20, -13, 18, -2, 4, -79, -13, 13, -26, 3, 25, 6, 41, 0, 9, 35, -13, 26, -43, -39, -38, -34, -45, 98, 8, -25, 47, 15, -7, -2, 35, 12, 33, 21, 29, -11, 17, 39, -60, -32, 5, 14, 19, -6, 51, 67, 9, 1, 11, 17},
