#ifndef HARDWARE_BASELINE_RESMLP_LAYERS_4_EMBED_96_H_MUL_1_QUANT_PARAMS_H
#define HARDWARE_BASELINE_RESMLP_LAYERS_4_EMBED_96_H_MUL_1_QUANT_PARAMS_H

#include <ap_int.h>

const ap_int<8> embed_linear_w[48][96] = 
{{26, 7, 33, -14, 9, -3, 47, -33, -92, 50, 15, -80, 56, 6, -31, -16, 45, 30, 59, 35, 7, -34, 42, -21, 41, -3, -25, 26, 12, 1, -6, 29, -17, 9, 67, -67, 3, 12, -24, 29, 49, 0, 59, -18, -4, -24, -85, 12, 76, 39, 40, 18, -21, 57, -58, 6, 6, 6, -57, 19, 28, 82, 26, -61, -55, 6, 48, -31, -99, -16, -42, 8, -8, -21, 12, 2, -11, -87, 8, -57, -41, -32, -101, -11, -20, 9, -42, -36, 68, -39, 25, 0, -23, -62, -3, -7},
{-1, 8, -33, -24, -6, 17, 2, -30, 7, -11, -27, -17, 85, 67, 42, 59, 4, -6, -2, -5, 3, 55, 5, -18, -21, 27, 28, -18, 31, 3, -24, 36, 8, -45, 29, 48, 24, -10, 26, 38, 64, 8, 82, 8, 18, -54, 75, -15, 38, -17, 10, -16, -17, 45, 100, -11, 4, -39, -30, -34, 14, 106, 54, -4, -32, -34, 28, -37, -72, 41, 20, 43, -101, 8, 10, -44, -31, 8, 34, -24, -31, 79, -6, 26, -16, 24, -9, 43, 25, -29, -73, -31, 124, -28, 26, -14},
{-34, -22, 11, 30, -6, 32, -61, 6, -42, -88, 34, -90, 17, 42, -22, 31, 15, -27, -26, 11, 32, -37, -102, -30, 16, 22, -9, 18, 29, -16, -36, 23, 14, -27, -27, 88, -9, -48, 108, 47, 38, -26, -67, 60, -69, -13, 54, -17, 28, -51, -10, -31, -2, 1, 53, -17, -16, -29, -10, 28, -31, -4, 25, -9, 32, 7, -13, 11, -77, -25, 14, 31, -40, -7, -46, -41, -41, -8, 76, 34, -38, 78, 0, 14, 0, -2, 39, 40, 1, 7, -48, 17, -26, 49, 8, -38},
{15, -48, 55, -52, -17, -21, 70, 29, -45, 39, -65, -49, 46, -74, -14, -69, 9, 14, -59, 8, -32, 6, 82, 13, 13, -42, -24, -37, -9, -6, 28, -21, 1, -5, 109, -21, -19, 12, -64, 21, 2, -18, 63, 0, 3, 45, -39, -26, 78, 28, 57, -7, 45, 52, -64, -10, 20, -22, -66, 33, -36, 56, 41, -21, -2, -5, 87, 40, 86, 16, -33, -42, 43, -41, 9, 7, 22, -1, -34, -55, -6, -75, -22, -58, 32, -10, -4, -62, 27, -11, 5, -49, 15, -45, 14, 28},
{21, -15, -16, -6, -11, -19, 27, 11, 19, -10, -47, 24, 42, -42, 36, 23, 16, 48, -74, -93, 49, 9, -6, 25, -72, -34, 38, -102, -21, 15, 28, -50, -1, -20, 73, 32, 13, -4, 15, 48, -81, 1, 98, 41, 14, 45, 49, -33, 64, 5, -2, -16, -7, 20, 13, 11, -19, -11, 5, 8, 14, 106, 57, 78, -7, 29, 0, 22, 82, -3, 31, 73, 11, -16, 55, -45, 50, 55, -75, -15, -24, -45, -4, -16, 58, -11, 37, 60, -23, 5, -62, -62, 96, 55, -2, 17},
{-13, 6, 4, 14, 19, 8, -7, 52, -21, -29, -6, -53, -53, -111, -4, 41, -13, 58, -95, -5, 32, 87, -102, 30, 20, -11, 17, -43, -1, 39, 24, -22, 20, -17, 3, 32, 23, -45, 116, 67, -74, -16, 33, 121, -50, 45, 16, -26, 55, -13, -34, -42, 32, -21, -27, 3, -1, 14, 9, 11, -22, 0, 21, 41, 63, 58, -51, 38, 88, -13, 9, 65, -5, -24, -44, -15, 23, -48, -16, 50, -86, -84, -49, 6, 50, 43, 53, 51, -23, 26, -66, 56, 0, 83, -37, 15},
{13, -12, 28, -23, 4, 8, 34, -29, -76, 59, -26, -90, 125, 30, 28, -52, -17, -38, 18, 58, -50, -29, 46, -38, -46, 18, -13, -14, -12, -24, 9, -22, -2, 13, 95, -18, -48, 57, -62, 24, 40, 5, -14, 41, 30, 6, 20, -23, -25, 20, 56, 41, 25, -9, 6, -19, 12, -21, -102, 60, 0, 32, 27, -4, 34, 10, 79, -1, 60, -52, -56, -45, 36, 40, -4, 41, 15, -51, -14, -74, 33, 99, 45, -4, -29, 10, -42, -32, -5, 25, -25, -78, -8, -49, 38, -39},
{6, 26, -45, 41, -12, 38, 3, -77, 14, 3, 8, -7, 104, 115, 9, -6, -53, 55, 9, -37, 72, 42, -20, -39, -83, 40, 3, -55, -23, 9, 9, -28, -30, 5, 61, -71, -53, 39, -4, 35, 28, 36, 102, 44, 2, -1, 33, -20, -93, 15, 10, 96, -31, -41, 45, 29, -9, -2, 5, -7, 36, 78, 21, 71, -6, 24, 67, -27, -42, -19, 20, 68, -6, 55, -18, 8, 53, -53, 13, -29, 52, 8, 3, 15, -31, -23, -4, 48, -41, 11, -98, -111, 87, 50, -12, -41},
{-13, 36, 4, 21, 15, 40, -44, 0, -46, -42, 44, -43, 38, 56, -29, 77, -60, 55, -1, 45, 58, -13, -104, -12, -46, 37, -5, -55, -8, 31, -10, -25, 12, -2, 3, -9, -29, 6, 59, 59, 20, 25, 36, 67, -44, 11, 18, 8, -47, -10, -24, 15, 24, -44, -11, 16, 3, 2, 1, 16, 36, 12, 30, 41, 1, 45, 9, -16, 37, 2, 17, 35, -13, 34, -74, 25, 11, -113, 21, 24, -95, -8, -86, 70, -31, -3, 10, 61, -41, 24, -54, -26, -28, 53, -26, -20},
{-8, 3, 21, 20, -23, -44, 51, 33, -90, 99, -35, -71, 74, -78, 18, -22, 50, -59, 69, 19, 2, 17, -5, 18, -23, -6, 43, 51, -23, -3, 22, 34, -23, 19, 49, -56, 44, 1, 7, 19, -17, -19, -1, 64, 14, 0, -25, -25, 70, -1, 37, 34, 18, 8, 8, -20, -7, -12, -78, 52, -9, 97, 25, -29, 2, 63, -52, 5, 27, -55, -39, -42, 51, 16, -36, 16, 5, 20, 11, -47, -31, 71, 18, -32, -9, 32, -18, -71, 61, 1, 36, 70, -6, -81, 14, -10},
{-20, 0, -25, 21, -46, -2, -27, -23, 0, 37, -62, 37, 57, 12, 34, 40, 1, -1, 88, -16, 85, -5, -6, 23, -8, -16, -26, 49, -22, -5, -3, 18, -3, 19, -37, -61, 49, 8, -10, 25, 7, -30, 107, 34, -2, -17, 80, -50, 12, 13, 2, 84, -12, 3, 68, 12, 24, 22, -16, -49, -51, 119, 4, 42, 12, -2, -3, -38, -24, 113, 7, -29, 48, 21, 9, -31, 37, 108, 28, -27, 0, -19, 39, -26, 9, 22, 34, 16, 34, -14, -38, -17, 101, 11, -5, 25},
{-31, 4, 43, 4, -25, 15, -41, 24, -79, -24, 53, -26, -29, 20, -67, 83, 4, 44, 35, -11, 60, 47, -66, 6, 0, -6, -40, -24, -8, -39, -41, 18, 16, 11, -95, 8, 13, -29, 63, 53, 57, -20, -37, 88, -51, -6, 13, -35, 39, -16, -11, 46, 0, -23, 0, -24, 18, 25, 25, -2, 20, -12, -22, 0, 21, 18, 76, -12, 33, 66, 9, -15, 17, -12, -28, -16, 10, 39, 50, 32, -60, -19, -91, 0, 18, 44, 33, 25, 29, 36, -15, 14, -20, 45, -25, 57},
{17, 21, 51, 33, -15, 28, 8, 34, -45, -23, 19, 7, 5, 12, -55, -35, -34, 11, 63, -23, -22, -25, 34, 14, 59, 37, -53, 10, 2, 8, 35, 11, -35, 27, -4, -31, -1, 26, -50, 7, -24, -8, 45, 4, -3, -19, -104, -10, -1, 18, 56, -30, -18, -10, -59, 25, -25, 1, 5, -13, 30, 19, -21, 25, 3, -31, -58, -16, -66, 42, -17, -18, 34, -46, 52, 32, -36, -64, -14, -57, -28, -90, -56, 31, 29, -84, 32, -43, 12, 31, 45, 98, -11, -25, -23, 1},
{24, 26, 19, -43, -1, 32, 4, 42, 39, -48, -50, 38, 77, 79, 53, -59, -68, -55, 46, 0, -7, 42, -21, 3, -100, 46, 22, 21, 14, 31, 8, -15, -19, 8, -44, -21, 30, 27, 4, 0, 7, 12, 36, -15, 43, -40, 73, -11, -96, -41, -8, -24, 32, -17, 21, -22, 10, -35, 5, -11, 7, 44, 31, 16, -27, -26, -30, -22, -10, -10, -3, -107, -73, 11, 20, -25, -8, 115, -86, -24, 64, -35, 60, 42, -7, -85, 74, 87, -7, 51, 9, 92, 114, 40, 34, 35},
{11, -12, 37, 9, -16, 17, -27, 15, -55, -65, 27, -58, 24, 58, 28, -97, -14, -27, 1, -1, 34, 43, -57, -8, -25, 50, -29, 20, 4, 8, 16, -9, -35, 32, -83, 59, -42, 9, 61, -1, -18, -8, -88, 43, 3, -18, 36, -24, -21, -43, -12, -44, 29, -30, 17, -30, -20, -42, 64, 11, -36, -22, -42, -24, 39, -83, -30, -12, 1, -95, 4, -77, -16, -18, -74, -6, -34, 53, -4, 16, 63, -14, 111, -33, 25, -91, 38, 52, 1, 21, 52, 81, 3, 66, 23, -16},
{48, -44, 21, 18, 19, -23, 55, -34, -78, 47, 37, 79, -45, -25, -74, -71, -37, -24, -10, 24, -48, -7, 44, 17, 91, -10, -41, -54, -19, -31, -51, 41, 66, 8, -7, 52, 15, -38, -11, 13, 42, 27, 28, 10, 7, 41, -59, 20, -39, 16, 72, 11, -8, -15, 22, 8, 13, -9, -42, -26, -28, 51, -32, 91, 43, 8, 46, -6, 6, 81, 6, -19, -17, -25, 34, 60, -8, 72, 12, -84, 24, -11, -11, 17, -28, 106, -11, -40, -31, -22, 23, 7, -52, -50, -49, -7},
{72, -10, -46, 48, 6, -6, 88, -13, 28, -19, 84, 10, 34, -25, -14, -61, 36, -17, -10, -42, 9, 38, -5, 24, -9, -51, 27, -54, 33, -37, -36, 17, 31, 18, -46, 50, 16, -66, 76, -17, 89, 71, -11, 14, 43, -2, 32, 41, -80, -39, 13, 33, -30, 14, -20, 16, -21, 12, 28, -41, 22, 38, -63, 103, -107, -16, 66, -19, 42, -13, 37, -94, -67, 27, 44, 43, 22, 111, -82, -35, 3, 104, 5, -2, -67, 110, 41, 96, -50, -31, -33, -34, 32, -13, -46, -11},
{65, -15, -26, 37, 33, -29, 32, 7, -26, -2, 92, -24, -19, -40, -31, -6, 37, 13, -26, 46, 53, 10, -93, 39, 75, -28, 4, -1, 23, 14, -21, 6, 13, 38, -56, 35, 20, -54, 103, 7, 5, 21, -70, 32, 20, 23, 13, 11, 9, -18, -29, -37, -10, -2, 22, -6, 19, 2, 28, -11, -10, -45, -24, 36, 12, 0, 2, -22, 54, -70, 23, -7, -40, -3, -48, 58, -9, 58, -72, 18, 9, 37, -15, -32, -52, 48, 38, 87, -29, -39, -2, -22, -39, -19, -55, -17},
{-19, -4, 29, -32, 32, 38, -116, 31, -85, 20, 39, 80, 59, -49, -62, -58, -8, -12, -36, -3, -50, -14, 23, -18, 92, -24, 13, 33, -26, -48, -3, -14, 15, -36, 15, 11, 10, 4, -108, 5, -65, -25, 24, 16, -22, 1, -35, 61, 8, 5, 32, -28, -32, -43, 40, -18, -41, 4, -16, 11, -49, 45, 10, 42, 11, 26, -61, -9, -64, -54, 25, 29, 23, -19, -3, 16, -47, -13, 106, -59, 32, 38, 59, 21, 25, 29, -56, -54, -35, 39, 50, -13, 13, -82, 75, 28},
{-6, 25, -11, -31, 117, 48, -128, 17, -4, -16, 5, 72, 62, -38, -72, -48, 23, -29, -17, -46, 59, 67, 8, -18, -10, -33, -1, 76, 21, -18, 12, -28, -67, -9, -7, -109, 10, -28, 5, -20, -99, 19, 43, -37, 2, -35, 71, 84, -23, -55, -10, 47, -43, -20, -110, 31, -85, 46, 48, -32, -17, 54, -13, 13, -117, 51, -43, -2, -91, -14, 58, 54, -53, 11, -20, -28, -68, 35, 111, -2, 40, -31, 22, -38, -6, -21, -75, 61, -53, -8, 48, -51, 54, -26, 67, 24},
{11, 27, 22, -52, 68, 24, -85, 29, -40, 25, 32, -20, 25, -1, 6, -23, 19, 41, -29, 36, 58, 115, -102, -17, 59, -19, 20, 62, -22, 13, 2, -42, -36, 14, -57, -108, 45, -10, -1, 10, -105, -7, -27, 26, -17, -38, -21, 61, 43, -11, -37, -36, -41, -19, -46, -12, -30, 24, 27, -13, -2, -43, -7, 24, -4, 26, -32, -21, -34, -26, 31, 91, -1, -2, -81, 17, -52, -56, 8, 29, -29, -61, -52, -20, -28, -17, -79, 49, -30, 27, 84, -58, -31, -29, 53, 38},
{-40, -29, -22, 23, -23, -24, 24, 25, -72, 66, 14, -49, 24, -122, 38, -34, 24, -46, 5, -16, -12, -74, -4, 48, 66, 26, 21, 36, -23, 31, 15, 26, 37, -8, -26, 52, 3, 15, -64, 15, -12, 11, -75, 19, 23, 0, -54, 30, -25, 25, 28, -41, -6, -2, 63, 14, -27, -10, -38, 45, 39, -7, 23, 70, 10, 39, -96, -15, -4, -85, -9, 4, 38, -10, 46, -2, -29, -82, -9, -69, 40, 17, -8, 33, 23, -70, 3, -64, -5, 13, -6, 103, -64, -53, -23, -37},
{-37, -38, -67, -35, -61, -30, -6, -23, 10, 15, -37, 12, 37, -38, 18, -47, -1, -20, -9, 18, 46, 46, 17, 34, -23, 17, -36, 82, 24, 67, 19, 13, 44, -21, -83, 72, -40, 13, -7, -5, -20, 28, 36, -5, 43, -31, 43, 25, -80, -11, 6, 69, 5, 9, -35, 67, -11, 16, 23, -30, -33, 14, 28, 58, -39, 7, 37, 18, -45, 69, 11, -9, -31, 17, 29, -19, -7, 53, -61, -29, 91, -63, 39, -2, 24, -103, 55, 81, -14, -68, -28, 30, 27, 53, -5, -48},
{-26, -55, 13, -29, -79, -5, 44, 5, -47, -20, 45, -68, -49, -33, -3, -77, 21, 14, -37, 9, 44, 23, -43, 20, -9, -3, -20, 64, -26, -11, -35, 8, 30, -13, -82, 34, -61, 0, 38, 7, 74, 16, -67, 10, -11, -48, -8, 11, -3, -65, -25, 0, -15, 15, -35, -2, 23, 3, 73, 20, 67, -75, -20, 42, 24, -48, 64, 18, 20, 17, 11, -82, 24, 20, -90, 9, -16, -38, -104, 23, 44, -66, -10, -6, 14, -64, 52, 43, 14, -30, 6, -4, -20, 54, 3, 22},
{-30, 19, -25, 47, -13, 25, -63, 13, -5, -32, -9, 27, -45, 41, -1, 57, 12, 38, -44, -13, 45, -5, 27, 3, 51, 19, -2, 1, 33, 10, 2, 9, 13, -27, -27, -58, 16, 26, -21, 16, -46, -11, 7, 1, 13, 21, -89, 10, -6, -26, 44, -76, -40, -28, -114, 25, 10, -6, -30, 43, 14, 47, 17, 12, 50, -6, -82, 16, -89, 115, -2, 86, 31, -29, 73, 44, 14, -78, 48, -30, 39, -26, -71, -21, 2, 17, -36, -62, 9, -11, 17, 59, -35, -38, -40, -19},
{-35, 21, -49, -32, -19, 15, -78, 24, 52, -86, -59, 17, -31, 30, 97, 89, -9, 21, -88, 30, 13, 98, -6, -2, -50, -11, 65, -33, 24, -7, -25, 12, 62, -47, 54, -89, 17, 62, -13, -18, 33, -10, 24, -23, 57, -4, 69, 9, -20, -75, -6, -10, 18, -5, -92, -29, 23, -8, 32, 16, 7, 43, 71, 15, -40, 71, -28, 10, 25, 64, 29, 6, -13, -17, 29, -5, 56, 8, 24, -27, -28, 52, 14, -29, -39, 50, 30, 83, 30, 23, 18, 58, 38, -63, 23, 36},
{-46, -29, 13, 20, -28, 13, -26, -54, -20, -73, 34, 9, -39, 50, 81, -22, 26, -15, -93, -19, 28, 3, -80, 0, 66, 0, 3, -4, 25, -7, -10, 17, 20, -15, 13, -55, -49, 49, 30, -2, 66, -42, -62, -33, 23, 25, 47, -18, 0, -17, -23, -68, -7, -24, -30, -14, 5, -21, 50, 31, -31, -27, 18, -21, 49, -24, 70, -18, 42, -37, 16, 4, 53, -33, -96, -17, 37, -23, 47, 18, -12, 46, -24, -74, -29, -6, -30, 31, 12, -32, 61, 35, -53, -21, 51, 27},
{-6, 51, -6, -43, -40, -10, 39, 6, -60, -74, -12, 85, -17, 30, -9, 74, -35, -102, 91, 15, -18, -78, 36, 19, 74, -32, 10, -3, -17, -31, -30, -27, -19, 40, -9, 111, -28, -15, -40, -16, -12, -19, 23, 57, -43, -4, -37, 9, -34, -12, 53, -2, 16, -33, 85, 32, 29, -15, 10, -2, -27, -14, -21, 50, 66, -31, -106, 7, -106, 55, 7, 127, 59, -8, 96, -19, 40, 22, 36, -60, 104, -30, 5, 33, 57, 70, 36, -53, -6, -21, 58, 19, -18, 43, -35, -20},
{-35, 77, 4, -17, -15, -26, 114, 16, 47, -72, -90, 56, 24, -86, 78, 114, 35, -112, 71, -9, 33, 94, 22, 34, -76, -68, 12, 2, 23, -52, -10, -25, -41, 64, 87, 83, -54, 3, 82, -21, 50, 25, 1, -42, -41, 0, 65, 19, -53, -74, 12, 25, -3, 22, 19, 44, -14, -34, 54, -16, 62, 37, 37, 75, -83, 29, -34, 43, -20, -55, 23, -6, 41, 13, 36, -77, 47, -40, -2, -21, 5, 48, 42, 43, 43, 62, 48, 101, -15, 17, 120, 10, 0, -55, -8, -6},
{-29, 66, 30, -41, 6, -40, 95, 1, -31, -55, -75, -22, -43, -55, 105, 77, 41, -110, 88, 33, 67, 90, -51, 36, 56, -48, -10, -54, -12, 31, 23, -39, -42, 76, 23, 39, -19, 21, 50, 3, -7, -31, -26, -13, -26, 13, 11, -6, -39, -5, -7, -52, -22, 0, 65, 48, 33, -34, 53, -22, -16, -50, 28, -4, 31, -49, 7, 2, 24, -63, 11, 56, 79, 10, -75, -43, 30, -33, -45, 7, 20, 24, -28, 23, 9, 50, 23, 43, -2, -20, 119, -22, -32, -62, -12, -10},
{21, -24, 3, 31, 79, 7, 27, -28, -67, 45, 69, 103, -51, 68, -92, 59, -40, -49, 19, 0, -63, -46, 33, -62, 78, 1, 57, -36, -61, 29, 32, -5, 56, -42, -76, 43, -7, 7, -92, -9, -16, -43, -43, 38, -2, -16, -25, -33, -8, 26, 57, 4, 48, -26, 93, -55, -2, -2, -19, 5, 19, 13, 37, 14, 24, -55, 1, 5, -36, 46, -16, -60, 9, -28, 35, -24, -20, 42, 48, -80, 54, -21, 7, 26, 33, 19, -69, -86, 22, -12, 38, -101, -37, 39, -2, 36},
{23, 7, 3, 67, 112, 35, 82, -29, 51, 18, -47, 18, -68, 31, -56, 68, 28, -9, 40, -20, -59, 39, 49, -90, -36, -21, -15, 37, -49, 31, 87, 18, 26, -30, -61, -2, -15, 10, -24, -15, 42, -2, -24, -63, -16, -12, 19, -16, -54, -30, 11, 71, 62, 25, -79, -46, -50, -6, 62, -33, 33, 35, 27, -8, -85, -39, 59, 79, -33, 31, 26, -119, -70, -35, -6, -45, -12, -56, 66, -38, -1, -45, 17, -44, -9, -41, -45, 77, 11, 5, 19, -64, 1, 33, -19, -27},
{36, 10, 14, 9, 69, 18, 87, -11, -6, 7, -32, -75, -111, 6, -40, 45, 18, -21, 62, 12, 36, 39, -52, -72, 25, -29, 29, 32, -66, 64, 73, 24, 20, -17, -45, -87, 30, 17, -14, 8, -7, -40, -109, -55, 0, -15, 0, -41, -56, -23, -29, -8, 23, 13, 55, -50, 28, -22, 19, -1, 16, -23, 19, -25, 36, -83, 48, 57, -26, 77, 9, -65, -52, -10, -110, -1, -5, -82, -58, -6, -2, -18, -26, -26, -49, -30, -85, -5, 30, 10, 7, -91, -36, -4, 1, 6},
{-10, -1, 11, 17, -27, -14, -83, -3, -6, 29, 81, 18, -37, -19, 22, 80, -9, 49, -77, -36, 7, -29, 22, 0, 60, 1, 26, 10, 18, 3, -20, -15, -31, 20, 29, 8, 47, 20, -76, 22, 20, -21, -54, 38, 8, 55, -71, 26, -32, -13, 43, -76, 15, 24, -26, -19, 30, 53, -13, -12, 22, -4, 45, 63, 10, 62, -42, -58, 58, -95, -25, 16, 45, -15, 39, 13, 6, -26, 37, -26, -62, 77, -52, 64, 6, -5, 23, -70, 4, 8, -39, 69, -10, -91, -43, 2},
{7, -9, 10, -11, -45, -14, -82, -61, 66, 2, -82, -16, -25, 49, 18, 32, -53, 90, -68, 39, 34, 104, 25, 0, 44, -23, -38, 3, 41, -6, -1, -17, -43, 37, 15, 61, 26, 15, -20, -11, 24, -29, 46, 12, 4, 67, 10, 18, 12, -41, 7, 100, 45, 55, -126, 6, 43, 74, 16, -72, -73, 39, 13, 36, -2, 48, 5, -6, -10, 32, 13, 77, -78, -18, 15, -26, 0, 32, -33, -19, -44, 63, 84, -12, -20, 16, 16, 47, 28, 7, -71, 84, 68, -49, -17, -25},
{7, -7, 53, -13, -72, 11, -21, -31, 27, -3, -18, -46, -90, 59, -54, -50, -18, 66, -94, -27, 30, 77, -39, -31, -31, -39, 2, 3, 3, -69, -42, -18, -44, 26, 0, 8, 11, 34, -29, 15, 74, -24, -109, 64, -14, 13, 20, -3, 13, -90, -21, 2, -23, 64, -63, -31, 62, 34, 20, 4, 17, 1, -42, 54, 41, -21, 38, 32, 43, -3, 2, 7, -41, -6, -114, 16, 15, -33, -92, 31, -17, 99, 75, 2, 8, 47, 0, 29, 50, 9, -6, 56, -29, 52, 0, -1},
{-1, 17, 12, 9, 8, 23, -31, 1, 20, 12, 33, -38, -36, 15, -74, 23, 35, 11, -27, -32, 4, -20, 68, 2, -75, 20, -27, -15, -4, 19, 28, 38, -25, 36, -112, -2, 13, -16, -36, -28, -20, -17, -2, 52, -40, -26, -110, 5, 37, -8, 26, -87, -9, -3, 20, 11, 30, 21, 22, 16, 1, -55, -15, -110, 22, -44, -112, 37, -94, -9, -26, 76, -20, 57, 84, 3, 7, 21, -100, -8, -34, -49, 40, -31, -35, 35, 24, -17, -11, -3, -25, -56, -25, -5, -7, -58},
{15, -23, -28, -27, 1, 22, -41, 19, 82, -12, -55, 37, -9, -33, -117, 14, 14, -1, -10, 40, -14, 16, 50, -6, -73, 3, 14, -23, -27, -25, 19, 71, 37, 25, 35, -30, 15, 6, 15, -34, 28, 20, 21, -21, 5, -13, 26, 27, 88, -27, 5, 1, 66, -14, 32, -19, 37, 19, 34, -28, 17, -63, 31, -108, 7, 21, 26, -14, 61, -70, -10, -2, -57, 36, 57, -4, -25, 28, -56, 7, -102, -95, 73, 54, -5, 81, -4, 71, 26, 41, -6, 1, 51, -15, 31, 0},
{12, -32, 6, 5, 23, -15, 36, -27, 27, -25, 33, -15, -29, -20, -89, -77, -8, -96, -41, -29, 33, 20, -49, -4, 28, 29, 27, -1, -43, -28, 5, 52, -11, 31, -8, 1, -23, 27, -13, -31, 63, -19, -38, -44, 31, 27, 48, 4, 75, -5, -25, 27, 24, -18, 40, 35, 17, 23, 91, -16, -20, -70, -22, -82, 14, -103, 76, -51, 53, -12, -65, -17, 17, -1, -53, -9, -9, 70, 103, 21, -57, -92, -36, 27, 28, -41, -67, 46, 2, -31, -28, -41, -51, 37, 25, -24},
{3, -26, -11, -14, -115, -39, -58, -49, 20, -68, 87, 60, -7, 59, -4, -10, -28, -58, -45, 14, -7, -23, 51, -26, -33, -2, -6, -80, 24, 49, -12, -44, -20, -38, -81, 52, -2, -50, -64, -42, -66, 28, 33, 58, -32, -18, -33, -25, 9, -42, 57, -67, -40, 27, 41, -2, 19, -11, -20, 26, -39, -80, -55, 4, 16, 2, -36, 23, -60, 77, -17, -44, -32, 59, 74, 14, 5, 19, -67, -39, 26, 79, 46, -44, -2, -55, 121, -37, -19, 4, 55, -87, -54, 71, 12, 43},
{-2, -32, -41, 47, -120, -47, -49, -12, 121, -86, -38, 51, 48, -87, -9, -80, 13, 13, -8, 36, -70, 81, 47, -20, -23, -7, -34, -1, 50, -5, -10, -26, 4, -18, 69, 41, 2, -52, -4, -55, -24, 74, -60, -114, -28, -5, -5, 38, 121, -89, 16, 68, -28, 40, -49, -57, -42, 5, 13, 41, 35, -118, -97, 17, -72, 72, 73, -1, -9, -63, 2, -51, -52, 2, 58, 26, 3, -96, 9, 29, -79, 62, 62, 3, 46, -83, 118, 61, 0, 85, 72, 2, 53, -106, -11, 65},
{25, 7, -20, 4, -96, -81, 2, -44, 68, -115, 8, -22, 18, -112, 17, -41, -42, -37, 39, -28, 44, 40, -54, 15, 58, 14, -9, -43, 32, 47, 40, -19, -11, -41, 103, -6, 46, -22, 17, -26, -11, 41, -43, -115, 56, 30, -31, 32, 6, -5, -13, 14, -41, 35, 35, 43, 5, 7, 87, 26, -22, -104, -105, 0, -64, 7, 71, -56, 14, 84, -37, -61, -44, 13, -62, 35, -5, -42, 113, 26, -23, 76, -37, 8, 22, -79, -9, 50, 5, 4, 78, -55, -68, -45, -25, 23},
{-43, -21, 3, -30, 80, 15, -44, 13, -2, 63, 82, 92, -77, 7, 75, -12, -8, 6, -2, -26, 40, -26, 69, -13, -24, 34, 18, -95, -20, -23, -61, -23, -13, 0, -75, -53, -10, -34, -105, -40, 49, 7, 30, 96, -11, -22, -58, -75, -92, -30, 40, -62, 12, -34, 38, -11, 21, -29, -17, -31, -8, -47, 43, -38, 112, -47, -26, -20, 95, -54, -35, 12, -2, -2, 76, -25, 16, -3, -88, -36, 22, 28, -1, -33, -28, -42, 95, -73, -41, -70, -98, -8, -46, 111, 29, 2},
{-43, -24, -11, 35, 121, 25, -21, 62, 107, 72, -84, 82, -76, -34, 75, -55, 19, 89, 97, 28, -52, 101, 42, 7, -32, 33, -68, -60, -21, -43, -54, 11, 13, 19, 72, -58, 6, -12, -53, -56, -4, 43, 14, -58, -15, -23, -28, -19, 15, -63, 1, 79, 39, -20, -127, -16, -56, -11, 51, -34, 7, -53, -32, -37, 51, 17, 62, 5, 111, -90, -23, 86, -66, -68, 74, 12, -3, -67, -7, 23, 17, -55, -21, -13, 5, -106, 52, 77, -39, -32, -120, 89, 38, -41, 21, -41},
{-8, 33, 21, -36, 55, -22, -15, 44, 79, 17, -71, -32, -94, -16, 46, 4, -21, 36, 121, -35, 10, -9, -42, -8, -29, 38, 9, 8, -30, -23, -13, 15, 7, -30, 98, -98, 71, -2, -62, -39, -69, 22, -56, -77, 64, -21, -11, -23, -92, -21, -12, -31, 10, -32, 0, 47, 6, -21, 76, 11, -7, -11, -5, -76, -15, -34, 5, -16, 94, 6, -32, 67, -61, -49, -78, 41, 22, -13, 4, 36, 61, 22, -16, 38, -10, -51, -26, 65, 3, -63, -69, -2, -60, 23, -13, -59},
{9, -11, -7, -4, 41, -14, 67, 12, 74, 28, 98, -4, -40, 44, 61, 61, 36, 24, -56, -20, 19, -26, 43, 45, -6, 16, 30, 28, 40, 50, 6, -31, -18, 9, -64, -46, -27, 6, -108, -22, 36, -11, 56, -23, -33, 6, -91, -33, 25, -16, 17, -112, -35, -6, 58, 23, -14, 26, 34, 1, 33, -57, 32, -16, -19, 41, -43, -20, 27, -46, -40, -64, 79, 49, 22, -15, -27, 41, 22, -15, -29, -18, -101, -4, -39, 83, 31, -80, -10, 11, -32, -42, -28, 3, 9, 52},
{22, -12, -39, 3, 63, -18, 76, 20, 123, 46, -111, -3, -17, 88, 28, -33, -6, 69, 15, 66, -41, 79, 35, 29, 3, 16, -27, 93, 46, 19, 32, -8, 31, 6, 9, 38, -40, -1, -4, -41, -45, 1, 72, -112, -32, 12, -10, 16, 101, -44, 12, 51, -10, -1, 17, 17, -30, 29, 34, -13, -49, -60, -22, -35, 0, 77, -26, 11, -2, 24, -23, 19, -40, 13, -1, 9, -32, 66, 71, 14, 5, -85, 0, 0, 5, 110, -30, 59, 19, 44, -54, 83, 98, 14, 15, 8},
{30, 16, 4, 2, 15, -21, 91, -1, 50, -43, -68, -56, -47, 48, -59, -61, 6, 12, 14, -34, -2, 36, -65, 14, -32, 28, 27, 95, 1, -37, 15, 9, 22, -27, 76, 60, -26, 42, -45, -23, -98, 3, -34, -68, 19, -32, -18, 10, 29, -59, -35, -34, -50, 22, 76, -9, 0, -8, 76, 81, 13, -53, -99, -23, -26, -35, -51, 7, -49, 93, -24, 21, -47, 34, -127, 39, -19, 89, -1, 40, 61, 33, 30, 5, 35, 103, -108, 24, 16, 18, -7, -1, -32, 91, 8, -3}};

const ap_int<8> embed_linear_b[96] = 
{3, -1, 3, -1, 1, 1, -3, 0, 0, 1, -1, 0, 1, 1, -1, -1, -2, 0, -1, -2, 3, -1, 2, -1, -1, 0, 0, 0, 3, -6, 2, -2, 0, 2, 2, 1, 0, 0, 0, -1, 0, 1, 0, 1, -2, 0, 0, 0, 0, 4, 0, -1, -2, -1, 3, 1, 2, 2, 0, -3, 0, -1, 1, -1, -1, -1, 1, 0, 0, 3, 0, 1, 1, 0, 0, 2, -1, 1, -2, 1, 0, 3, 2, -4, -1, -3, 1, 0, -1, 1, -1, -3, 1, 2, 0, 0};

const ap_uint<8> embed_linear_s[96] = 
{9, 9, 9, 9, 10, 9, 10, 9, 10, 10, 10, 10, 10, 10, 10, 10, 9, 10, 10, 9, 10, 11, 10, 9, 10, 9, 9, 10, 9, 9, 9, 9, 9, 9, 10, 10, 9, 9, 10, 9, 10, 9, 10, 10, 9, 9, 10, 9, 10, 10, 9, 10, 9, 9, 10, 9, 9, 9, 10, 9, 9, 10, 10, 10, 10, 10, 10, 9, 10, 10, 9, 10, 10, 9, 10, 9, 9, 10, 10, 10, 10, 10, 10, 9, 9, 10, 10, 10, 9, 9, 10, 10, 10, 10, 9, 9};

const ap_int<8> blocks_0_token_mixer_affine_1_w[96] = 
{72, 127, 94, 116, 88, 119, 125, 83, 101, 77, 88, 100, 100, 86, 65, 77, 78, 68, -111, 91, 115, 72, 73, 71, 85, 122, 99, 85, 104, 71, 67, 105, -75, 75, 118, 85, 105, 119, 90, 115, 70, 81, 80, 81, 69, 111, 107, 67, 104, 91, 75, -94, 123, 113, 97, 90, 77, 81, 65, 102, 107, 69, 101, 99, 125, 74, 64, 71, 90, 75, 101, 104, 95, 67, 120, 118, 84, 106, -108, 108, 98, 83, 85, 77, 113, -71, 105, 85, 92, -114, 114, 127, 120, 110, 127, 80};

const ap_int<8> blocks_0_token_mixer_affine_1_b[96] = 
{1, -17, -2, 14, 10, -9, -12, 8, 12, -11, -4, -5, 6, 6, 0, -13, 4, 9, 9, 23, 3, 14, -14, 5, -19, -8, 3, -4, -1, -1, -20, -1, -7, -3, 9, 7, 0, 11, -12, 2, -8, 7, -5, -6, 2, -16, -5, -1, 4, -14, 30, 6, -5, -2, 5, 8, -7, -15, 23, -1, 6, 15, 8, 9, 7, 1, 4, 22, -3, -6, -12, 5, -4, 16, 1, -15, 1, -11, 10, -27, 12, 8, -10, 12, 10, 4, 23, -3, -3, 8, -6, 11, 6, -14, 4, 2};

const ap_uint<8> blocks_0_token_mixer_affine_1_s[96] = 
{7, 7, 6, 7, 8, 7, 10, 6, 7, 7, 6, 6, 7, 5, 5, 6, 8, 9, 8, 6, 7, 6, 6, 6, 6, 7, 6, 7, 9, 7, 7, 8, 14, 7, 6, 6, 7, 7, 8, 7, 8, 8, 6, 6, 6, 10, 6, 6, 6, 7, 8, 11, 8, 9, 6, 7, 7, 6, 6, 6, 5, 7, 6, 7, 6, 6, 5, 7, 8, 6, 6, 11, 6, 6, 11, 7, 8, 9, 13, 7, 5, 6, 5, 7, 7, 13, 7, 10, 7, 10, 7, 10, 6, 6, 9, 6};

const ap_int<8> blocks_0_token_mixer_linear_w[64][64] = 
{{-88, -78, -38, 6, 2, -6, 11, -6, -30, 0, -1, -7, -5, -2, 3, 12, -9, 6, 2, -4, -5, 2, 5, 4, -4, 5, 1, 0, 2, 5, 2, 5, -4, 0, 4, 2, 1, 3, 2, 4, -8, 3, -1, 1, 2, 1, 5, 5, -15, 0, 7, 2, -1, -1, 7, 3, -13, 0, 3, 10, 7, 6, 10, -7},
{-70, -26, -113, -30, -8, -7, -15, 2, 26, -19, 10, -6, -8, -2, -10, 2, -1, -16, 0, 6, 0, -4, -1, 0, -9, -5, 3, 3, 0, -1, 4, 2, 2, -6, -2, 4, 3, 2, 5, 1, 4, -5, 1, -1, 2, 2, 0, -3, 7, -3, -7, 0, 4, 0, 1, -1, 21, 2, 1, 1, 2, -1, -5, 4},
{-43, -83, -9, -107, -37, -9, -6, -10, 0, 5, -18, 6, 4, -5, -7, -26, -6, -3, -10, -3, 6, 0, -5, -13, 1, -7, -10, -4, -3, -2, -5, -2, -3, 0, -7, -3, -1, -6, -2, -1, -3, 0, -5, -2, -3, -1, 1, 2, 5, 2, 0, -5, -3, 0, -6, 7, 3, 4, 4, 0, 2, -4, 0, 4},
{-31, -36, -83, 10, -99, -40, -14, -17, -5, 0, -4, -9, -4, -5, 0, -7, 1, 0, -4, -9, -4, -6, 5, 5, 5, 2, 2, -9, -3, -4, 2, -5, -1, 4, 2, -3, -2, 0, 1, -4, 1, 0, 3, -4, -2, -1, -5, 4, 0, 5, 6, 2, 0, -1, -3, -2, 6, 4, 2, -3, -4, -1, 3, 8},
{-12, -11, -44, -97, 19, -82, -38, -24, -5, -1, 0, -3, -3, 0, 1, 1, 5, -1, 0, -2, -10, 0, -4, 9, -4, 5, -4, -2, -5, 2, 2, -1, -7, -2, 0, -1, -2, 2, 0, -4, 4, -1, -2, 0, -1, -1, 1, -2, -1, -1, -3, 2, 3, 2, 3, 4, 3, 1, 0, -4, -6, 1, 3, 6},
{-10, -8, -10, -36, -103, -6, -84, -41, -20, -6, -3, 1, 7, -15, 12, -5, -13, -2, 1, 3, -2, -12, -2, -3, -4, -7, -3, 0, -4, -8, -5, 6, 1, -6, -4, 0, -6, -4, 2, 0, 3, -5, -2, -2, -2, -4, 4, 1, 6, -2, 3, -2, -8, -5, 6, 2, -7, -3, -6, -4, -4, 5, 7, 9},
{9, -12, -9, -13, -31, -118, -32, -64, 6, -11, -5, -4, -8, 10, -26, 20, 5, 0, -5, -4, 1, 3, -16, -4, 3, 2, 0, -1, 7, -2, -9, -9, 7, 4, 1, 1, 4, 0, -12, 0, -1, 1, 0, 0, -1, -1, -8, 0, 1, 0, -5, 4, 4, -1, -7, 8, 0, 0, 0, 5, -1, 2, -2, 14},
{8, 10, -9, -1, 7, -39, -79, -85, 5, 3, -2, -5, -4, -2, -2, -22, 5, 6, 4, -3, 0, 4, 7, -12, 2, 3, 6, 1, -2, 3, 1, -1, -4, 3, 3, -2, 2, -3, 3, -5, 0, 7, -2, 1, 0, 0, 2, -7, -1, 1, 2, -2, 2, 5, 1, -17, -5, 9, 8, 4, 14, 1, -5, -15},
{-45, 9, 13, -15, -7, -13, -8, 10, -30, -92, -35, -4, -12, -6, -3, 4, -38, 10, -3, -6, -4, -3, 8, 14, -19, 5, 2, -2, -3, 2, 9, 5, -6, 4, 2, 2, 4, 5, 6, 2, -11, 1, 5, 0, 2, 6, 3, -6, -5, -2, 0, -1, 0, 4, 7, 1, -12, -2, 6, -4, -2, 2, 9, 5},
{-8, -49, 14, -8, -11, -6, -20, 1, -83, 3, -110, -32, -10, -14, -12, -2, 28, -26, 9, -5, -7, -7, -13, 0, 1, -20, -4, 5, -4, -5, -5, 4, -5, -12, -3, -2, -2, 0, -1, 6, 5, -8, -4, 1, 0, 0, 2, 4, 5, -7, -2, -2, 0, -2, -4, -3, 8, -8, -6, 5, 0, -5, 5, 2},
{19, -2, -26, 6, -3, -10, -10, -12, -40, -96, 24, -117, -34, -13, -14, -18, -1, 7, -16, 5, -3, -3, -4, -16, -3, -1, -13, -1, 5, -2, -4, -8, -2, -1, -8, -7, -3, -1, -5, -5, -2, -1, -5, -3, -2, -5, -1, -3, -2, 0, -2, -3, -3, -1, -3, 2, -1, 3, -6, -6, 0, 9, -5, 5},
{5, 2, 9, -20, 1, -1, -10, -14, -25, -48, -95, 34, -110, -39, -18, -19, -9, 1, 0, -8, 2, -3, -3, -4, 5, -4, 2, -12, 2, 3, 1, 6, -1, -3, -1, -3, -3, -4, -2, 2, -1, 2, 2, -2, -1, -1, -3, 0, -2, -2, -3, -2, -4, -1, 1, 3, 1, 2, 7, 0, 3, 1, 1, 2},
{-15, -9, 1, 8, -20, 6, 6, 3, -13, -16, -39, -102, 33, -94, -41, -28, -5, -6, -2, -3, -4, 3, 0, -4, 2, 2, 1, 0, -16, -1, -3, 2, 0, 3, -5, -5, -5, -2, -1, -3, -1, -5, -3, -1, -2, 3, -4, -3, 4, 1, -1, -1, 2, -1, -2, 0, 7, 2, 1, 4, 3, 1, 2, -1},
{-12, -8, -7, 3, 4, -27, -3, 17, -13, -16, -12, -35, -117, 22, -98, -38, -15, -7, -5, -3, 2, -18, 8, -3, -9, -4, 1, 3, -1, -13, 2, -1, -4, -1, 1, -4, -6, -8, -3, 5, -2, -5, -4, 1, -5, -5, 3, 0, -3, 2, 0, -2, -2, -3, -1, 3, 3, -5, 0, -6, -6, -2, 1, 2},
{-6, -17, -8, -9, -10, 19, -44, -15, -4, -13, -13, -11, -33, -107, 2, -83, 2, -9, -6, -5, -4, 10, -27, 24, 6, -5, -3, -2, 3, -3, -22, 0, 4, 0, -2, 1, -3, -2, -10, -7, 0, 5, -2, -1, 3, -6, -10, 4, -1, -4, 0, 0, -3, -2, -6, 5, 3, -2, -2, 4, 2, -8, -9, 12},
{2, -13, -11, -6, -9, 8, 17, -47, 6, 3, -10, -9, -4, -36, -88, -34, 10, 3, -5, -3, -11, -5, 9, -38, 5, 6, 1, -3, -2, 4, 8, -14, 4, 6, 5, 1, 4, 6, 6, -10, -4, 2, 5, 1, 3, 3, 2, -11, -1, 3, 2, 2, -1, 0, -1, -8, 6, 5, 2, 0, -5, 2, 2, -12},
{-14, 4, -12, 1, 0, -5, -13, -4, -45, 8, -5, -8, -5, -7, -5, -5, -15, -98, -32, -14, -9, -14, -11, 7, -36, 6, -9, -9, -4, -3, -2, 4, -18, 1, 0, -4, -1, -2, 5, 15, -11, 1, 3, -2, 0, 5, 6, 4, -10, -3, 0, 0, 2, 3, 3, -2, -11, -5, -5, 6, 0, 5, 6, 3},
{9, -18, -1, -2, -5, -2, -1, -9, 1, -32, 7, -6, -6, -4, -10, -4, -98, 19, -103, -26, -16, -12, -15, -12, 22, -17, 6, -7, -10, -8, -7, -5, 6, -16, -3, 3, -6, -2, -4, -1, 5, -5, -5, -1, 2, -3, 1, 0, 7, -3, -6, 0, -2, -5, 3, 6, 0, -2, -4, -5, 1, -2, -5, -7},
{7, 15, -14, 0, -2, 0, 0, -2, 6, 10, -24, 6, -6, -5, -6, -9, -36, -103, 33, -110, -30, -15, -16, -17, 5, 14, -7, 3, -5, -9, -8, -16, 3, 8, -9, 0, 6, -5, -3, -7, -7, 0, -1, -3, -3, -2, 0, -1, -2, 3, 2, -1, -3, 0, -4, -2, -3, -1, 0, -5, -5, 1, -2, 0},
{-1, 6, 2, -10, 5, 5, 2, 3, 0, 4, 11, -16, 6, -2, -8, -12, -23, -33, -98, 41, -108, -32, -20, -15, -10, -4, 3, -1, 4, -1, -9, -7, -1, -1, 3, -4, 0, 3, 0, 1, 4, -5, -3, -1, -3, -3, -1, -4, 0, -4, 4, -2, -1, -3, -1, 2, 4, -1, 0, 2, 2, -4, 3, 7},
{2, 8, 0, 4, -11, -1, 9, 1, -7, -5, -2, 8, -14, 5, 3, -1, -12, -16, -36, -108, 36, -96, -32, -21, -8, -7, -4, 1, 1, 4, 0, -9, -2, -2, 6, 1, -4, 4, 0, 1, 1, 0, -4, -2, -1, 0, 0, 0, 2, -1, -3, 0, -1, 2, 2, -6, 9, 5, 2, -1, 2, -2, -4, 6},
{1, -2, -2, -1, 1, -14, 11, 4, -15, -11, -6, -6, 6, -21, 6, 8, -10, -15, -15, -27, -110, 31, -101, -36, -15, -7, -9, -1, 5, -9, 13, 6, -6, -4, -6, 6, -1, -12, 9, -4, -4, -1, 4, -6, -3, -3, -1, -2, 0, -5, -1, -5, 1, -5, 4, -3, -6, 1, 1, -4, -4, -2, 3, -4},
{-1, -9, 2, -5, -5, 0, -21, 10, -7, -4, -6, -8, -6, 4, -34, 6, -16, -16, -9, -15, -26, -102, 19, -97, -5, -8, -8, -10, -9, 5, -21, 21, 2, -1, -3, -5, 1, -3, -18, 15, -2, 2, 0, 2, -4, -4, -9, -1, 4, 0, -4, -1, 0, -3, -7, 3, -6, -8, -4, -2, -3, -3, -4, 4},
{-2, -14, -6, 2, -9, -9, 4, -19, 5, -7, -9, -4, -7, -3, 11, -37, 9, -8, -13, -12, -10, -31, -92, -15, 8, -1, -3, -6, -7, -12, 6, -36, 6, 3, 2, -4, -1, 1, 2, -19, 1, 0, 3, 2, 0, 3, 2, -7, 0, 7, 4, 0, 3, 1, -1, -9, 0, 6, 4, 2, 5, 0, -7, -13},
{-10, 0, -1, -13, -3, -1, -13, -3, -14, 9, -1, -2, 1, 2, -8, -2, -32, 5, -6, -3, -5, -4, -8, -1, -4, -98, -28, -13, -11, -10, -10, -7, -29, 0, -12, -12, -6, -4, 0, 5, -10, -4, -5, -4, -1, -3, 7, 9, -3, -3, 1, 0, 1, 1, 4, -5, -12, -2, 1, 0, 0, 0, 6, 14},
{8, -8, -5, -9, -5, -2, -3, -4, 11, -20, -1, 0, -4, -6, -6, -7, 19, -22, -1, -6, -5, -6, -1, -8, -97, 22, -104, -24, -15, -11, -11, -19, 22, -13, 5, -9, -12, -10, -12, -3, 15, -10, -3, -1, -5, -3, -6, 3, -1, -4, -8, -2, 1, 1, 0, 1, 7, 5, -2, -3, -6, -4, 1, 2},
{-6, 4, -3, -1, -5, -2, -1, 1, 9, 6, -15, -4, 2, -1, -6, -8, 0, 14, -19, 4, -5, -4, -12, -12, -24, -100, 36, -110, -28, -16, -13, -14, 3, 16, -3, 7, -5, -9, -13, -10, 5, 10, -5, -2, 3, -6, -4, -11, -8, 0, 1, -5, -4, 0, -5, -5, 2, 2, 4, 2, 0, 0, -5, -7},
{-2, -2, 0, -10, 2, -1, 3, -7, 4, 9, 2, -14, 1, 2, 4, -1, -6, -2, 6, -14, 6, -4, -7, 1, -26, -27, -94, 39, -104, -33, -19, -23, -7, -2, 4, 2, 5, -6, -10, -11, 0, 2, 4, 0, 1, 4, -2, -6, -3, -6, 1, 3, -1, -3, 2, -1, 1, 3, 4, 3, -3, -2, 2, -6},
{-2, 1, 1, -6, -8, -4, -2, 3, -3, -2, 0, 1, -13, -1, 8, -1, -4, -8, -1, 5, -14, 8, 0, -8, -18, -20, -33, -102, 36, -93, -29, -23, -11, -7, -2, 6, 3, 6, -1, -8, -3, 3, 2, 1, 1, 4, 0, -1, -4, 4, -5, 2, 5, -1, -4, -5, 4, -3, -4, -2, 6, 1, 3, -2},
{-3, 2, 1, -4, -7, -3, 2, -9, -9, -2, -2, 1, -2, -14, 8, 3, -11, -10, -4, -5, 4, -18, 15, -1, -17, -12, -15, -29, -107, 33, -98, -26, -15, -15, -13, -6, 5, 0, 13, 6, -13, -5, -5, 2, -1, -3, 13, 3, -2, -4, -1, -3, -8, 2, -1, -1, -7, -4, 0, -1, -3, 3, 5, 1},
{-8, -5, -1, -5, -6, -1, -5, 12, -6, -5, -3, -4, 0, 2, -22, 10, -7, -7, -7, -4, -8, 0, -23, 15, -20, -13, -11, -17, -24, -103, 22, -91, -2, -12, -7, -13, -8, 4, -14, 21, 6, -5, -2, -7, -2, -3, -12, 18, -4, 0, -1, -2, 1, -10, -5, 0, -1, 3, -5, 0, -6, 0, -2, 2},
{0, -4, 1, -4, -10, 1, 2, -16, 0, -9, 3, 0, -2, -2, 5, -16, -7, -6, -2, -6, -4, -4, -1, -33, -6, -9, -11, -9, -12, -29, -92, -14, 11, 0, -6, -3, -10, -10, -2, -31, 1, 7, 0, -1, -3, 0, -5, -10, 5, -4, 1, 2, 0, 1, -1, -3, 3, 0, 1, -3, 0, -3, 0, -1},
{-4, 4, 4, 9, 3, -7, 1, -4, -5, 2, 3, -3, 1, -2, 0, -14, -11, 5, -2, -2, 0, 2, -6, -4, -22, 1, 1, -4, -6, -6, -8, -7, -17, -89, -29, -13, -13, -14, -9, -13, -19, 5, -11, -5, -8, -10, -7, 5, -6, -2, 1, -3, -2, -4, 0, 4, -3, -7, 0, -2, -3, 1, -2, -5},
{-1, -5, -5, 0, 4, -6, -4, 1, 6, -11, -3, -3, -2, 3, -5, -6, -2, -20, 0, -3, -2, -3, -5, 1, 21, -22, 1, -6, -9, -8, -5, -5, -92, 17, -96, -30, -14, -14, -11, -15, 18, -12, 6, -8, -7, -7, -14, 1, 17, -12, -4, -1, -6, -3, -7, 6, 5, -5, -8, -2, 0, -1, 0, 1},
{-11, 0, -4, -6, -6, 6, -2, 3, -1, -1, -4, -5, -5, 2, 1, -9, 7, 2, -13, -2, 1, -3, -3, -12, 4, 15, -19, 7, -6, -8, -13, -8, -23, -100, 32, -103, -34, -17, -18, -12, -1, 10, -7, 8, -5, -5, -18, -18, 5, 11, -5, -1, 0, 0, -5, -11, -2, 1, 2, -4, 1, -4, -3, -1},
{-2, -7, -2, -1, 0, -5, 0, -3, -4, -7, 2, -5, -4, -3, -4, 0, 4, 3, -2, -13, -4, 1, 3, 5, -10, -2, 7, -21, 7, -5, -8, -10, -21, -29, -92, 30, -97, -35, -17, -20, -2, -3, 6, -5, 9, -3, -8, -12, -1, 5, 4, -3, 1, 1, 1, -6, -5, -1, 1, 9, -1, -1, -7, -2},
{-4, -3, -4, -3, 2, -3, -7, -8, -4, 3, -5, -6, -2, -3, -6, 0, -2, 5, 0, -1, -12, -4, 2, 9, -13, -9, -5, 8, -17, 9, -2, -6, -20, -18, -35, -94, 29, -91, -28, -25, -20, -6, -3, 8, -3, 5, -1, -6, -10, 0, 3, 1, 0, 6, 5, 1, 1, 2, -3, 1, 9, -1, -2, -1},
{-1, -7, 5, -4, -3, -5, -3, -3, -5, -2, -2, -5, -6, -2, 3, 0, -10, -7, -3, 2, -1, -12, 0, 5, -9, -10, -9, -5, 3, -20, 15, 2, -14, -14, -18, -37, -104, 32, -100, -25, -15, -18, -7, -5, 9, -9, 15, 0, -10, -6, -5, 0, -1, -2, 8, 7, -1, -3, -2, -3, -5, 3, 2, -8},
{1, -6, -5, 6, -1, -5, 0, -3, -5, -2, 2, -1, -4, -5, -12, 1, -1, -2, -3, -3, -1, -2, -21, -2, -6, -5, -8, -8, -3, 0, -21, 15, -17, -12, -13, -15, -31, -97, 15, -89, 3, -13, -12, -5, -8, 9, -11, 12, 3, -6, 1, -4, -2, -4, -7, 15, 4, -1, 1, -1, 0, -10, 2, 2},
{-5, 0, -4, 3, 9, 2, -4, -2, -7, -1, -2, -1, -2, 3, 1, -1, -3, -2, 1, 1, -5, -3, 6, -14, -4, -5, -5, -6, -6, 0, 1, -21, -5, -11, -14, -10, -16, -31, -85, -21, 8, -1, -10, -9, -8, -12, 5, -16, 1, 9, -5, -2, -2, 1, -3, -8, 7, -1, -1, -4, -2, 0, -8, -5},
{-12, -4, -3, 0, -9, 2, 13, 11, -3, 0, -2, 5, -1, -2, 3, 4, -3, 1, 3, -1, 1, 0, 6, -5, -21, 5, -5, -3, 3, 4, 2, 7, -27, -2, -1, -5, -4, -2, -4, -1, -13, -88, -38, -20, -12, -9, -9, 1, -21, 14, -11, -9, -7, -9, -6, 6, -8, -5, 2, -3, 2, -11, -3, 5},
{-1, -13, -3, -8, -4, -5, 2, 6, -4, -6, -5, 0, 3, -7, 3, 2, -2, -6, -3, -3, -1, -2, 1, -5, -1, -22, -4, -3, 1, -2, -2, -2, 22, -23, -2, -5, -7, -7, -3, -8, -93, 11, -92, -36, -21, -15, -9, -9, 14, -11, 5, -7, -4, -10, -12, -6, 23, -12, -3, -4, 0, -4, -10, 9},
{10, 1, -4, 1, -3, -1, -10, 0, -6, 1, -5, -6, -2, 4, -8, -5, -4, 0, -6, -4, -5, 0, -6, -4, 2, -2, -13, -4, -2, -2, -6, -11, -1, 18, -23, 4, -5, -15, -10, -6, -30, -101, 29, -93, -38, -21, -19, -13, 3, 12, -9, 9, -4, -8, -18, -19, 5, 11, -3, 0, 0, 1, -11, -13},
{0, 3, 6, 3, 2, 0, -1, 3, 3, -7, -2, -5, -5, -6, 5, -4, -2, -5, -1, -1, -5, -5, -5, -6, 9, 5, -7, -12, -5, 3, -2, -7, -14, -6, 13, -19, 5, -7, -15, -11, -22, -29, -95, 24, -99, -34, -24, -20, -9, 2, 6, -13, 9, -1, -5, -16, -4, 4, 2, -5, 1, 2, 2, -2},
{3, -3, 1, 1, 5, 5, 0, 1, -3, 0, -6, -2, -2, -1, -4, 3, -9, -3, -6, -4, -1, -2, -3, -6, -4, -2, 2, -5, -10, -5, 2, 2, -8, -17, -4, 6, -15, 10, -5, -11, -20, -24, -38, -91, 21, -96, -27, -25, -13, -6, 3, 8, -6, 7, 1, -5, -9, -2, 4, 0, -5, 5, 5, -4},
{5, -5, -3, -4, 2, -3, -1, 0, -6, -8, 9, -4, -7, -6, -2, -6, -2, -6, -2, -6, -4, -5, 1, -2, -9, -8, 2, -1, -4, -13, -3, 7, -9, -9, -13, -5, 2, -22, 20, 2, -13, -15, -23, -40, -95, 27, -105, -26, -16, -16, -6, -6, 6, -12, 12, 1, -8, -9, -4, 0, 1, -5, 13, 9},
{-2, -1, -7, -4, -12, -3, -10, -1, 2, -2, -8, 3, 1, -3, -10, 1, -2, 2, 1, -2, -3, -4, -6, -4, -1, -1, -4, 1, -6, -5, -19, 1, -9, -2, -7, -6, -3, -1, -23, 26, -18, -11, -11, -21, -34, -93, 13, -95, -3, -11, -9, -2, -9, 8, -11, 14, 7, -9, -2, 3, -4, -2, -11, 18},
{4, 10, -1, 2, -3, -5, -7, -13, 0, 6, -2, 0, 8, -1, 6, 9, 0, 4, -1, 3, 0, 2, 3, -3, 7, 1, 2, 3, -1, 0, 2, -20, -1, -4, -1, -5, -3, 0, -3, -32, 10, -13, -12, -12, -19, -37, -84, -24, 5, -8, -11, -8, -6, -9, 13, -16, 5, -1, -10, -2, -3, 3, -7, -8},
{10, 3, -1, 2, -1, 9, 13, 2, -5, 6, 1, 0, 0, -1, 10, 14, 4, 3, -4, 5, -1, 3, 5, 0, -5, 7, 1, 2, 1, -1, 2, 5, -16, 9, 0, 3, 2, 4, 0, 5, -30, 3, 3, -2, -2, -4, -3, 0, -30, -85, -45, -21, -13, -10, -14, 9, -17, 21, 0, -15, -12, -17, -18, 8},
{5, -5, 1, -1, -2, -1, 4, 9, -4, -8, 0, -5, -5, -1, 1, 9, 1, -6, -3, -5, 3, -3, 1, 8, -2, -10, -4, -2, -2, 3, -3, 7, -1, -23, -6, -2, -2, -4, 2, 5, 29, -23, -4, -4, -6, -3, -6, -3, -90, 3, -82, -41, -27, -13, -16, -14, 15, -18, 10, -10, -2, -8, -19, -7},
{-3, 3, 1, 1, 1, -6, -4, 7, 2, 2, -1, -1, -2, -4, -6, -6, 0, -4, -5, -5, -3, -1, -8, -3, 0, -7, -3, -7, -5, -5, -3, -6, 2, 2, -12, -7, -4, -3, -10, -12, -10, 21, -18, 3, -7, -14, -13, -12, -35, -105, 14, -91, -42, -31, -19, -23, 7, 11, -11, 4, 0, -10, -13, -13},
{-7, 2, -3, 2, 2, 1, -7, -1, -3, 0, -2, 4, -1, -2, -1, -3, -2, -4, 1, -4, -4, -6, 1, 2, -2, 0, -4, 2, -5, -2, -4, -9, -1, 3, -2, -7, -4, 1, -5, -8, -14, -10, 9, -19, 7, -12, -14, -14, -21, -37, -89, 16, -92, -38, -24, -17, -8, -3, 8, -9, 7, 1, -10, -10},
{-6, -9, 4, 0, -3, 5, 3, -4, -1, -3, 2, -1, 5, 2, 2, -1, 0, 1, -6, 0, -4, -1, 0, -1, -9, -5, -3, -8, 4, -4, -2, 2, -8, -5, -3, -4, -10, -2, 3, -5, -15, -16, -6, 4, -17, 15, -10, -13, -24, -26, -41, -88, 17, -92, -35, -19, -11, -5, 0, 3, -6, 4, 2, -9},
{5, 0, -4, 3, 0, -4, 3, 8, -3, -4, -4, -4, -3, 0, 5, -3, -6, -6, 3, -5, -8, -2, -4, -2, -4, -8, -4, -3, -7, -3, -2, -5, -8, -8, -2, -7, -4, -13, 3, 9, -13, -11, -15, -7, 2, -17, 18, -5, -20, -21, -28, -40, -87, 16, -107, -34, -16, -15, -7, -4, 7, -9, 13, 6},
{10, 7, 7, -3, 5, 2, -2, -3, 10, 1, -2, -3, -1, 1, -9, -1, 5, 0, -5, 2, -3, -4, -5, -1, 5, 4, 1, -3, -5, -5, -9, -6, 2, 2, -3, 0, -5, -5, -21, 3, -8, -3, -5, -5, -5, -5, -21, 24, -15, -12, -15, -29, -43, -87, 0, -90, -15, -14, -7, -7, -8, 7, -13, 22},
{8, 11, 9, -3, 1, 0, 8, 2, 8, 9, 2, 3, -3, 0, -1, -2, -1, 5, 2, -1, 3, 1, 3, 2, 3, 4, -1, 1, 1, 0, 7, 1, 6, -1, 3, 3, 2, 0, 2, -22, 5, -7, -2, -2, -3, 2, 0, -29, 4, -14, -13, -15, -25, -45, -81, -39, 2, -16, -19, -14, -11, 3, 12, -14},
{-12, 10, 5, 3, 2, 3, -10, -6, 6, 5, 3, -1, -2, 4, 5, -5, -5, 6, 6, 2, -2, 0, 2, -2, 2, 3, 0, 4, -1, 1, 8, -2, -7, 8, 0, -1, -3, -1, -1, -2, -21, 6, 0, 2, 0, 1, -5, -1, -18, 1, 5, 1, -4, -1, -2, 6, -76, -73, -49, -20, -12, -4, -4, -9},
{13, 3, 7, 4, 1, 3, 15, -5, 1, -3, 3, 4, 3, 3, 5, 8, -3, -4, -5, 0, 1, 0, 2, 8, 0, -5, -2, -4, 5, -2, 1, 5, -10, -9, -3, 1, 2, 0, 2, 3, 0, -20, -6, 0, 1, -5, 3, 2, 20, -11, -6, -8, -4, -1, -1, -3, -87, -12, -81, -45, -34, -18, -12, -26},
{2, -1, 4, 2, 5, -6, -4, 3, -3, 5, -2, -1, 1, -3, 1, 5, 1, -3, 5, -2, -1, -1, -7, -2, 3, -3, -3, -4, -7, 3, -8, -3, 2, -5, -5, -6, -5, -2, -7, -2, 11, 3, -8, -9, -3, -5, -9, -7, -3, 15, -7, 3, -6, -11, -11, -16, -50, -99, -3, -70, -43, -26, -14, -33},
{17, -9, 8, -2, -5, 5, -3, 9, -2, 2, 5, -2, 6, -1, -2, -3, 7, 0, -3, 5, 0, -1, 1, 0, -1, 3, -1, -1, -3, -4, 2, -8, 1, -2, 2, -3, -2, -2, 1, -6, -8, 3, 1, -3, -6, 1, -1, -7, -21, -12, 7, -9, 3, -11, -14, -14, -25, -46, -94, 0, -96, -45, -27, -12},
{3, -5, 8, 1, 2, 1, 1, 10, 2, -5, -1, 6, -2, 3, -1, -1, -5, 3, -1, -2, 5, -3, 0, -5, -1, 2, -3, 0, 1, 1, 2, 3, -3, -1, -1, 0, 1, -1, 0, 0, -9, -4, 0, -3, -5, -1, 6, -1, -9, -13, -11, 1, -6, 10, -11, -12, -14, -19, -46, -80, -4, -81, -38, -28},
{0, 10, -4, -1, 3, 6, 1, 2, 4, -4, -4, -1, 0, -2, 2, -2, -6, -6, 0, 0, -2, 4, -2, 3, -6, -5, 1, -6, -6, -5, -6, 2, -4, -8, -4, -5, -3, -6, -6, -1, -6, -9, -4, -3, -8, -5, 3, 7, -11, -15, -13, -7, 0, -7, 14, -8, -21, -17, -22, -42, -70, -7, -102, -59},
{-8, 7, -5, 9, 0, 7, 0, 13, 5, 8, 2, 1, 0, 1, 1, 3, 7, -1, 1, -1, -3, -1, -5, 4, 5, 1, -3, 4, 1, -3, -4, 1, 11, 5, 0, 0, -2, 1, -9, -4, 6, 3, -2, 0, -1, -8, -21, 4, 3, 4, -1, -2, -8, -5, -10, 24, -19, -13, -18, -32, -45, -77, -17, -80},
{-13, -5, 2, -3, 7, 1, 8, -23, -2, 0, 2, -4, -4, 4, -2, 1, 2, 4, 0, -2, 2, 2, 5, -7, -3, 4, 3, -1, 4, -1, 4, 3, -6, 3, -2, -1, -2, -1, 8, -3, -3, 1, 1, -2, 4, 4, 5, -18, 6, 1, 4, -1, 3, 4, -1, -14, -1, -7, -5, -4, -23, -51, -56, -75}};

const ap_int<8> blocks_0_token_mixer_linear_b[64] = 
{-13, -9, -6, -6, -6, -6, -8, -13, -9, -4, 0, 1, 1, -1, -4, -9, -6, -2, 2, 3, 3, 2, -2, -6, -5, -1, 3, 4, 4, 2, -1, -5, -4, 1, 4, 5, 4, 4, 1, -3, -2, 3, 6, 6, 6, 6, 3, -3, -3, 4, 7, 7, 7, 6, 4, -3, -3, 3, 6, 6, 7, 6, 2, -3};

const ap_uint<8> blocks_0_token_mixer_linear_s[64] = 
{8, 8, 8, 8, 8, 8, 8, 8, 8, 8, 8, 8, 8, 8, 8, 8, 8, 8, 8, 8, 8, 8, 8, 8, 8, 8, 8, 8, 8, 8, 8, 8, 8, 8, 8, 8, 8, 8, 8, 8, 8, 8, 8, 8, 8, 8, 8, 8, 8, 8, 8, 8, 8, 8, 8, 8, 8, 8, 8, 8, 8, 8, 8, 8};

const ap_int<8> blocks_0_token_mixer_affine_2_w[96] = 
{107, 70, 111, 122, -87, -69, 98, 67, -86, -64, 71, 74, -88, 83, 71, -67, 64, 93, 65, 120, 79, -122, 102, -92, 97, -79, 92, 70, 85, 120, 66, 106, 110, 107, -115, 95, 64, -121, -107, -76, 117, 93, 116, 84, 86, -90, 123, -95, -69, 120, -65, 100, 85, 78, 127, 69, 85, 68, 126, 92, 97, -123, 107, -120, 90, 79, 108, 74, 113, 86, 69, 72, 117, -70, 93, 65, -79, -103, -75, 72, 95, 67, 123, 68, 70, 64, -117, 72, -77, 69, -117, -79, 127, 87, 71, 68};

const ap_int<8> blocks_0_token_mixer_affine_2_b[96] = 
{-2, -2, -2, 0, 1, 0, -4, -6, 0, 3, 1, 0, 1, -2, 0, -2, 0, 0, 2, -1, -2, 1, 3, -2, -1, -1, -4, 0, 5, -5, 0, 0, 5, 0, 3, -1, 0, 0, 2, 0, 7, -4, 1, 1, 0, -1, 1, 0, 5, 2, 0, 4, -1, 5, 1, -2, 1, 3, -2, -3, 4, 0, -3, 0, -4, -2, -1, 0, 3, 2, 0, 3, 2, 2, 0, -1, 1, 0, -2, 1, 0, -2, 2, -3, 1, 1, 1, 0, 0, 0, -4, -1, 1, 0, 5, -1};

const ap_uint<8> blocks_0_token_mixer_affine_2_s[96] = 
{10, 8, 8, 12, 9, 8, 9, 11, 7, 9, 7, 7, 8, 11, 10, 8, 9, 10, 10, 12, 7, 7, 7, 10, 8, 9, 10, 8, 9, 10, 11, 9, 12, 12, 10, 11, 10, 10, 8, 7, 8, 9, 8, 7, 10, 9, 8, 9, 9, 7, 8, 10, 9, 9, 11, 9, 9, 9, 7, 8, 11, 8, 8, 8, 8, 8, 8, 9, 9, 10, 7, 8, 8, 10, 9, 11, 9, 10, 10, 6, 9, 12, 9, 13, 13, 11, 10, 7, 8, 8, 9, 13, 8, 8, 10, 10};

const ap_int<8> blocks_0_token_mixer_res_affine_w[96] = 
{66, 66, 67, 67, 66, 67, 66, 67, 67, 67, 67, 67, 67, 66, 67, 65, 67, 66, 66, 67, 67, 65, 68, 66, 67, 66, 67, 66, 67, 67, 66, 67, 68, 67, 66, 66, 67, 66, 67, 65, 67, 66, 67, 67, 67, 66, 67, 66, 66, 67, 66, 66, 66, 66, 66, 67, 66, 67, 67, 67, 67, 66, 67, 67, 68, 67, 67, 66, 67, 66, 67, 67, 67, 66, 67, 66, 65, 66, 67, 66, 67, 66, 67, 67, 67, 67, 68, 67, 66, 67, 66, 66, 67, 67, 66, 69};

const ap_int<8> blocks_0_token_mixer_res_affine_b[96] = 
{0, 0, 0, 0, 0, 0, 0, 0, 0, 0, 0, 0, 0, 0, 0, 0, 0, 0, 0, 0, 0, -1, 0, 0, 0, 0, 0, 0, 0, 0, 0, 0, 0, 0, 0, 0, 0, 0, 0, 0, 0, 0, 0, 0, 0, 0, 0, 0, 0, 0, 0, 0, 0, 0, 0, 0, 0, 0, 0, 0, 0, 0, 0, 0, 0, 0, 0, 0, 0, 0, 0, 0, 0, 0, 0, 0, 0, 0, 0, 0, 0, 0, 0, 0, 0, 0, 0, 0, 0, 0, 0, 0, 0, 0, 0, 0};

const ap_uint<8> blocks_0_token_mixer_res_affine_s[96] = 
{6, 6, 6, 6, 6, 6, 6, 6, 6, 6, 6, 6, 6, 6, 6, 6, 6, 6, 6, 6, 6, 6, 6, 6, 6, 6, 6, 6, 6, 6, 6, 6, 6, 6, 6, 6, 6, 6, 6, 6, 6, 6, 6, 6, 6, 6, 6, 6, 6, 6, 6, 6, 6, 6, 6, 6, 6, 6, 6, 6, 6, 6, 6, 6, 6, 6, 6, 6, 6, 6, 6, 6, 6, 6, 6, 6, 6, 6, 6, 6, 6, 6, 6, 6, 6, 6, 6, 6, 6, 6, 6, 6, 6, 6, 6, 6};

const ap_int<8> blocks_0_mlp_linear_1_w[96][96] = 
{{19, 5, -2, 3, 77, 50, -54, 28, -59, -21, 10, 21, -3, 50, 10, -25, 67, -28, 3, 8, -23, -17, 5, -55, -27, 40, 35, -9, -26, 51, -9, -25, -15, -77, -27, 7, -14, 36, 7, 18, 5, 23, 51, 30, -62, -61, 102, 27, 1, 52, -13, -27, -9, 3, 31, -17, 66, 15, 51, -6, 2, -1, 7, 4, -56, 10, 68, -60, 59, 7, -8, -9, -11, 6, 9, 9, -2, -16, 0, -24, -7, 7, 19, 3, -22, -34, -17, -20, 13, -3, 89, 12, 14, 1, -4, 27},
{-19, -26, 3, -26, 6, -19, 2, 6, -23, -6, 10, 37, -12, 20, -16, 38, -15, -14, 17, -2, 13, 6, 9, 8, -12, 9, -1, 2, 31, -14, -15, 26, -11, 5, 23, -49, 49, -6, 60, -34, 5, -25, 2, -14, 5, 45, -40, -17, 19, 41, -19, 2, -25, 5, 33, -20, 8, -23, -7, -4, 7, 5, 1, 24, -26, 2, -21, 23, -9, 2, 7, -8, -11, -19, -9, 5, -6, 38, 37, 12, -7, 47, -4, 15, 4, -27, -19, 3, -10, -6, 2, -10, 10, 13, 6, 27},
{-54, 2, 2, -22, -25, 1, 25, -20, -29, 5, -10, 10, 2, -26, -7, -63, -21, -6, 8, -2, -14, -5, 4, -16, 1, -2, -1, 6, -29, -23, -2, 21, 3, 3, 2, -16, 19, -14, 3, 2, 9, 32, 31, 26, -2, -14, 16, -9, -11, 3, 36, 12, -34, -7, 16, -11, -8, 17, -1, 0, -80, -61, 14, 43, 26, 3, -20, 8, -24, 60, -5, 10, 25, 0, 11, -18, -2, -9, -54, 10, 4, 23, 7, 17, 13, 55, -10, 6, -6, 3, 24, -7, 22, -5, -5, 20},
{-4, -14, 40, -78, 33, 18, 9, -37, 50, 57, -15, 0, -67, 80, 25, -5, 66, 27, -58, 31, -17, 67, -107, -42, 34, 109, -5, 49, 90, 76, 32, -110, 28, 61, 87, 15, 30, -88, 4, -1, 15, 1, 77, -51, -67, -10, 52, 91, 55, 60, 25, 52, -62, -28, -40, -71, -21, 7, 2, 12, -21, 26, -14, -76, -8, -28, -57, 26, 73, -10, 24, -82, -76, 15, -75, 31, 52, -21, 14, -79, 84, -20, 36, -37, -17, -31, 86, -31, 125, -30, 13, 59, -27, 6, -42, 3},
{-7, -20, 11, 3, -17, -10, 34, 40, -29, -17, -32, 7, -3, -9, 11, -3, 2, -10, 8, 0, -25, 1, -2, -18, -20, 11, 22, 17, -52, 23, -57, 4, -2, -4, 10, -30, 18, 10, -35, 2, 7, 29, 4, 18, 40, 4, 8, 19, -5, 40, 6, -29, 2, 0, -5, -8, 41, -2, -26, 1, 2, 24, -11, -13, -42, -3, 19, -12, -10, -4, 29, 9, -22, -6, 5, -8, 1, 9, -11, 17, 0, 1, 0, -2, 63, -4, 11, -8, -1, -16, 12, -2, -5, 4, 7, 22},
{2, -7, -2, -8, 52, 24, 31, -48, -28, 16, -12, 12, 0, 14, -13, -40, 29, -5, 4, -4, 1, 8, 5, -2, -5, -14, 13, 16, -9, 19, -20, 1, 11, -12, 14, 17, 4, 4, -11, -1, 2, -15, 0, -21, 7, -7, 15, 0, 4, 0, -17, 15, -12, -1, 3, -4, 0, 5, 71, 1, -2, 8, 5, 15, -2, -3, 22, 7, 38, 3, -24, 1, -15, -12, -3, -4, -8, 2, -2, 4, 1, 20, 1, -2, 19, -11, -7, -10, 26, 2, -7, -2, -4, -2, -2, -5},
{-3, -81, -8, 18, -31, -19, -77, -11, -17, 9, 6, 7, -6, -15, -14, 27, -36, 26, 29, 13, -16, -40, 10, -88, -58, 53, 43, -33, 10, -22, 36, -33, -18, -19, -49, -79, 50, -17, 26, -24, -1, 54, 24, 81, 2, 38, 20, 37, -17, 36, -27, -69, 31, -3, 7, -11, 18, -16, -4, -12, 3, -21, 6, -6, -17, 17, -94, -62, -78, 0, 34, -20, 28, 28, 25, 19, -3, 3, -40, 11, 6, 39, -50, 20, 22, 30, 0, 40, -49, 3, 66, 10, 17, 0, -11, 11},
{-16, -106, -31, 88, -12, 9, 20, 18, -10, -17, -36, -2, -17, 9, -3, 64, -8, 6, 18, 4, -4, 21, 52, -59, -5, -40, -7, 26, 10, 4, -3, 58, 19, 52, 37, -9, 85, 56, 14, -4, -25, -20, -22, 18, 40, -49, 24, 0, 22, 32, 9, 6, -64, -23, 8, -51, -27, 25, -4, 21, 0, 5, 16, 0, -1, -18, 79, -63, 13, 10, 1, 33, -30, 39, -13, -54, 6, -2, 0, 44, -6, -27, -19, 12, 77, 39, -17, 8, -56, 18, 1, -20, -9, 17, 35, -20},
{-3, -2, 1, 0, -8, -5, -1, 21, -2, -6, 1, 10, -1, -1, -1, 11, -11, -1, -1, -2, -6, 0, 1, -1, 0, 11, -3, -7, 1, -5, 0, -1, -2, 8, -1, -4, 0, -8, -1, 5, 0, 4, 0, 9, 4, 5, -5, 1, 0, -1, -6, -2, -1, 0, 0, 0, 0, -7, -27, 0, -2, 10, -6, -16, -2, 0, -8, -4, -6, 2, -2, 0, 2, 1, 0, 1, 2, 9, 3, 0, 0, -11, 0, 1, 2, -2, -1, -2, -4, 0, 3, 0, -2, 1, -2, 2},
{16, 4, -2, 3, -19, 17, 9, 9, 12, 7, -7, -20, 0, -14, 1, 8, -22, 1, 0, 2, -4, -3, 1, 1, -2, -3, 0, 6, -6, 20, -6, -3, 43, 14, -7, 9, 0, 2, -16, -10, 5, 10, -1, -1, 2, -9, 9, 3, 1, -9, 32, -10, 14, -1, -3, 1, -6, 13, 3, 2, -3, -1, -4, 18, -2, 1, 13, 11, 28, 1, -6, 0, 8, 4, 1, -2, 1, -10, -5, 2, 0, -1, -1, -1, 22, 12, 1, -7, 1, -1, -9, -1, 7, 0, 1, -7},
{22, 9, 3, 3, -23, -27, 11, 3, -7, -18, 3, 2, 3, 18, 31, 78, -19, -4, -12, 0, -36, 9, -8, 27, 2, -11, -9, 0, 3, -6, -8, -13, 10, -35, -40, 2, -8, 13, -3, -6, -14, -18, 3, -30, -15, -13, 27, 0, -18, 10, 21, 9, -5, 6, 3, 6, -5, 20, 11, 3, -68, -19, 8, 23, -14, -1, -31, -1, -15, 32, 18, -10, -2, -4, -5, 8, 2, 14, -10, -3, 5, -9, 12, 0, -16, 51, 17, -7, 12, -4, 3, 2, 40, -4, 15, 24},
{25, 1, -2, -3, -3, -6, 6, -4, 3, -13, -2, 1, 1, 8, -28, 31, 9, -1, 6, 2, 18, 3, -4, 5, 3, 4, -3, 1, 11, -10, 2, 4, -1, -27, -16, -2, 6, 4, 8, 2, -3, 1, -3, -9, 1, 4, -15, 0, -4, 8, 14, -2, 5, 0, 5, -6, 12, 5, 8, 1, -7, 1, -1, -6, -2, 0, -11, 1, -16, -13, -1, 1, 7, -1, 0, -2, -1, -9, 15, 1, -1, -3, 1, -1, 4, -5, 4, -6, 0, -4, -1, -1, 21, -3, 1, 10},
{2, 0, -3, 9, 7, 7, -9, -51, -9, 20, 5, -13, 1, 10, -2, -6, -11, -1, 0, 2, 6, -9, 0, 0, 0, -17, 4, 6, 5, -1, 4, 3, 18, -39, 1, -5, 1, 7, 11, -2, -4, -3, 0, -16, 0, -21, 13, -7, 4, 3, -21, 0, 15, 1, 2, -1, 7, -3, 15, 0, 1, 5, -10, 13, 1, 0, -3, 6, -8, 4, 3, -2, 0, -4, 0, 2, 1, -1, -11, -2, -1, 8, -2, 0, -16, 0, 0, -14, -13, 1, -2, -1, 2, 0, 2, -8},
{8, -46, 1, -24, 6, -10, 48, -43, -46, 8, -6, 2, 14, 7, 6, 12, -25, -16, -3, -17, 5, 7, -9, -63, 0, 40, 37, -5, -32, -30, -17, -5, 0, 24, -2, 24, 23, -27, -3, 19, 15, 31, 18, -43, 25, 12, 1, 7, 3, -8, -35, 58, 8, 8, 24, -15, -18, -8, -36, 0, 15, 4, -4, 8, 37, -7, -69, 8, -37, -1, -40, -17, 21, -28, -2, 20, -12, 8, 35, -12, -1, -1, 1, 6, 25, -11, -16, 6, 17, 3, 35, 6, -24, -5, -19, -23},
{41, -94, -5, 14, -4, -11, -26, 35, 13, 3, 13, 3, -4, 21, -23, 22, 19, 8, 16, -11, 45, -11, -7, 4, 40, 35, -41, 0, 22, -8, 24, 8, 12, 11, -4, 43, 90, -28, 41, 12, -26, 75, -24, -1, 4, 53, -28, -11, 2, -25, 44, 0, 17, 3, -24, 0, -26, -17, -9, -3, 16, 34, -21, -30, 15, 0, -31, -1, 10, -16, 15, 0, 15, 0, 17, 15, -12, 4, 9, 32, -7, -2, -2, 13, 42, -47, 40, -25, 33, 18, 20, -3, -44, 7, 26, -45},
{-11, -5, -3, -47, 0, -23, -5, -4, -15, 17, -4, 4, -5, -4, 4, -27, 1, 13, 1, -21, -29, 40, 10, 1, -19, 33, 6, 60, 6, 10, -2, 9, 40, 62, 69, -27, 13, -99, 3, -9, -6, -18, -6, -29, -6, 115, -41, -7, -12, 21, -7, -31, -10, 6, 3, -4, -17, -6, -6, 3, -8, 5, -21, -17, 12, -12, -79, 2, 34, 11, 16, -4, -8, -1, -13, 5, -6, -9, 15, 10, -9, 43, 8, 3, 4, 3, -1, -28, 93, -16, -16, 0, -9, 13, 12, 28},
{10, 4, -19, 78, 38, -52, -30, 43, 29, -20, -14, 23, -41, 19, -4, -25, 10, 38, -7, -40, -39, -49, -13, 29, -43, -22, 33, -28, 31, -25, 30, 0, -20, 11, 3, -40, -12, -9, 33, 4, -3, -15, -61, 56, 9, 33, -41, -9, 19, 49, -36, -6, -32, -16, -11, 60, -60, -9, 4, 8, 4, 0, 3, -2, 72, -17, 6, -45, -39, 1, -24, 36, 79, 55, 53, -12, -52, 9, 2, 21, 39, 22, 14, -36, 8, -3, 18, -4, -28, -75, 7, 6, 45, 17, 21, 13},
{-17, -9, 4, 7, -37, 15, 22, -65, 29, 34, -7, 23, -3, -44, -4, 10, -12, -15, -13, -1, -11, 3, 8, -29, 13, 10, 4, 2, -27, -11, 3, -1, 5, -9, 13, 23, -3, -17, -32, -2, 19, 39, 1, -14, 4, -18, 23, 10, -4, -45, 20, 0, -14, -2, 0, 2, 5, -14, 7, 6, -3, 9, -3, 2, -8, -6, -21, 11, 4, -6, -23, 5, 20, 0, -1, -3, 9, 21, 21, -1, 1, -19, 14, -9, 42, -6, -12, 2, -14, 9, 11, 1, -26, 7, -3, -7},
{23, -35, 9, 37, -10, 71, -9, 92, 38, 31, -10, 1, -7, -28, -15, -26, 34, 47, 19, 26, -11, -12, -11, -16, -28, 30, -59, -27, 37, 73, -51, 26, -2, -16, -41, -61, 56, -31, 3, 1, 20, 2, 28, 44, -21, -9, -8, 2, 2, 73, 55, -96, 27, -1, -3, -36, -67, -2, 3, -2, -11, 40, -10, -6, 41, 8, 15, 46, 34, -4, 120, -31, 10, -14, -5, 23, 25, -2, 10, 33, -7, -23, -19, 57, 38, -24, -22, -23, 24, -38, -40, 2, 64, 8, -11, -7},
{-51, -33, 73, 8, -9, 34, -42, 88, -13, -12, 35, 5, 42, -21, 33, 24, 33, 4, 42, 24, 39, -66, 5, 5, 6, -8, 16, 14, 29, -14, 8, -24, 9, 51, -38, 7, 40, -10, 65, 20, 5, 9, -11, 101, -62, 22, -47, -29, 7, -2, 41, -46, -117, -85, 3, 28, -49, 66, 60, 75, -15, 118, -7, -107, 5, -68, 43, 83, 13, -17, 23, -61, 38, -69, 60, 79, -53, 48, -14, -8, -80, -5, -6, 10, -42, 43, -2, -53, 47, -38, -25, 13, 32, 15, -11, 3},
{-21, 3, 3, 4, -1, -14, -4, -4, 15, 0, 1, 15, -1, 0, -11, -78, 11, 0, 3, -1, -2, 1, -1, 10, 3, -8, -3, 3, 5, -19, 3, 3, -37, -46, 23, 0, 0, 0, -1, 18, 5, -4, -3, -13, 3, 1, 1, -1, -1, -1, -9, -7, -1, 4, -4, -6, -8, -10, 5, -1, 20, -4, 3, -20, -2, 0, -15, 10, -42, 8, -7, 0, -1, 0, 2, 2, -1, -7, -6, 2, 0, 9, 1, -2, 7, -16, 4, 10, -18, 0, -14, -3, 5, 1, -2, 6},
{-2, -1, -1, 0, -5, -3, 1, 0, 1, -1, 0, 5, 0, -1, -1, 5, 9, -1, -1, 1, 0, 1, 0, -1, 0, 1, -1, 0, 0, -6, 0, 0, -10, -11, -1, -1, 1, 1, -1, 1, 0, 1, 0, 1, 0, 0, -1, 0, 0, 0, 0, -1, 0, 0, 0, 0, -1, -1, -3, 0, -2, 1, 0, -6, 1, 0, -3, 1, -6, -1, 1, 0, -1, 0, 0, -1, 0, -3, -6, 0, 0, -2, 0, 0, -1, 0, 0, -2, -6, 0, -1, 0, 0, 0, 0, 0},
{70, 6, 2, -7, -4, -2, -1, -50, -4, 3, -1, -3, -1, -6, 0, 101, 4, 1, 2, -1, 17, 2, -2, 7, 1, 12, -3, 6, -10, -7, -2, 1, -15, -40, -51, 6, -10, -4, 5, 6, 4, 3, 1, 9, -4, -8, -6, -1, -4, -2, 6, 1, 6, 0, 4, 5, 9, 12, 32, -2, -63, 14, -6, 10, 22, 1, -4, 7, -2, -30, 0, -2, -3, -1, 0, 0, -2, -16, 14, 2, 1, -7, 1, 2, -2, 7, -6, -12, -14, -1, 2, -1, -11, -1, -3, -2},
{-9, -37, 9, 47, -18, 9, -66, -29, 60, 9, 17, -11, -11, -17, 17, -11, 12, 4, 15, 8, 11, 2, -5, 18, -3, -34, 33, 10, 79, -29, 85, 10, 23, 14, 23, 60, 32, 52, 79, 6, -5, 47, -19, -12, -25, -31, -1, -7, -4, -53, 71, 11, -3, 0, -9, 5, -25, 3, 37, 0, -6, -2, 2, 23, -3, -3, 72, -16, 58, 1, -47, -5, -15, 35, -5, -4, 13, 15, -4, 32, -4, 4, -7, -6, -1, -1, 10, -1, -45, 11, 17, -6, 2, 10, 10, -15},
{-24, -14, 23, -4, -12, -5, -11, -59, 16, -29, 7, -14, -2, -6, -19, 20, -40, -2, -14, 10, 7, 4, -8, -5, 2, -14, -1, 0, -25, -37, 9, 4, -9, -6, 10, -26, -22, -3, -6, 0, 3, 30, -12, -2, 23, -19, 0, 2, -7, -5, -38, -16, -1, -3, -7, 9, 4, 4, -29, 4, -37, -25, 5, 23, -15, -1, -43, -2, -78, 20, 1, 5, -2, 5, -12, -1, -5, -6, -13, -4, -3, 33, 9, -4, -5, 49, 14, 30, -36, -7, -3, 5, 41, -1, -2, 36},
{2, -19, 0, 49, 4, 33, 53, 22, -33, 20, -10, -28, -2, 12, -5, 0, -18, 7, -3, -7, -4, 4, -4, -19, 8, 8, -5, -2, -13, -9, 11, -10, -5, 17, 0, 18, 2, -13, -5, -3, -2, 2, 9, 7, 27, -43, 4, 2, 1, -18, -20, 45, -5, 1, 2, -7, -40, 9, -42, -1, 0, -18, 7, -7, 11, 1, 11, 14, 8, 2, -28, -14, 18, -20, -15, 6, 19, -18, -4, 0, -1, -50, -13, 8, 25, 17, 5, 20, -34, 18, -2, 0, 0, 0, 0, -26},
{22, -26, -78, -30, 7, -13, 22, 13, -11, -26, -8, -11, -3, 27, -17, -2, -1, -3, 17, -8, -26, -8, 47, -7, -12, 30, 67, 6, 4, 22, -25, 10, -12, -90, 2, -5, 13, -17, -23, -2, -53, 1, -25, -40, -11, 53, -40, 7, 18, 33, 36, 31, -1, 26, -47, -2, 41, 1, -7, -12, -22, -39, 5, 16, -92, 10, -44, -10, 14, 7, -45, 13, -24, 7, -14, -8, -15, -39, 35, -8, -15, 52, -5, -25, -11, -8, 39, 13, 24, -10, 37, 9, 18, 0, 71, 17},
{-5, -7, -2, 14, -14, 15, 30, -11, 29, -28, 3, 15, 1, -41, 4, -18, 16, 2, 8, 3, 11, -1, 0, -23, -9, -10, 22, -11, -12, -8, 6, 3, 1, 31, -12, 9, -7, 17, -37, -7, 10, 48, -3, 8, -8, 2, 2, -5, 8, -30, 10, 3, -8, -2, -13, 5, -24, -3, 18, -3, 3, -11, 13, 6, 34, 1, 10, 26, 6, -3, -12, 4, -13, -9, 1, -3, -9, 6, 6, -8, 2, 16, -6, 7, 20, -18, -1, 4, 5, -7, -22, 1, 12, 3, -10, 17},
{1, -36, 11, -6, 7, -15, -31, 22, -56, -9, 26, 38, -4, 10, 2, 41, -10, -20, -16, -8, 10, 8, -4, -32, 22, 6, 9, 27, -19, -55, 40, 4, 47, 32, 10, 30, 35, 12, 44, -15, -4, 6, -15, 0, -16, -10, 5, -6, 0, -30, -57, 30, 6, 2, 14, 8, -32, -29, -24, 3, -10, 37, -29, -4, 34, -1, 4, -43, -12, -2, -38, -5, 0, -2, 7, 5, 4, 37, 41, -6, 1, -27, 17, -3, -27, -26, 11, -30, -12, 0, 40, 2, -15, 7, -6, -17},
{51, -16, 70, 9, 7, 68, 31, -90, -48, 17, 30, -8, -29, 25, -20, -1, 12, 51, 70, -59, 56, 11, -57, 1, 3, 13, -1, 81, -84, 17, -3, -26, -49, 104, 82, -5, -48, 6, -61, -14, -25, 81, 3, -121, 24, -8, 27, 22, -11, 44, -16, 5, 4, 31, -41, 24, -70, 28, 20, 1, -30, -38, 29, 46, -35, -14, -6, -24, -11, -2, 2, 20, 4, 0, 22, -17, -10, -83, 52, -92, -53, 19, -76, 26, -87, 25, 51, 17, -45, 70, 35, 50, -45, 66, -11, -38},
{-1, 35, 30, -48, -34, 21, 72, 83, 29, -5, 12, 23, -22, 13, -9, 22, 56, 16, 36, 12, 1, -33, -34, 7, -57, 25, 79, -29, -45, 21, -58, 14, -44, -91, -29, -47, -40, -24, -57, 28, -1, -21, 23, 80, 57, 37, -42, 7, 20, 62, -23, -21, 43, 3, -15, -19, 44, -19, -37, -14, -3, 29, -6, -26, -64, 18, -86, 10, -78, -3, -30, 33, 8, 6, 10, -43, 5, 0, -68, -58, -7, 32, -48, 26, -12, -20, 23, -16, 9, 39, -27, 19, -11, 23, -3, 36},
{-2, 18, 2, 12, 26, 15, 7, -6, -12, 0, -15, 7, 0, 20, 0, -5, -1, 15, -4, 10, 2, -3, -1, 14, -11, -5, 23, -7, 7, -16, 19, -13, -2, 35, -15, 14, -20, -6, 8, -6, -9, -39, -1, 18, 11, -7, 4, 10, 2, 8, -16, 45, -4, -1, 1, 4, -37, -2, 12, 0, -1, 3, 3, 3, 30, 3, 24, -15, 15, 2, -22, -5, 2, 2, -2, 8, 8, 1, -4, 4, 1, -9, 5, -5, -7, -4, -6, -6, 5, -15, 2, 4, 16, 4, -1, 1},
{-36, -74, -28, 85, 49, 38, -8, -3, 43, -51, -73, 48, 36, 10, 17, -29, 40, 96, -7, 75, 25, 60, 47, -15, -3, -20, 42, -28, 69, 27, 41, -119, -37, 33, 9, -6, 27, 13, -31, -6, -28, -55, -92, -2, 127, 5, 12, 76, 2, 78, -35, 61, -16, -32, -3, 47, 13, -18, -11, 19, 34, 87, -25, -106, 17, -8, 43, -49, -67, -16, -24, -21, -98, 73, -78, 14, 51, 49, -43, -23, -32, -10, -12, -114, 45, -42, -25, -34, -71, 3, -21, 82, 51, -22, 61, 10},
{-14, 22, 20, -35, -18, -91, -74, 34, 30, -55, 6, 17, -6, 24, 10, -9, -19, -8, 8, -4, 5, -10, -29, 55, -40, 4, 38, -9, 56, -68, 52, 13, -45, -39, -6, 13, 14, 27, 69, -2, -5, -36, 43, 15, 11, 13, -10, -13, -13, -20, -16, -22, -5, -9, 1, -43, -7, -14, -35, 11, -2, 10, 6, -46, -5, -9, -28, 11, -101, -3, -28, -34, -3, 9, 28, 15, -28, -6, -25, 49, 8, 45, 1, 22, -1, 10, 12, 18, -13, 1, -58, -26, -3, 10, -10, 29},
{23, -24, -8, 11, 66, 55, -25, 42, -45, 64, 12, 2, -3, 11, -11, -23, 34, -14, 10, 37, -24, -30, 8, -17, 9, -3, -16, -49, -11, 42, -11, 10, 4, -56, -52, 10, 3, -72, 31, 11, -6, -9, -9, 44, -35, 18, -19, -5, -2, 10, -26, -3, 36, -7, 8, 9, 48, 5, 31, -7, -1, 34, -6, 8, -35, 11, -3, -29, 52, 4, 21, 4, 53, -1, -1, 5, 31, 24, -5, 6, 0, -32, 4, -2, -9, -39, -4, -31, 34, 14, 24, -5, 12, 5, 7, -11},
{-23, 15, 10, -19, 7, -24, -77, -26, -24, -29, 27, 2, 9, -13, -6, 4, 13, 5, 24, 4, 24, 18, -8, -63, -17, 5, 27, 0, -34, -23, 53, -13, 0, 25, 2, -27, -42, 15, 26, 11, -14, 17, 12, -34, -63, 6, 15, 0, 22, -32, 6, -46, -19, -6, -15, 26, -9, 11, 36, 4, -4, -8, 3, -12, 23, -6, 22, -43, 21, -2, 7, 0, -35, 17, -24, 15, 0, -9, 1, -2, 0, 28, -22, 20, -26, -12, 9, -2, 22, 3, 59, 4, 27, -18, 6, 19},
{38, 113, -34, -87, 0, 36, 13, -52, 23, 7, -31, -21, -21, 28, -56, 24, 3, -26, -64, 28, 27, 8, 60, -37, 43, -17, -102, 16, 15, -35, -24, 4, -11, 75, 14, 16, -115, 6, -55, -4, -12, -62, 35, -12, 18, -85, 54, 32, 33, -3, -7, -7, 53, 11, -11, -35, -107, -6, 6, -16, -15, 10, -9, 14, 59, 8, 7, -85, -31, -9, 71, 35, -22, 56, -43, -68, 35, -22, -16, -21, -46, -67, 93, -25, -5, -14, -36, -4, -11, -93, -29, -23, 40, 55, 28, 4},
{9, -25, -3, -46, -10, -28, 84, 55, 15, -3, -10, -4, 2, 0, -1, -12, 19, -8, 13, 18, 34, -25, 10, 15, -2, 11, 51, -35, -7, -18, 10, 8, -23, -13, -49, 67, 43, -37, -19, -2, 3, 8, 0, 34, 36, 84, -27, -14, -2, -43, 24, 68, 23, 2, 0, -8, -25, 13, 13, -12, 5, -4, 3, -28, 9, 8, -40, 50, 1, 3, -69, -9, -29, -23, 8, -4, -11, -6, -47, 8, 3, 42, -19, -7, 21, 1, -5, 2, 42, 39, -32, 0, -31, 1, 12, 5},
{-15, -2, 1, -1, 21, 1, -13, -50, -14, 11, 7, 32, -2, 13, 8, -1, -18, -1, 4, 0, -3, -1, -3, -1, -3, -12, 5, -3, 4, 2, 14, 0, 11, 13, 17, -2, -1, 3, 19, -9, -2, -10, 0, -14, 3, -5, 12, 0, 3, 7, -16, 5, -16, 0, 5, 2, 1, -12, 22, 3, 3, 10, 1, 21, 1, -1, -3, -15, 21, -1, 6, -2, -11, 4, 0, 3, -3, 37, 17, -2, 0, 11, 1, 0, -16, -12, -1, 15, 4, -1, 9, 0, 9, 2, -2, 2},
{-2, 1, -1, 4, -1, 7, -1, -69, -1, 21, 2, 13, -1, -3, -4, -12, 0, 1, -2, 3, 13, -5, 0, -2, 2, -15, 6, 8, -4, -12, 5, -1, -11, -32, 6, 0, -2, -2, 0, -4, -1, 2, 0, -15, -3, -5, 15, 0, 0, -2, -5, 4, -4, 1, 0, 0, 2, -4, 25, 2, 0, -7, 8, 17, 3, 0, -10, -4, -2, -5, -9, 1, -1, 0, 0, 0, -1, 4, -5, 0, 0, 16, 0, 0, -1, 3, 0, 13, 2, 0, -3, 1, -1, 2, 1, -8},
{17, 13, -12, -31, 31, -2, -12, -16, -32, 26, -5, 11, 4, 28, 5, -25, 43, 9, -9, -10, 23, -1, -1, 60, -1, 23, -7, 13, 21, -20, 23, -34, -7, 22, -12, 24, 16, -26, 34, 9, -16, -25, 9, 15, 13, 10, -4, 10, -39, -27, 3, 28, 5, -5, 13, -2, -25, 3, 29, 1, 14, 0, -3, 10, 64, 1, -17, -12, -13, -1, -7, -18, 19, -3, 17, 34, -12, -27, 4, 13, 7, 18, 7, -4, -21, -7, 11, -14, 45, -15, -1, 3, 7, -10, 8, -12},
{0, 7, -2, 32, -5, 1, -24, -18, -11, -4, 6, 12, -3, 16, -2, 28, -5, 5, 1, -1, -18, 2, 7, 4, 7, -16, -23, 4, 3, -8, 4, -13, 15, -44, 4, -30, 6, 17, 15, 11, 2, -9, -1, 14, -6, -38, 9, 0, -3, 24, -39, -20, 14, -2, 8, 6, 21, -32, -34, 1, 9, 27, -31, -42, -27, -2, -12, -1, -70, 0, 33, -10, 7, -4, -2, 11, 8, 2, 6, -3, 3, -45, 1, 0, -16, -20, -8, -33, -35, 4, 5, 3, 7, 1, 0, 1},
{23, -9, 2, 10, -16, -18, 3, -35, -14, 18, -1, -20, 1, 6, 23, 41, -25, -6, -1, -1, -16, -2, -6, 9, -1, -8, 14, 11, -5, -23, -1, 3, 16, -44, -23, -1, 6, -2, 7, 3, 6, -4, 1, -10, 21, 3, 4, -1, -2, 6, -17, 6, 30, 0, 11, -2, 5, -11, -5, -2, -15, 6, -21, -8, -12, 1, -35, -8, -55, -18, 2, 5, -1, 2, 0, 0, 5, -6, -10, 4, -2, -14, 1, 0, 4, 5, -3, -16, -32, -3, 9, -1, -9, -1, -12, -2},
{15, 16, -3, -9, 12, -4, -8, 13, 22, 7, -3, -11, 2, -6, 55, -33, 19, -1, 8, 1, -27, -1, 0, -2, -3, -22, -6, 15, -5, 18, 6, 2, 4, -21, -15, 8, -12, 6, -3, 29, 2, -12, 2, -24, -7, 4, 12, 0, 12, -2, -11, -10, 6, 3, -5, -4, -11, 16, 14, 0, -32, -12, 3, 17, -20, 0, 4, -5, -2, 8, 5, -3, -13, 1, 0, -3, -3, -1, -7, 5, 0, 11, -2, -5, -2, 16, 1, 4, 20, -1, -11, -3, 20, -2, 1, -5},
{38, -14, -11, 16, 17, -11, 17, 17, -30, -49, -19, 17, 1, 50, 15, 88, -41, 10, 4, 16, 21, -34, -8, 15, 32, -35, -18, -37, -4, -22, 29, -26, 47, -5, -60, 46, -5, 59, 22, 8, -29, -50, -8, 82, 19, -16, 26, 10, -8, -14, -35, 61, 52, 15, -3, -9, -38, -20, 25, -25, 5, 39, -1, 44, -5, 29, 28, -18, 28, -3, -38, -19, -44, -2, 0, -1, 2, 45, 4, -8, -13, 7, 6, -24, -13, -52, 10, -30, -15, 22, -7, 9, -31, 8, 21, -19},
{6, 13, 28, -62, -52, -28, -80, -27, 25, 28, 12, -42, -1, 10, 12, 22, -60, -31, -9, 22, -33, -3, -31, 13, 8, 12, 15, -10, 19, 24, 22, 1, 31, -19, -13, 16, -27, -61, 11, 2, -18, 28, 6, 19, -50, 48, -10, 13, -16, -40, 22, -11, 12, -9, -24, -6, 85, 16, 11, 2, 14, -12, 20, 35, -86, 0, -52, -48, 43, 1, -41, 3, -8, 27, -11, -6, 14, -9, -5, 0, -1, 10, 14, -37, -20, 35, 25, 33, 71, 26, 30, -3, -40, 5, -1, 1},
{-19, 2, 1, -1, -7, -8, -1, 1, -5, 3, 2, 19, 3, 20, 10, -12, 5, 1, 8, -1, -14, 1, 0, 15, -2, -11, -5, -13, 12, 3, -2, 4, 1, -13, 19, 1, -3, 3, 8, -24, -10, -19, -2, -3, -14, -1, -4, 0, 2, 6, 15, 9, -5, 0, 4, -5, 2, -12, 5, 0, 62, 10, -2, 17, 1, 0, 6, -5, 7, -2, 5, 0, 0, -1, 0, 4, -1, 10, 9, -2, -2, 12, -1, -2, -9, -23, 4, 5, -6, 0, -4, -1, 6, -2, 5, -6},
{-8, 19, -3, -9, -7, -36, -17, 61, -5, -64, 17, 8, -6, -19, 7, -8, 3, -11, -3, 22, 5, 4, -4, 26, -3, -23, 31, 3, -9, -13, -6, 8, 17, 3, -3, 7, -21, 74, 6, 10, 2, -2, -13, 22, -20, -19, -13, -23, 6, -15, -8, -8, 10, -6, 3, 16, 23, -13, -3, 1, -5, 35, -18, -33, -22, 2, 57, 24, 3, 4, -10, 14, -63, -9, -12, 9, -12, 22, -5, -7, 2, 17, 11, -19, -38, -14, -6, -20, -24, -15, -13, -4, -22, 5, -3, 34},
{1, 20, 6, 41, 41, 39, -13, 13, -17, 44, 16, -8, -5, 17, 0, -12, 0, -7, 1, 9, -36, -12, 0, 12, -9, -3, 34, -23, -17, -51, 21, 10, 1, 6, -7, 7, -21, -61, 7, -12, 1, -6, -5, 10, -8, -40, 6, -1, -3, -9, -39, 13, 1, -12, 18, 5, -33, 0, -14, 9, 2, 8, -4, -16, -6, -4, -2, -41, 5, -8, -51, 25, 63, 17, 0, -17, 17, -3, -10, -10, 3, -50, 13, -6, -36, 14, -1, 10, -15, -9, -6, 2, 34, -2, -3, -8},
{11, 4, 0, 0, 1, -3, 1, -16, 0, 2, -1, 2, -1, -2, 17, 65, -9, 2, -1, 2, -11, 0, -5, 6, -3, -4, 3, 2, -1, 0, -5, 0, 15, 19, -17, -1, 3, -2, -1, -27, -1, 1, -1, 3, -2, 4, 4, 0, -3, -5, 2, -1, 3, 1, -2, 1, 0, -1, 0, 0, -6, -5, 1, 20, 3, 2, -11, 0, 10, -5, 0, 1, 0, 0, -1, -1, 0, 8, 0, 1, -2, 1, 2, 0, 1, 4, 2, 2, 0, 0, -1, 0, -4, 1, -2, -7},
{4, 0, 0, 1, -3, -7, -1, -19, -5, 1, 0, -14, 0, 2, -3, -3, 7, 0, -2, 1, 0, 0, 0, 1, 1, 0, -4, 5, -1, -9, 0, 0, -5, -23, 1, -5, -1, -1, 2, 3, -1, 0, 1, 0, 3, -1, 2, 0, -1, 1, -7, 0, 8, 0, 0, 0, 0, 3, -7, 0, -1, 0, -2, -14, -1, 0, -10, -3, -19, 0, 2, -1, -4, 1, 0, 0, 0, -17, -18, 0, 0, 0, 0, 1, -2, 9, -1, -4, -12, 1, 1, 0, 2, 0, 0, 1},
{5, 12, 11, -2, -42, 23, 7, -43, 36, 7, 4, 29, 2, -32, 3, -3, -3, 6, 3, 11, 0, -14, -1, 10, 2, -16, -14, -6, 10, 24, -17, -4, 24, -40, -5, 5, -9, -1, -27, -5, 10, 21, 0, 6, -14, -4, 8, -2, -4, -12, 40, -28, 12, -4, -10, 0, -6, -18, 39, 2, -5, 35, -16, 5, -2, 1, -3, 39, 9, -3, 18, -4, -8, 1, -8, 3, 0, 37, 3, -1, -1, 15, -2, 2, 10, -37, -3, -46, 13, -4, -25, -1, 19, -3, -5, 1},
{-27, 88, 12, -93, -23, -35, 44, 29, 22, 40, -55, -32, 21, 66, 3, 50, -33, 22, 21, 11, 40, 8, -12, -15, -19, 78, -24, 28, 21, -9, -3, -22, 69, -17, -33, -21, -88, -53, -43, -3, -41, -19, 55, 28, 94, 57, -30, 36, -3, 25, -36, 46, 12, -17, -30, -16, 10, -32, -36, 20, -13, 51, -68, -49, -3, -12, -91, -23, -61, -10, 10, -5, 0, 21, 4, -22, -6, 24, 22, 15, -19, 14, -41, -2, 49, -13, 23, -52, 31, 31, -6, -8, -20, -4, 20, -25},
{24, 35, -12, -55, -32, 3, -31, 49, -5, 7, 26, 23, 2, -61, -2, 41, -6, -9, -8, -2, 0, -23, 13, -28, 9, 37, 6, -12, -58, -31, 45, -12, 27, -18, -26, 16, -55, -37, -27, -9, 25, 43, 1, 61, -30, -3, 12, 8, 0, -53, 18, -23, 19, 0, 0, 21, -31, -16, -8, 0, -2, 34, -18, -20, 22, 5, -14, -45, -18, 4, -10, 22, 24, 14, 24, 5, -9, 33, 6, -18, 6, -8, 1, 11, -13, -28, -8, -38, 27, -13, 50, 0, -2, 7, -8, -6},
{-22, 10, -17, 38, 23, 58, -42, -49, 2, 58, 15, -35, 15, 15, -21, 7, -96, 20, 16, -4, -31, 6, 1, -2, -49, 2, 41, -23, 42, 10, 8, -4, -19, 96, -11, -57, 18, -41, 23, -15, -40, 14, 14, -65, 0, -25, 6, 2, 22, 49, -20, -47, 18, 18, -32, 10, -40, 28, -31, -12, -2, -56, 47, 38, 40, 8, -63, 2, -4, 4, 19, -14, 26, -2, -27, 13, 15, -22, 11, 4, -14, -37, -32, 26, -11, 56, 21, 70, -47, -24, 5, 4, 35, -10, 38, -8},
{23, -27, 36, 82, -4, 8, -88, -32, 43, -12, 12, 31, -11, -5, -3, 2, 58, -6, 24, 1, -11, 7, -31, 51, -13, -56, 2, -3, 29, -33, 39, -1, -6, -32, -13, 33, 21, 26, 70, 7, 12, -9, -33, 24, -38, -13, -6, -34, -22, -34, 22, -21, 17, 20, 8, 9, -26, -16, 19, -17, -3, -12, -14, 33, -35, 17, 57, 5, 26, 6, -25, -13, -38, -5, -16, 7, 8, -30, 5, 39, -5, 0, -25, -12, -11, -33, 2, -19, -39, 10, -18, -15, -8, 18, -45, -40},
{-10, 24, -4, -34, 15, -15, -21, 43, 0, 19, 1, 9, 11, 3, 4, 4, -13, 1, -2, -11, 18, 1, 17, 27, 2, 35, 8, -14, 11, -34, 47, -16, -28, 36, -6, 29, -21, -42, 29, -12, 1, -45, 12, -11, 3, 36, -32, 2, -3, -45, -35, 28, -17, 6, 12, -5, -18, 19, -22, -1, 1, -41, 35, 23, 15, 4, -47, -1, -9, 0, -45, -12, 18, 8, 6, 3, 2, 1, 7, 9, -13, -4, 2, -9, -15, 29, -19, 47, 25, 10, -20, -3, -35, 0, 3, -28},
{-5, 29, 7, -11, -24, -6, -7, 62, 48, -15, 0, 9, -3, -44, -5, 4, 7, -5, -13, -8, -5, 7, -5, 23, -2, 14, 22, 11, -19, -11, -1, 1, -9, 13, 1, 20, -20, 16, -39, 0, 21, 36, 9, 5, -4, 5, -7, -7, -11, -40, 34, -21, -12, 2, -23, 6, -6, 1, -23, -2, -2, 7, -5, -22, -6, -1, 4, 26, -15, -1, -40, 4, -5, 2, -5, -4, 3, -8, 15, -5, -2, -4, 18, -10, 8, -6, -1, -6, 3, 1, -30, -2, -10, 2, -3, 23},
{-38, 5, 0, 3, -4, 27, 9, -65, -1, -10, 0, -7, 0, -4, -49, -105, -15, 0, 2, 2, 31, 6, -5, 12, -1, 18, 3, -4, 3, 5, 3, 2, 14, -30, 34, 6, 7, -2, 0, 44, 0, 3, -2, 8, -8, 2, -7, -2, -7, -1, 9, 0, 3, -1, 2, 3, 3, 3, 47, -1, 34, -11, 1, -19, 2, -1, 4, 0, -30, 13, -7, 2, 3, 0, -3, -3, 2, -22, 40, 2, 2, -7, 2, 1, -1, -12, 3, -11, 20, 1, -1, 0, 2, 1, -2, 24},
{-44, -16, -24, 30, -12, -25, 11, 32, -10, 30, 23, -9, -4, 39, 14, -58, -29, 3, 3, 6, 2, -7, 4, -1, 8, -22, 0, -7, 23, -13, -1, 4, 12, -4, -17, 29, 15, 22, 15, 14, -11, -41, -29, 31, -6, 24, -17, -5, 38, -3, -8, 34, -32, -4, -1, -2, 5, 24, 19, -3, -62, -54, 24, 29, 3, 3, 3, -5, -68, 49, -5, 0, -4, -6, 0, 3, 7, -25, -43, -30, 8, -16, -12, -5, -20, 65, -17, 7, -21, 13, -10, 6, -53, -4, 11, -21},
{56, 2, -127, 8, -47, -10, -10, -61, 6, 3, -21, -10, -51, -10, 12, 58, -15, 37, 34, -2, 32, 5, 107, 34, -15, 8, -26, 25, -8, 2, -5, -37, 24, 5, -19, -82, -9, -8, -21, 0, 42, -14, -1, -4, 30, 35, -32, 7, -47, 13, -18, -17, 45, -5, 58, 32, -36, -9, -24, 9, -35, 29, -25, -38, -21, -6, -65, 56, -59, -31, -7, -27, -14, -40, -8, 27, -5, -24, -7, -11, 41, 39, -50, 8, -6, 4, -62, 5, -31, 23, -11, 16, -2, 12, 61, -9},
{4, -1, 1, -3, -4, 2, 2, -32, 3, 10, -3, -13, 0, 0, 1, -14, 8, -3, 0, 3, 5, -5, 1, -1, -1, -10, 2, 10, 1, -4, -1, 2, 4, -24, 4, -2, 1, -2, 0, 0, 1, 1, 0, -6, 1, 1, 8, 1, 2, -1, 1, 0, 12, 2, 0, -2, 0, 3, 16, -1, -1, 0, -6, 0, 1, 1, -3, -2, -12, 1, -1, -1, -3, 1, 0, 0, -3, -11, -11, 1, -1, 11, 1, -1, 4, 2, -1, -12, -2, -2, 2, 0, 5, 0, -1, -3},
{18, -8, -1, -2, -18, 8, 17, -44, -11, 12, -8, -13, 1, -7, 14, -6, 27, -3, 3, 1, -5, -1, -1, 8, 0, 2, 11, 14, -9, -15, -4, 2, -12, -28, -1, 9, -7, -4, -5, 24, -8, 9, -7, -9, -2, 12, 5, 4, -7, 0, -4, 9, 13, 2, 0, 8, 0, 6, 23, 0, -32, -6, -7, 2, -2, 0, 0, 0, -21, -9, -14, 2, 12, -4, 4, -6, -3, -21, -6, 3, -3, 31, -3, -4, 12, 1, 4, -3, -1, 2, 8, 0, 6, 2, 8, 9},
{0, -1, -2, -6, -29, -9, -10, -49, 9, -4, 5, 1, -1, -11, 0, -9, 13, -1, 0, 2, 5, 2, 3, 0, 2, -9, -8, 8, 1, -4, -1, 1, -14, -25, 6, -4, 5, 12, -2, 0, 1, 9, -3, -10, -3, -2, 9, 0, 0, -4, 20, -12, 3, 0, -4, 1, 10, -4, 18, 0, 1, 2, -4, -1, -4, 0, -6, -6, -19, 1, 10, -1, -20, 4, -4, 0, -3, -11, -22, 0, 0, 20, 0, -1, 1, 3, 0, -3, -8, 2, 3, 0, -6, -1, 1, -1},
{-5, -6, 8, -7, -11, 8, -5, 1, 1, 5, -6, -6, 3, -2, 3, 14, -9, 2, 4, 3, 12, 2, -1, -6, 1, 2, -5, -15, 5, -3, -3, -3, -10, 14, -17, 10, 13, 4, 2, 1, -3, 0, 1, -16, 3, 2, -13, 0, 8, -7, 12, 5, 11, 1, -2, -3, 2, 21, 21, 1, -8, -16, 9, 11, 11, -4, 11, 6, -4, 13, 4, 2, 7, 0, -6, -2, 0, -6, -9, 7, -2, 4, -3, 1, 5, 2, 3, 3, 4, 1, 6, -2, -23, -3, -4, 4},
{9, -3, 1, 4, 2, -13, -10, -67, 33, 10, 9, -19, -5, -34, 10, -11, -13, -6, -13, 6, -14, 3, 12, 2, 8, -15, 9, 18, 6, -45, 9, 1, 9, -74, -22, 1, 4, 7, -15, 5, 6, 21, -9, -4, 13, 6, 4, -5, 3, -30, -14, -20, 17, -4, -26, 2, -2, -4, 11, 5, -21, 41, -32, -28, -11, -5, -12, 27, -84, -8, -9, 0, -3, 0, 0, 0, -1, -20, -18, -3, -3, -12, 10, -7, 7, -2, 11, -21, -15, -1, -22, -1, -21, 6, 7, 8},
{-46, 14, 7, -14, 20, -22, 1, 38, 6, 14, -4, 19, 0, -3, -21, -21, -14, -2, -2, -1, -22, 0, 0, 27, 5, -4, -7, 2, -12, 12, 6, -9, 12, -4, 33, 15, -18, 8, -4, -13, 3, 17, 4, 12, -11, -10, 9, 6, -21, 9, -1, -14, -15, 1, 3, 8, 3, -12, 3, 2, 59, 1, 5, -10, -5, 5, 18, 3, -19, 7, 3, -7, -6, -1, 4, 7, -2, -8, 1, 2, 2, -9, 2, -3, 1, -17, 5, 1, -6, -5, 4, 5, -35, -3, -1, 0},
{6, 8, -4, -28, -12, -16, -13, 27, 16, -4, -6, -16, -1, -20, 2, 46, -16, 9, 24, -8, -6, 11, 17, -39, -16, 41, -1, 0, 17, 83, -8, -3, 36, 25, -19, -40, -18, -22, -36, -3, 25, -1, -8, 8, -11, 76, -38, 5, 48, 32, 21, -32, -20, -10, 6, 8, 46, -7, -27, 8, -5, 37, -15, 22, -22, -10, 1, -35, 75, 6, 33, 21, 6, 19, 25, -24, -16, -1, 20, -8, 6, 48, -21, 2, 1, -3, -30, -35, 39, 13, 1, 8, -23, -10, -20, 20},
{-24, 6, -9, 3, -9, 35, -24, 87, 29, 34, -21, 69, 1, -9, -1, -42, 53, -4, 6, -1, -15, -7, 8, 8, 13, 10, -17, -22, -2, 25, 7, -5, -41, -21, 11, 16, 6, -27, -2, 13, -17, 30, 7, 16, -13, -16, -2, 10, -15, -20, 62, -22, -55, -7, -15, -14, 31, 2, 21, 2, 13, -5, 24, -2, -42, 0, 18, -11, 37, 2, 1, -6, 36, 23, 11, -10, 6, 37, 46, 15, -2, -43, 3, -13, 26, -30, 16, 0, 41, 20, -18, -3, -25, 0, 24, -15},
{-1, -39, 50, -13, -13, 10, 16, -40, 47, 28, 21, -15, 30, -24, -2, -14, 16, 32, -5, 12, 33, 20, 46, 50, 15, 19, 33, -25, 51, 13, 5, -10, 14, 17, -23, 1, 51, -53, -33, 3, 99, 4, -25, -18, 21, 63, -44, 21, 7, 15, 38, 29, 22, 27, 95, -22, -47, -8, -1, -19, 22, -19, -10, 28, 54, 28, -71, -7, -28, 5, -21, -4, -45, 25, -45, -15, 6, -8, 33, -43, -26, 47, 7, -19, -31, -34, -92, -15, 35, -25, -54, 27, 13, 1, -81, -31},
{-5, -10, -5, 7, 1, 0, 2, -9, 2, -11, 4, -4, -1, 9, 29, 28, -6, -3, -7, 3, -33, -2, 5, -6, 3, -26, -11, -4, 13, -20, 11, -2, -6, -36, 14, -9, -6, -5, 13, -27, 6, -13, -10, -17, -6, -5, 8, -5, 7, 4, 5, -1, -1, -2, 1, 5, -2, -10, -8, 2, 51, 9, -4, 3, -14, -3, -18, 5, -6, -11, -5, 1, 13, -2, -4, -3, -1, 16, 8, -5, 3, 30, 1, -6, -7, -18, -9, 9, -10, 1, 1, 1, 45, 1, -6, 17},
{-19, -30, 38, 15, 74, -20, -15, 40, -50, 48, -20, 15, -7, -6, -6, 19, 50, -46, 0, 3, -62, 34, -25, -34, 10, -9, -7, 20, -23, -16, -29, 40, -44, -42, 15, 93, -6, -71, 49, 4, 24, -54, -59, -78, -34, 81, -75, -49, 40, -14, -11, 9, -43, 2, 9, 48, 75, 30, -4, 4, -12, -18, 23, -21, -105, -9, -54, -7, -24, -14, -27, 30, 22, -20, -59, 3, 54, -43, 57, 72, -10, -33, 16, -33, 53, -15, -30, -25, 78, -13, 34, -41, -71, 17, -45, -1},
{9, 6, 0, 2, 7, 11, -11, -25, 24, 8, 2, -7, 0, -3, 20, 55, -13, 3, 7, 2, -3, 1, -7, 23, -3, -7, 0, 1, 7, 3, -1, 2, 14, 17, -20, -7, 8, -3, -3, -25, 2, -1, -4, 2, 4, 6, -7, -2, -7, -4, -20, -3, -1, 0, -4, -9, 0, 6, 5, 1, -27, -5, 5, 23, -2, 2, 2, 0, 8, 5, -3, 5, 0, 3, 0, 1, 0, 6, -3, 2, 2, 16, -4, -1, 5, 18, 5, 1, -8, 2, -21, -2, -1, 1, -1, -10},
{29, 41, -17, 64, -57, 39, 2, -30, 56, 49, 26, 20, -3, -41, 8, 53, 2, 3, 12, -38, -32, -5, 20, 32, -26, -34, 56, 26, 51, -1, 36, -2, 41, -2, 27, 4, -5, -21, 1, 15, 0, -11, 4, -37, -24, -61, -8, -36, 22, -36, 81, -30, 5, 16, -22, 5, 21, -7, -22, -4, -8, -1, -17, 28, -12, 5, 13, 104, 36, 7, -44, -31, 85, -31, 31, 28, 4, 16, 59, -10, -5, -65, -11, -10, -65, -34, -9, -27, -45, 6, -77, 7, 10, 1, 22, -30},
{32, 1, 1, 3, 28, 3, -7, 40, -7, -4, 0, -29, 0, 13, 1, 24, 1, 3, 2, -3, -1, 5, -2, 8, 2, 7, -5, 17, -4, 7, 9, -1, 25, 15, -10, 4, 1, -2, 17, 4, -3, -8, 1, 1, -9, 1, -4, 0, -2, 10, -7, 7, 29, 1, 6, 0, -2, 14, -10, 2, -20, 6, -12, -7, 4, -1, 8, -10, 6, -4, 9, 2, 0, 3, -2, 0, 0, -24, 4, 2, 0, -7, 2, 2, -8, 7, -1, -34, 16, 2, 4, -1, -5, -1, -1, -11},
{1, -16, 1, 38, -52, -25, -19, 21, 34, -29, 8, -81, -3, -18, -12, 37, -54, -17, -38, 23, -31, -18, 30, -9, 29, -23, -7, -20, 47, -15, 0, -29, -31, -27, -25, 3, 29, 46, 1, -14, 33, 11, 13, 60, 0, -96, 47, 13, 21, -14, -25, 2, 26, -13, 20, -26, 67, 24, -41, -1, -22, -77, 42, 8, -57, 0, 16, 42, -70, 4, -5, -40, -8, -10, -10, 31, 15, -54, -73, -12, -3, -60, 31, -41, -3, 90, -31, 98, -87, 17, -3, 13, -10, 8, -10, 5},
{14, -25, -10, -33, 15, -41, -64, -69, 34, 56, 1, 18, 4, 17, -16, 4, -21, 11, -3, -10, -16, -8, 3, 26, 15, 11, -35, -6, 46, -29, 20, -7, 10, -51, 3, -29, 39, -67, 57, 4, -1, -41, -4, -17, 21, 55, -35, -5, 4, 13, -62, 9, 23, 8, 10, -10, 35, -17, -4, -6, -3, 19, -12, -3, -48, 4, -77, 4, -33, -1, 11, -25, 34, 18, 6, -1, 7, 12, 2, 16, -1, 11, -3, -18, -30, -4, -12, -3, 34, 21, -31, 1, -20, 0, 0, -40},
{16, -7, 10, 34, -23, 35, -41, 31, 36, -28, 0, 23, 27, 6, 2, -28, 47, -11, 6, -22, -8, 9, -8, -23, -37, 9, 83, 4, 40, -24, 44, 13, 37, -41, -21, 28, 16, 59, 41, 9, -23, 19, 37, -34, -30, -62, 43, 33, 16, -27, 1, 8, 28, 24, -13, -34, -8, -28, -16, -13, 2, 41, -41, -12, 46, 12, 64, -41, 39, -1, -80, -9, -8, 33, -7, -15, -13, 10, 39, 9, -11, -1, 15, -4, 14, -62, 12, -78, -28, -28, 26, 2, 15, -16, 3, 24},
{6, -64, 54, 38, -70, 46, 87, -48, -17, 30, 10, -5, -1, 49, -8, 15, -9, -18, -25, 73, -16, 53, -67, 83, -10, 5, 38, -9, -40, -2, -107, 51, 21, 26, -35, -69, 85, -59, -31, -25, -46, 51, -30, 70, 16, 71, -52, -29, -42, 80, -5, 13, 23, -11, -46, 14, 7, -22, -45, -9, -1, -3, 0, -22, 83, 25, -32, 97, -73, 7, -10, 14, -73, -51, -83, -7, 71, 11, -21, -34, 16, 13, 47, -6, -49, 11, 69, 27, 5, -68, -20, 10, 40, 0, -14, 94},
{-40, 3, 2, -3, 9, -6, -8, -36, -4, 0, 0, -6, -2, -5, 21, 115, -5, -3, -4, -1, -6, -1, -1, -3, 1, 9, 1, -4, -10, -22, -8, 6, 17, 35, -1, 9, 1, 3, 0, -104, 1, 6, 0, -1, 5, 3, -1, -2, 1, -5, 2, 3, 4, -2, 0, 1, 12, -4, -1, 0, 56, -1, -2, 19, 12, -2, -28, -2, -9, 13, 1, 1, -13, 1, 1, -3, 0, 14, -10, 1, 1, -9, 3, 0, -1, -15, 2, 11, -17, -4, -4, -1, -40, 1, 1, -11},
{35, -21, -3, 20, 17, -1, 10, 9, 7, -31, -3, -14, 4, -27, -18, -4, 11, 7, 14, -9, 11, 3, -1, -30, 4, -18, -5, 13, -1, 15, 21, -4, -4, -36, -1, -10, 32, 8, -12, 12, 4, 16, -5, -1, -13, 11, 4, -3, 15, 4, -10, -22, 13, 7, -11, -5, 10, 10, 17, -4, -10, -11, 6, 4, -4, 8, 17, 24, 14, -1, 21, -7, -4, -5, -6, 8, -4, -20, 1, -2, 0, 23, -10, -1, 18, 3, -3, -13, 14, 10, -13, 0, 70, -6, -8, -8},
{-26, -17, -42, -85, -71, -13, -62, 41, -4, 9, 48, 7, 0, -50, -22, -26, 32, -21, -70, -11, 28, -6, 12, -95, 68, 37, -86, -10, -16, -20, 28, -24, -52, -7, -27, 19, 2, -44, 12, -13, -46, 104, -8, 42, -63, 44, -7, -23, 59, -70, 45, -84, -12, 12, -52, 12, -13, 2, 23, -11, -6, -34, 15, 22, 46, 15, -42, 75, -50, 7, 64, -33, -23, -27, 23, 49, -16, -24, -34, -23, -1, 35, 54, -6, -13, 1, 29, 20, 29, -44, 44, -1, 0, -14, 70, -5},
{23, 37, -4, -10, -17, -33, 12, -46, 16, -33, 1, 10, 9, -1, -27, 46, -18, -2, 8, -9, 39, 1, -4, -27, -9, -2, -14, -13, 33, -42, 3, 14, 4, -59, -15, -12, -43, 5, -14, -13, -16, -45, 14, 28, -6, -10, -10, -8, 42, -7, -15, 6, 24, -3, -22, -13, 13, -24, -9, 0, 42, 15, -19, -5, 13, -2, -39, -6, -65, -36, -10, -1, 25, -6, 7, -4, -6, 5, 20, 1, 2, 6, -2, 2, -6, -40, -7, -18, -33, 10, -38, -3, -2, -13, 5, -10},
{-4, 87, -71, -31, 25, 22, -39, -28, -72, -13, 26, -26, -8, -21, 7, 25, 24, -20, 65, 81, 35, 77, 74, 8, -52, 9, 20, -17, -71, -71, 42, -19, 16, 124, 61, 32, -45, -7, 17, 1, -28, 25, 54, -21, -19, -1, -8, -41, -32, -61, 24, -46, -7, -6, -11, 35, -18, 0, -53, -3, 25, 30, 5, 3, 1, 0, 15, 52, 25, 1, -35, -25, -126, -55, -121, 76, 91, 37, -24, 48, -20, 5, -39, 64, 16, -10, -6, -10, 55, 21, 29, -20, -17, 21, 74, 5},
{4, -2, 14, 14, -27, 13, -76, -12, 63, 48, 46, -34, 10, -48, 3, -6, -7, 36, 83, 60, 23, 26, -6, 13, -6, 1, -51, -3, 9, -54, 55, 73, 6, 13, -41, -26, -79, -40, 49, 20, 3, 15, -13, 11, -62, 40, -54, -43, 9, -51, -2, -55, -3, -15, 5, 6, -46, 9, -41, -6, 8, 8, -2, -47, 57, 3, -50, -66, -25, 4, 51, 72, -49, 56, -80, -79, 65, -2, -36, -14, 23, -22, -66, 64, -60, -1, 3, 15, 14, 49, -18, -22, -3, -30, -3, -19},
{18, -45, -15, -15, -37, -12, -47, -15, 8, 15, 11, -47, 3, -37, -7, 9, 0, -28, -17, 0, -32, 7, 14, -33, -37, 12, 90, 41, 29, -40, 14, 5, -9, -24, 3, -2, 35, -43, 41, 4, -4, 33, -6, -6, -9, 34, -3, 10, 2, -21, -10, -25, 33, 0, 10, -6, 37, 10, -10, 1, -7, 8, -12, -9, -5, -1, -38, -17, -30, -2, -70, -11, -2, 14, -4, 13, -2, -26, -19, 16, -6, 33, 28, -21, 19, 21, -10, -7, 20, -36, 23, 3, 18, -1, 4, 52},
{-11, -2, -3, 4, -1, -7, -25, -16, -3, 9, 9, 0, 0, 12, -6, -22, 59, 5, -6, -12, 10, 8, 2, -3, 11, 4, -22, 21, 9, -29, 25, 0, -34, -55, 23, -12, -1, -7, 22, 13, -7, 1, 2, -9, 1, -14, 2, 0, -3, -2, -16, 5, 8, 1, 6, -6, -13, 1, -24, 3, -4, 2, -15, -41, 6, -4, -29, -18, -43, 2, 16, -3, 21, 6, 1, 3, 1, -31, -33, 3, 0, -9, -2, 3, -15, -1, 2, -18, -28, 4, 5, -2, -6, -2, 1, -14},
{-12, 0, 1, 1, -4, -4, 0, -15, 0, -2, -1, 8, 0, 1, -4, -13, 5, 0, -1, 0, 1, 1, 0, 0, 0, -1, -1, -3, 0, -15, 0, 0, -14, -21, 5, -3, 0, 2, 1, 2, 0, 0, 1, 0, 3, 0, 1, 0, 1, 1, -5, -2, -4, 0, 1, 0, 1, -7, -5, 0, 2, 6, -1, -12, -1, 0, -12, -1, -28, 0, 2, 0, 0, -1, 0, 0, 0, 6, -4, 0, -1, 1, 1, 0, 0, -4, 0, 2, -8, 0, 3, 0, 0, 0, -1, 3},
{0, 10, 0, -28, -10, -7, 30, -2, 17, 28, 3, -4, 0, -5, -1, -16, -3, 8, -5, 14, 16, -21, 8, -15, 2, 23, 18, -32, -7, -36, 49, 2, -29, -10, -22, 47, -18, -41, -19, -4, 8, 8, 3, 17, 1, 41, -14, 1, 1, -25, 25, 23, -5, -5, 3, -6, -76, 6, 29, -2, 10, 0, 20, -8, 44, 4, -52, -8, -5, 3, -37, 3, 19, 3, 6, -3, -1, 2, -24, -9, -2, -4, -3, 7, -8, 9, -7, 15, 57, -7, 0, 5, 34, 2, 2, 2},
{-23, 12, -50, 3, 10, 76, 33, -29, -22, 46, 56, 28, -8, 25, 5, 7, 23, -27, -5, 18, -28, 27, 26, 14, -9, -13, 69, 30, 23, -23, -24, 52, -2, -11, 29, 57, 25, -31, 2, -4, -12, -1, 33, 35, -54, -20, 17, -26, 29, 6, -1, 39, -43, -29, 8, -49, 19, -13, 35, 24, 15, 77, -35, -45, -22, -16, 3, 37, 13, -7, -68, -9, 5, -24, -17, -18, 17, 35, 0, -50, 3, -5, -8, 13, -91, -32, -15, -73, 38, 34, -13, 4, -32, 2, 28, 35},
{0, 3, -4, -28, 53, -31, -26, 70, -25, -36, 18, -12, -1, 21, 17, 1, -7, 6, 0, 9, 14, -4, -1, 26, -7, 3, -4, -6, 14, 16, -7, 12, -6, 54, -24, -14, 9, 28, 38, 6, -5, -21, -4, 25, -21, 32, -17, -12, 1, 31, -44, -9, -1, -4, 6, -2, -5, 16, 6, -2, 8, -15, 13, -6, 1, 0, 25, -2, 32, -8, 21, -4, -39, 3, 4, -4, -16, -6, -3, -7, 1, 20, -2, 7, -45, -1, -3, 11, 25, -7, -22, 1, -8, 0, -1, 23},
{-9, -33, 4, -5, -6, -42, 28, 1, 7, -31, 8, -13, -4, 11, 1, 20, -22, -6, 7, 24, 68, 11, -5, -39, 20, -2, 0, 22, 1, -53, 66, 10, 6, 65, 0, 38, 31, 41, 14, -17, -4, 18, 5, 20, 19, 16, 5, 8, 13, -64, 8, 47, 7, -12, -8, -11, -75, 3, -7, 9, -13, 24, -16, -14, 43, -5, 31, -17, -28, 0, -60, -1, -47, 11, -9, -4, -6, -1, -18, 21, 4, 23, -3, 11, 16, 13, 3, -22, -23, 9, 36, -11, -6, 7, 1, 1},
{69, -14, 1, 2, -7, -21, 8, 19, -14, 10, 7, 12, -1, -16, 84, -6, 10, -2, -4, 2, -39, -3, -1, -19, 2, -23, 2, 30, -30, 12, -3, 5, -6, -47, -22, 12, 25, 3, -4, 48, -4, 23, 4, 4, 16, -3, 16, -5, -1, -7, 15, 7, 33, -4, 1, -3, -15, 3, 11, 0, 57, 48, 8, -21, -4, 5, 13, 0, -40, -74, 7, 3, 6, 3, -8, 0, 3, -22, 38, -2, 3, 6, 2, 5, -5, -61, 4, 1, 6, 4, 9, 1, 9, -3, 10, -19},
{-54, -10, -1, 6, -7, -7, 6, -12, 9, 20, -10, 31, 6, -31, 21, 41, -10, 9, 13, -10, 11, 1, 0, -28, -6, 13, 18, -25, -20, -13, -8, -4, -2, 16, 5, -13, -2, -3, -12, -27, 13, 21, 6, -55, 21, 3, 2, 3, 11, -8, -12, -1, -5, 8, -6, 1, -10, -18, -8, -2, 46, -28, 7, 23, -5, 0, -25, 11, -34, 18, 4, 5, -16, 6, -3, 0, 3, 36, 26, 7, -1, -23, -11, 5, 21, -9, -6, 24, -38, 8, -3, 4, -14, -9, -17, -19},
{-18, -10, -7, 41, 11, 39, 95, -26, -47, -5, -17, 15, 17, 44, 0, 14, 12, -14, -5, -3, -10, -31, -9, 30, -7, -52, 16, -21, -40, -17, -55, 32, -4, -64, -37, 6, 22, 19, -35, 7, -29, -25, -21, 17, 67, -25, -16, -24, 5, 28, -42, 73, 33, -2, -2, 7, 13, -23, 3, 0, 4, 22, -18, -29, 22, 8, 11, 45, -95, -5, -15, 31, 45, -29, 32, -18, -14, 6, -12, -1, 1, -26, 9, 6, 5, -27, 17, -10, -68, -5, -4, -10, 24, -18, 21, -2},
{-13, -86, -68, 7, 33, 17, 27, 78, 30, -29, 68, 14, 17, 40, 2, -4, 29, -13, -21, -13, 3, 14, 38, 126, 30, 22, 10, 33, -87, 12, -31, 59, -10, 52, 8, 23, 35, 10, -11, -5, -7, 36, -3, -54, -58, 12, -24, -2, -101, 30, 10, -12, -24, 1, 48, -68, 20, 19, -12, 25, 6, 12, 12, -9, 1, -20, 43, -47, 22, -15, 54, 39, 10, 44, 20, -87, -9, -10, 54, -75, -6, -3, 30, -1, -71, -8, -17, 28, 25, -24, -57, 7, -2, -16, 56, 9}};

const ap_int<8> blocks_0_mlp_linear_1_b[96] = 
{-13, -6, 2, 1, -24, -18, 2, -19, -4, -5, 4, -11, -12, 4, -15, -21, -13, 3, 2, 1, 7, 10, -5, -5, -4, 2, 1, 11, -1, -25, 2, 3, -17, -14, 20, -17, 3, 3, 0, 27, -14, 6, 2, 0, 16, 7, -1, -1, -1, 6, -19, -4, 4, -4, -13, -2, -6, -15, -17, 7, -5, 1, -10, -32, -7, -14, -23, -1, -66, 3, 1, 1, -8, -2, -6, -2, 0, -20, -17, -3, -12, 6, -12, 9, -1, 18, 12, 4, -21, 7, 7, 1, -4, 20, 5, 11};

const ap_uint<8> blocks_0_mlp_linear_1_s[96] = 
{8, 8, 7, 8, 8, 8, 8, 9, 8, 8, 7, 8, 6, 8, 8, 9, 8, 7, 7, 7, 8, 7, 7, 8, 7, 8, 8, 8, 8, 8, 8, 7, 8, 9, 8, 8, 8, 8, 8, 8, 7, 8, 7, 8, 8, 8, 8, 7, 7, 8, 8, 8, 8, 6, 7, 7, 8, 7, 8, 6, 8, 8, 7, 8, 8, 6, 8, 8, 8, 7, 8, 7, 8, 7, 7, 7, 7, 8, 8, 7, 6, 8, 7, 7, 8, 8, 7, 8, 8, 7, 8, 6, 8, 6, 7, 8};

const ap_int<8> blocks_0_mlp_linear_2_w[96][96] = 
{{13, 117, 26, -5, -20, 16, -24, -81, -75, -20, -11, 20, -23, -16, -23, -4, -17, 2, -6, -30, -30, 58, -80, -7, 19, 37, 14, 9, -24, 15, -60, 11, 16, -30, 17, 45, 37, -25, 33, 36, -20, -57, -59, -32, 41, 2, 15, 2, 3, -45, -90, 51, 56, -17, 16, -32, 66, 16, 19, 62, -1, -6, 5, -43, -1, 22, 65, 3, 32, 15, -20, 43, -11, -37, -65, 1, -20, 16, -19, 100, 16, 31, -46, -44, -34, -70, 13, 49, -1, -7, 71, -13, -37, -51, 68, 14},
{5, 17, -38, 16, -48, 18, 43, 22, 63, -28, 2, -15, 22, 9, -9, 21, 18, -15, -3, 4, 14, 33, 11, 62, 14, 13, 2, -4, 25, 16, -22, -67, 17, -3, 7, 16, -14, -44, 19, -11, -6, -31, 2, -21, 33, -17, -6, -7, -14, 6, -18, -2, -36, -10, 47, 38, -2, 4, -8, 88, 4, 0, -27, -43, -6, 23, -32, 1, -11, 3, 55, 15, 33, 38, -18, 12, 0, 11, -5, -8, 14, -2, 20, -73, 40, 83, -23, 0, 16, 7, -29, 9, 69, 16, 33, 43},
{17, -48, 28, -1, 18, -31, 42, 3, 35, 16, -81, -5, -42, -1, 23, 1, -9, 18, -12, 39, 0, 26, -11, 5, -38, 54, 86, 30, -35, -2, 13, -59, 28, -6, -25, -34, 16, -39, -35, 9, -2, -33, 20, 40, 6, -10, -3, 8, -38, 13, 36, -1, 44, 17, -11, -16, -9, 34, 31, -15, 17, -1, 43, 7, 16, -12, -42, 47, 9, -126, -16, 16, 4, 9, -50, -13, 0, -40, -1, 27, 20, -82, 20, -10, 15, 28, 18, 13, 10, 33, -25, -39, -59, 18, -64, -2},
{-19, 69, -23, 12, -2, 20, -55, -1, 75, 4, -23, -32, 13, 10, 1, 54, -2, -61, -28, 41, -16, -10, 35, 24, 9, -12, 48, -32, 7, 18, 1, -7, 12, -6, -5, 50, 3, 40, -2, -31, -4, 40, -23, -21, -54, 1, -13, -6, -12, -4, -16, 27, 22, 48, 40, 5, 9, -20, 3, -52, 31, 18, -22, -46, 25, -21, 18, -16, 0, 12, 21, 5, -26, 10, 12, 13, 16, -7, -57, 10, -32, 3, -22, -23, 28, 12, -16, 17, 39, -14, -4, -21, -6, 14, -6, -30},
{-9, 54, 3, 4, -8, 32, 4, 100, 15, -35, -18, 36, -21, 57, 22, 19, 22, 36, -41, 59, 8, -5, -1, -1, -3, 8, 54, -1, -17, 1, 2, -25, 12, -4, -44, 40, -5, 13, -60, 14, -65, 67, 0, 0, -19, 8, 18, 38, -75, -38, 35, -31, 48, -18, 1, -1, -29, -2, -1, -39, -2, 12, 48, 5, -3, 23, 5, 5, -10, 51, 1, -21, -22, -80, -24, 14, -14, 5, -6, -10, 20, 58, -14, 21, 6, -28, -26, -1, -14, -14, 36, -34, -32, -8, -50, -34},
{0, 36, 46, -17, -8, 77, 17, 24, 21, -18, -7, 31, 20, 4, 22, -2, 20, -9, 8, 2, 5, 58, -43, -65, 10, -71, 17, 16, -1, -30, 17, -2, 5, 28, -38, 20, -43, -31, -28, -13, 5, -42, 1, 30, 10, 41, 0, 79, -17, -43, 2, -16, 4, -3, -18, 14, 10, 18, -3, -8, -18, 21, 38, 20, -34, 13, -3, 1, -2, -23, 9, -16, 12, -76, -7, -25, -3, 18, 30, -27, 26, 26, 10, 3, -26, -11, 2, -7, -3, -31, 34, -39, -21, 15, -29, 1},
{34, 19, 18, 11, -30, 66, -54, -3, 22, -2, -50, -54, 6, 12, 28, -19, 23, 23, 62, 36, -12, -31, -49, 73, 2, -22, -5, -44, 10, 32, -51, 39, -15, 38, -16, 17, 43, -42, -2, 5, 25, -16, 3, 21, 52, -22, -15, -11, 59, -7, 12, -24, 7, -5, 77, 28, -6, 42, -30, -16, 94, 7, 15, 9, 20, -29, 8, 29, 17, -30, 1, -9, 27, -31, 8, 21, 87, 16, 12, -7, -80, 49, -73, 56, 15, -4, 0, -11, 31, -3, -45, -28, 10, 24, -2, -71},
{19, 17, 9, -19, -12, 52, -72, -37, -81, -2, -5, -55, 63, 28, 56, -4, -6, 62, -80, -41, 2, 15, 1, -21, 9, -9, -9, -14, -28, 25, -42, -2, -31, -18, -28, 11, -17, 40, 50, 116, 31, 12, -8, 22, -19, 5, 44, -16, -25, 16, -9, -36, -2, -1, -9, 10, -52, 21, 19, 31, -38, 34, 81, 44, -21, 60, -19, 66, -20, -89, 105, 20, 13, -22, -9, -102, 31, 6, 32, 25, -31, 23, 2, 0, -10, -22, -5, 5, 25, -18, 60, -19, 26, 28, -23, -37},
{-16, -40, 7, -28, 91, 47, -2, -2, -32, 47, 17, -48, -10, -12, -31, -11, -40, -14, -7, -60, -1, -15, 20, -103, -2, 9, 22, -18, 24, 9, -35, -57, 22, 8, 83, 4, -21, -18, 31, 3, 30, 4, 36, -17, 40, -16, -16, 37, -4, 11, 15, -40, -10, 32, 11, -40, 33, 8, 0, 44, -65, -15, -14, 5, -7, 23, -40, -57, 8, -30, 6, 8, -53, 4, -7, -34, -44, -21, -2, 0, 25, 9, 31, 6, -8, -27, 24, 6, -17, -10, 73, -47, -32, 1, -5, 5},
{-56, -5, 2, 13, 48, 6, -77, -12, 31, 70, -11, 51, -32, 26, -22, 51, 20, -48, -49, 8, -15, -4, -10, 20, 36, 0, 41, 38, 11, -2, -25, 43, 29, 7, 15, 20, 2, 36, 28, -12, -35, 24, -2, 59, 33, 24, 10, 1, 7, 29, 28, 24, -11, -8, 2, -31, 37, -32, 6, 2, 36, -10, -53, 26, 25, -14, -56, -52, -14, 67, 49, 7, 11, 51, -9, 27, 7, 24, -27, -19, 1, -42, -35, -7, 7, 1, 3, -1, 29, -13, 10, 40, -16, -8, 34, 5},
{43, -12, 18, -11, -19, 67, -34, 7, 18, 35, -53, -7, -12, 16, -12, -31, 0, 27, -29, 1, -7, 19, 9, 79, -13, -26, -7, -24, -13, -23, -19, 20, 19, 33, -50, -3, 26, 12, 24, -4, 7, -59, -6, -4, 32, -9, 13, 23, -4, 8, -9, -7, 18, -20, -29, 34, 13, 56, -15, -3, 121, 17, 29, -16, 26, -46, -10, -15, -2, -52, 18, -30, -4, -23, 11, -5, 35, 3, 21, -5, -42, 20, -62, 38, 8, -6, -27, -3, 12, -8, -29, 16, -68, 24, 26, -68},
{2, -84, -22, -4, -70, -70, -41, -15, -59, -46, -30, -25, -7, -18, -4, -54, -1, -13, -22, -10, -33, -23, 83, 37, 39, 36, -57, 20, -66, 27, 53, -13, -55, -23, 7, -23, -3, -40, -37, -5, -17, -1, 23, -19, 35, 23, -7, -11, -13, -30, 117, 26, 29, -18, 28, -11, -17, -17, -34, 47, -29, 13, 24, 20, 14, 8, -39, 32, -12, 49, 83, -2, 52, 21, 40, 56, -61, 68, 6, 28, -4, 3, -11, 35, -4, 33, 107, 5, 3, -8, 58, -5, -31, 16, -21, 1},
{55, 47, 38, -7, -3, 49, 46, 8, -20, -5, -10, 0, 12, -30, -33, -48, 16, 19, 24, 14, 1, 47, -5, 8, 16, 14, 23, 4, -49, -25, 1, 26, -14, 6, 40, 29, 19, -44, -28, -3, 16, -38, -18, 2, 24, 16, 8, -17, 30, 7, -2, 38, -10, -50, -74, 26, -11, -26, 13, 7, 78, 8, 1, 4, 17, -18, -31, 5, 3, -58, -110, 2, 0, -35, 21, -4, 7, -21, -4, -67, -39, -31, -22, 39, -16, 8, 36, 31, 10, -11, -8, 0, 15, 66, -22, -36},
{-46, -35, 16, -40, 19, 35, 32, 26, -22, 60, -1, 23, -10, -15, -29, 14, 7, 53, -14, -81, 10, -23, 16, 20, -5, -11, 65, 34, -14, -34, -12, 23, 20, 0, 49, 66, -33, -25, -53, 2, -18, -24, 3, -17, -44, -9, -9, 34, -34, -13, -33, -4, -26, 24, 43, -9, -6, 14, -11, -43, -67, -2, -2, 23, -18, 19, -71, 8, 21, -91, 1, 1, -23, -20, -69, -71, -39, 6, 5, -23, 53, 27, -26, 6, 22, 75, -21, -6, -23, -17, -18, -46, -19, 3, -19, -7},
{-17, 34, -10, 8, -45, 29, 100, -44, -11, -5, 19, 3, -15, -13, -23, -16, -20, 74, -15, -33, 28, 31, 45, -38, -3, 24, -21, 14, 18, 29, 85, 19, -16, -26, -3, 30, -3, 35, -48, -33, -6, -6, -21, -8, 44, 5, 6, 2, -19, -19, -29, 22, -40, -23, -42, -9, 30, 25, 7, -26, -6, 6, -15, -16, -57, 34, -28, -34, 9, -18, -48, 20, 55, -37, -42, -1, 2, -62, 7, -20, 37, 2, 51, -19, 2, 72, 5, 22, -2, -13, 13, 31, -15, 17, -19, 11},
{-36, 63, -11, 18, 16, 8, 15, -87, -60, 10, 47, 43, 21, 17, -6, -27, 17, 14, 34, -31, -6, -6, -24, -67, 8, 23, -28, 29, -15, -20, -97, 32, 84, 36, -12, -17, 0, 11, -41, 21, -18, -19, 12, -77, 5, -11, -11, 26, 5, 27, 21, 14, 20, 8, 17, -26, 39, -15, -11, 4, 22, 5, -32, -18, 2, 107, -78, -63, 40, -9, 26, -8, 54, -45, -29, 52, 11, -80, -6, 36, -15, 19, 36, -58, -10, -43, -35, 44, -30, -22, 14, -50, -108, -10, 22, -8},
{12, -3, 10, 12, 16, 54, 35, -15, 25, 7, 14, -43, 20, 41, -24, -20, -3, -3, -32, 0, 22, -74, -6, -40, 68, 1, 46, -48, -5, -36, -4, -1, 0, 90, -30, -7, -3, 3, -25, -13, -8, -14, -18, -15, -9, 29, 42, 9, 23, 25, -95, 58, -15, 1, 89, -10, 7, -29, 25, 41, -1, -47, -29, -10, 32, 26, -61, -19, -30, 36, 17, 11, 13, -37, -34, -5, 56, 6, 8, 53, -16, -39, -17, -20, -1, -62, -22, -76, 71, 62, 79, 43, 41, -35, -29, 6},
{29, -5, -17, 21, 3, -15, 22, -52, -5, -4, -5, 21, 11, 35, -57, -18, 3, -15, -44, 5, 28, 55, 20, -2, -1, 4, -47, 32, 17, -10, 24, -38, -9, 14, -6, -48, 51, -24, -3, -6, 20, -55, 0, 18, 7, 13, 13, 10, 3, 22, 30, 45, 0, 17, -9, 27, 13, -23, 19, 68, 5, -6, -39, -18, -4, 3, 19, -8, -12, 32, -3, 15, 70, 55, 0, 2, -27, 17, 15, -15, 0, -4, 29, -5, -1, 58, -21, -18, 14, 25, -32, 3, 28, -23, 24, 62},
{-20, 13, -9, -15, -28, 9, 31, 96, -1, -29, 41, -28, -45, 5, 16, 7, -33, 48, -42, -22, -5, 15, 16, -15, -11, -24, 12, -20, -16, -43, -26, -14, -7, -32, 10, 12, 17, 5, -12, -6, -19, 31, 0, -41, 61, 17, 3, 3, -23, -20, -15, -51, -8, -3, -1, -6, -18, 25, 7, -60, -45, 7, 64, 9, -11, 22, 17, 36, 5, -78, -17, -14, -55, -126, 0, -24, -11, 11, -3, -15, -8, 20, -50, -29, -32, -22, -4, 29, -26, -32, 19, -13, -75, -12, -37, -17},
{-36, -5, -7, -19, -57, -4, -33, 82, 46, -29, -24, -63, 64, -54, 12, 17, 60, -57, -40, 51, -24, 43, 22, -11, 24, -29, -34, 14, -16, 24, 23, -8, -34, -18, -25, 33, 7, 18, 3, -19, 0, 25, 26, -21, -17, -18, -10, -25, -12, -21, -32, 25, -10, -7, 51, -18, -24, 12, 20, -8, 14, -36, -20, -7, 23, 8, -25, -20, -5, 5, 73, 38, -2, -59, 24, 13, 18, -5, -28, -25, -7, -80, -29, -19, 16, 7, 33, 12, -22, 1, 72, -45, -46, 10, -6, 20},
{-2, -77, -11, 16, 38, -38, 44, -23, 26, 19, 28, -12, -71, 53, 9, 24, 6, 50, 24, 7, 1, -51, 8, -31, -10, -32, 67, 11, -33, 6, -5, 31, 12, -1, 25, -50, -30, 6, 14, -6, -14, 7, -12, 3, -8, 20, 17, 41, -1, -6, -41, 45, 13, -33, 58, -4, 45, 7, -22, 66, -8, -14, 13, -12, 33, 34, 5, 20, 19, 1, -8, -6, -90, -1, 2, 40, -4, -33, 4, 52, -107, 15, 10, -51, 20, 25, -33, 3, -14, -4, -42, -33, 64, 19, -7, -11},
{-35, -45, 11, -2, 4, 29, -51, 26, 3, 7, -24, -53, 44, -53, -6, 16, 66, -72, -7, 31, -22, 26, 42, -48, -15, 26, 43, 20, -31, 12, -1, 19, -40, -5, -52, -17, -12, 36, 27, 45, -11, 32, 4, -4, -21, 0, -19, -29, -16, 1, -37, 39, -46, -25, 0, -5, 10, 11, -15, -9, 8, -18, -25, 48, 22, -25, -5, -26, -13, -14, -1, 22, -4, -2, 14, 6, 34, 4, -21, -62, -37, -59, -49, 7, -5, -6, 9, 5, 8, 18, 82, 4, -67, -17, 53, 29},
{18, -73, -11, -9, 32, -18, 19, -63, 22, 5, -27, 34, -24, 32, -11, -15, 10, 19, -5, -2, -1, 36, 33, -14, -18, 83, -5, -3, -24, 45, 51, 9, 22, 32, -22, -25, 4, -32, -18, -19, 8, -27, -7, 34, -17, 44, 51, 4, 15, 11, 26, 35, 60, 6, 6, 7, -28, 53, 7, -27, -93, 19, 24, -6, -10, -45, -16, -5, -3, -126, -69, 43, 30, 2, -41, -46, 4, 4, -4, -14, -7, -51, 25, -23, -5, 21, 15, 12, 0, 1, -24, 4, 14, 7, -36, -13},
{40, -10, -6, 17, -29, 1, 57, 11, 13, -47, 11, 66, 15, 83, -43, 5, -33, 48, 7, -33, 23, 29, 16, 8, -1, 52, 13, 39, 8, -8, 57, 19, -13, -16, -5, 3, 18, 2, -16, 3, -29, -19, -11, 23, 47, 32, 23, -32, -11, -11, 17, 36, 3, -45, 37, 12, -14, -41, -10, 43, -10, -20, -28, 2, -11, 0, 16, 20, -6, -20, -1, 7, 17, -3, -17, 34, -25, -11, 2, 26, 21, -15, 47, -14, 3, 90, -3, -13, 1, 15, -69, 36, 109, 8, 9, 25},
{34, 1, -34, 14, -41, 6, 82, -14, 41, -22, -5, -2, 30, -1, -67, -3, 48, -32, -43, 15, 20, 37, 28, 54, 7, -24, -54, 9, 4, -11, 19, -54, 8, 29, -20, 26, 33, -50, 30, -12, 3, -48, 0, -10, 5, -7, 24, 42, -20, 14, -12, 26, -4, 7, 68, 61, 30, -4, -4, 69, 30, -2, -14, -40, 2, 7, -17, -2, -26, 34, 31, -7, 56, 59, -3, -43, -40, 39, 0, -17, -7, -9, 19, -27, 36, 88, -39, 9, 12, 11, -17, -12, 14, -7, 29, 50},
{-35, -37, -6, 7, 30, -11, -52, -23, 9, 30, -20, 8, 15, 56, -16, 41, 41, -39, -24, 7, -4, -38, -45, 34, 37, 22, 37, 10, 23, 26, 1, 17, 23, 6, 18, 17, 5, -14, 8, -12, -40, 22, 9, 26, 56, 15, 11, -7, 13, 2, 11, 4, -34, -35, 48, -8, 27, 1, -18, 43, 5, 13, -65, 1, 5, -14, 7, -46, 3, 52, -4, 9, 52, 53, 12, 57, 48, 14, -5, 6, 59, -28, -7, -39, 18, 6, 8, 0, -5, -1, 16, -4, 70, -5, 41, 26},
{33, -30, -5, -27, -85, -2, 2, -30, 14, 8, 5, 27, 14, -13, -42, -37, -2, -7, -20, -25, 15, 44, 39, -27, -7, 6, -72, -4, -4, 8, -44, -33, 2, 2, -9, 2, 24, -17, 46, -15, 26, -63, -12, 0, 38, -5, 25, 21, -22, 20, 34, 38, -2, -13, -47, 45, 21, 9, -11, 36, 55, -2, -25, 0, 9, -21, -30, -5, -17, 47, 48, -35, 32, 49, 19, -13, -3, -24, 23, 1, -17, -4, 42, -23, 44, 15, -8, -9, 12, 21, -23, 46, 10, -14, 40, 24},
{21, 48, 9, -7, 4, -80, -41, 20, -8, -33, 45, 35, -19, 74, 4, -8, -6, -27, -18, -2, 0, -9, -20, -1, 20, 55, -10, 4, -23, 3, -12, -13, -4, -11, -33, 27, -11, -23, -39, -22, 6, -23, -3, -17, -53, 11, 6, 10, 32, -27, 19, -16, 25, -14, 88, 12, 0, -9, 13, 47, -7, -7, 15, 20, -15, -3, 25, -40, -13, 13, -12, 13, -11, -76, 25, -39, -5, 2, 10, 36, -17, -7, -20, 34, -40, -41, 65, 53, -26, -12, 20, -2, 17, -2, 38, 6},
{-9, 48, 15, 7, 18, 6, -1, 72, 11, 24, -39, 10, 20, 23, -3, 27, 13, -22, 25, 9, 22, -29, 6, -61, -1, -17, 43, 15, 11, 9, -9, 13, 6, -23, -50, 6, -7, 13, -16, 25, -33, -8, -3, 51, 15, 15, -7, -6, -32, -11, 11, 19, -12, -16, -92, 9, -30, 5, 17, 60, 1, 34, -3, -1, -28, -33, 29, -46, -33, -29, 1, -6, 23, -27, -12, -25, -5, -4, 19, 7, 56, 6, 6, 51, -18, -30, -14, -18, 9, 13, 63, 46, 32, 19, 43, 40},
{-21, -69, -9, 41, -10, -26, 55, 119, 26, -15, 34, -7, -27, 35, 26, 22, -8, -5, -4, 2, 8, 30, 0, 42, -26, 70, 67, 8, -14, -77, -8, 8, 17, -21, -20, 52, 18, 10, -40, 7, -63, 106, 4, 4, 32, 44, 43, -20, -26, 2, 19, 2, -12, -30, 18, 1, -36, 13, 14, 51, -31, 2, 27, -22, -10, 11, 73, 12, -22, -53, 36, -32, -68, -59, 5, 9, -28, 25, -7, -12, 26, 12, -34, -21, -2, -6, -11, 11, -21, -13, 52, 40, -20, 32, -46, 6},
{28, 32, 17, -10, -7, 53, -59, 8, -3, -2, -28, -45, 10, 14, 12, -22, 4, 13, 64, 21, -15, -6, -41, -12, 6, 5, -4, -30, 6, 37, -28, 12, -24, 11, -12, -1, 49, -18, -13, -5, 35, -21, -1, 6, 19, -25, -20, -8, 56, 0, -9, -7, -4, 2, 47, 6, -31, 46, -20, -57, 76, 8, 7, 17, 8, -19, -4, 26, 12, -5, -25, -11, 19, -24, 6, 16, 56, -2, 13, -5, -84, 24, -46, 23, 2, -19, -20, -12, 25, -1, -40, -32, 19, 22, 5, -59},
{-2, -25, -9, 24, 42, 12, 90, -10, -5, 18, 36, -34, -15, -4, -32, 7, 31, 13, -85, 13, 8, -9, 23, -1, -24, -14, -23, 73, -8, 21, 10, 30, -1, -6, -23, -14, 38, -22, -25, 22, -4, 22, 0, -32, 65, -30, 11, 25, -39, 4, -9, 21, 37, 24, 73, 51, 32, -2, 5, 14, -10, -14, 30, -3, 13, 17, 79, 15, -8, -15, 30, -8, -38, -66, -24, -63, -40, 19, 0, -48, -10, 46, -75, -6, -16, -6, -33, 6, -3, -21, -59, -18, -55, -49, -33, -6},
{9, 31, -26, 2, 3, 25, -1, -68, -54, -26, 15, -26, 64, 103, -12, 52, -6, 25, -33, -9, -2, -64, 72, 6, 0, -1, 9, -31, -42, 50, -52, -4, 7, 16, 23, -2, -5, -54, -119, -15, -10, -49, 15, 9, 32, 60, 25, 35, -13, -10, 119, 30, 6, -15, 72, -4, 5, -11, -4, -32, -40, 2, -5, -4, -28, 33, -62, 71, -21, -31, 36, 5, 24, 0, -23, 27, 36, 23, -8, 32, 14, 32, 7, 13, 2, 47, -35, 5, 56, 58, 20, 62, 1, 16, -32, -14},
{21, -89, 2, -10, 43, 46, 40, 55, -33, 37, 17, 28, -15, 16, -1, -1, 56, 35, 16, 22, 29, -13, 17, -38, -31, 14, 83, 10, -20, -14, 17, -65, 29, 35, 37, -12, -5, -30, -29, -12, -8, 43, -5, -10, -32, -7, 33, 36, -33, -2, -27, 14, 1, -4, -6, -14, -31, 7, 5, 113, 15, -2, 32, 13, 1, 27, -11, 22, 34, 76, 62, -45, -68, -31, -14, 10, 35, -24, 8, -23, 6, -5, 31, 24, 1, -42, -21, -7, 15, -19, 50, -24, -23, 12, 6, -19},
{7, 83, 19, -41, -12, -8, 50, -12, 8, 37, -15, -1, 15, 42, 17, -29, -1, 48, -21, -39, -18, -71, 67, -56, 18, -42, -3, -10, -20, -52, 18, 26, -3, -30, 10, 34, -31, 9, -20, -17, 14, -38, -14, 5, -55, 40, 54, 0, -10, -11, 28, 15, 53, -46, 10, -15, -34, -21, -6, -18, 1, -6, 20, -64, 19, 77, -15, -55, 29, 10, -15, 9, -41, -21, -34, -24, -19, -2, 4, -8, -11, 26, -17, -51, 25, 33, 2, -58, 6, -23, -9, -42, 20, 7, 43, -15},
{-9, 53, 1, 10, 14, 12, 22, 103, 25, -30, 17, -7, -8, 18, 14, 33, 24, -19, 21, 11, 9, -15, -29, -70, 6, -27, 76, -7, -19, 23, 77, -1, -3, -33, -22, 3, -29, -22, -37, -7, -46, 42, -1, 21, -4, 8, 3, -15, -26, -27, 13, -2, 18, -20, 80, -13, -64, 2, -10, -5, -22, 11, 34, -7, -20, 0, 31, 46, 4, -32, -18, -13, -20, -93, -22, 5, 36, 17, 11, -3, 33, 8, -13, 2, 12, -53, -24, -16, -21, -8, 48, -48, -5, 0, -5, 6},
{18, 2, -40, 35, -6, -25, -1, 24, 3, -30, -16, 16, 4, 63, -51, 29, -7, -20, 28, -32, 25, 15, 16, -6, 34, -7, 27, -23, -8, -24, 20, -14, 5, -5, 7, 18, 14, -35, -14, 7, -30, 43, -3, 53, 3, 23, 13, 15, -25, -7, -13, 18, 28, -14, 21, -3, 6, -49, -2, 62, -3, -17, -2, -9, -1, -7, 88, 11, -16, -34, 20, 18, 19, 14, 21, 19, -5, -6, -24, -9, -13, -19, 47, -6, 17, 23, -5, -11, 3, 4, 19, -45, -18, 24, -9, 25},
{1, 38, 2, 6, 1, 27, -68, 57, 57, 41, -57, 17, -23, 19, 26, 57, 10, -92, 30, 30, -15, 19, -14, 6, -9, 20, 82, -43, -5, -13, 37, 19, 10, 15, 17, 30, 16, 40, -25, -18, -3, 36, -39, 20, -39, 34, 0, 18, 1, -1, -9, 26, 34, 63, 26, 5, -4, -49, -2, -69, 43, 22, -16, -6, 23, -51, -25, -52, -4, 28, 38, -20, -14, 17, 2, 32, 30, 6, -60, 7, -11, 8, -9, -13, 0, 2, 15, -13, 41, -21, -9, -10, -18, 33, -10, -43},
{-29, -101, -14, -42, 13, -3, 5, -56, -25, -5, 49, 12, -35, -8, -29, -11, -34, 25, -22, -29, 1, -7, 17, -110, 8, 19, -17, 13, 5, 7, 47, -39, 12, -20, 9, -40, 8, 25, -40, -13, 41, -46, -2, -2, 41, -3, -12, -14, 54, 9, 22, 28, -29, 30, -26, -33, 27, 15, 12, -59, -9, 4, -46, -18, -6, 45, -46, 6, 20, 93, -74, 18, -5, 52, -35, 25, -5, -20, 3, 24, -5, -32, 96, -32, -10, -11, 3, -22, 6, 10, -69, 33, 77, 4, 5, 23},
{-26, 17, -3, -9, -7, -9, 47, -76, -13, 41, 7, 11, -4, -68, -17, -11, -6, -16, 2, -30, 5, -52, -7, -36, 12, 23, 41, 48, 20, 86, -30, 22, 52, 24, -27, 9, -2, 40, 22, 19, -10, -80, 20, -50, -79, -25, -56, -45, -27, 4, -11, 39, -29, 4, 45, -36, 23, 34, -42, 65, -5, -9, -22, -27, -5, 53, 50, -43, -20, 28, 22, -2, 11, -18, -1, 44, 22, -62, -10, 59, -7, 51, 17, -62, -26, -24, -68, 59, -40, -23, 41, 12, -52, -78, -29, -25},
{15, 50, 20, -70, -29, 31, -6, 13, -69, -32, 56, 62, 26, 5, -33, -38, -17, 18, -12, -67, -10, 10, -10, -5, 16, 29, -3, 4, -27, -64, 24, 70, 23, -26, 60, 46, 1, 1, -11, 18, 17, -29, -20, -16, -11, 24, 41, 35, 27, -9, -33, 1, 6, -48, 31, -2, 22, -71, -1, -16, 34, 1, -21, -10, 3, 11, -14, -43, 13, -50, -71, 0, -5, -11, 17, -53, -11, -5, 7, -44, 28, 11, 3, 39, 0, 41, 17, 21, -9, -20, 16, -36, 15, 32, 14, 16},
{-37, -62, -13, 15, -69, 67, 5, -16, -4, -23, 17, 13, 25, -58, -34, 18, -33, -32, 14, -42, 26, -19, 32, -47, -22, 17, 59, -32, 4, 23, 58, 73, -10, -8, -14, -30, -20, -7, 13, -8, 7, -44, -23, -4, 101, -8, -15, -29, -5, 16, 26, -30, -34, 20, -98, -14, 15, 13, 3, 30, -48, -17, -31, -24, -39, -11, -45, 23, -3, -89, 39, 16, -2, 34, -10, -24, -13, -17, 9, -12, 11, -45, 45, -68, 4, 42, 9, 14, -16, 25, 11, 15, 33, -26, 3, 12},
{-23, 54, -57, 6, 24, 13, 8, 83, 4, 8, -19, -13, -11, 0, -16, 34, -49, -44, -9, -10, 16, 5, 33, -20, -12, 3, 41, -13, -13, -26, 2, -24, 9, -30, -3, -3, 14, 41, -18, -3, -5, 72, -22, -12, -10, -5, 1, 40, -46, -1, -32, 34, 32, 69, -14, 19, -16, -69, 32, -12, 14, 0, 30, -8, 14, 3, 54, -11, -19, -16, 18, 4, -52, -32, 7, -24, -32, -21, -49, -20, -23, 3, -14, -46, -14, 1, -16, 2, 16, -13, 3, -15, -114, -18, -43, -19},
{-34, 77, 20, -2, -42, 25, 14, 67, -58, -5, -41, 5, 33, 39, -41, -5, 3, 10, 28, -64, 0, -15, 26, 59, -3, 31, 20, 56, -11, -72, 43, -39, 3, -21, 53, -42, 25, 30, 9, 11, -23, -16, 21, -24, -7, -10, 28, 26, 38, -5, 27, -4, -14, -57, 53, -26, 2, -42, 1, -27, 25, -36, -39, 24, 22, -20, -48, -44, -1, 16, 12, 15, 13, 44, -30, 39, 8, 9, -11, 27, 37, 1, -25, 23, 22, 2, -6, -21, 35, -27, -27, -7, 30, -11, 10, 10},
{9, 6, 2, 18, -7, 14, 39, 77, 17, -11, -21, 1, -4, 32, 12, 21, -15, 3, -11, 13, 2, 38, 14, -5, -10, -12, 57, 12, -8, -20, 3, -8, -15, -2, -25, 19, -14, -2, -6, 10, -63, 74, -3, -29, -7, 30, 34, 18, -37, -16, -9, -6, 4, -10, -5, 1, -20, 16, 12, 50, -28, 0, 46, -7, -6, 13, 37, -9, -21, -63, 24, -29, -54, -55, 0, -4, -3, 18, 3, 19, 20, 23, -39, -4, 7, -1, -11, 14, -23, -2, 67, -11, -54, 20, -39, 4},
{23, 37, -13, 1, -15, 40, -57, 80, 53, 29, -29, -6, 30, -5, 14, 17, -19, -68, 27, 27, -15, -17, 2, 24, 9, 40, 56, -43, -3, 5, 21, -3, -4, 19, -18, 43, 8, 24, -6, 5, 8, 62, -43, 4, -30, -8, -5, 28, -14, -6, -40, 46, 42, 82, 36, 15, -40, -53, 1, -89, 46, 24, 2, -17, 16, -15, -6, -75, -7, -33, 30, -35, -59, -6, 8, 60, -28, 8, -74, 0, -42, 12, -5, -31, 6, -25, 0, -11, 20, -14, -45, -13, -25, 24, -25, -52},
{-67, -13, -8, 11, 20, -2, -36, -44, 41, 11, -25, 28, 0, 56, -14, 51, 35, -39, -52, 10, -11, -1, -14, 27, 27, -5, 30, 8, 22, 9, -3, 18, 25, -2, 32, 21, -2, 23, 3, -32, -30, 11, 12, 36, 19, 28, -3, -26, 25, 0, 1, -6, -34, -29, 43, -16, 41, 5, -9, 43, 6, 4, -52, -16, 10, -8, 4, -10, 9, 66, -10, 30, 42, 36, 16, 17, 43, -1, -4, 31, 41, -26, -2, -34, 24, 15, 2, -5, 21, -7, 23, -15, 36, -3, 25, 23},
{13, 31, 12, 0, -29, -28, 13, -59, 6, -6, -15, 3, 46, -18, -25, -27, 37, -16, -48, 67, 17, 23, 3, 12, -21, -45, -67, 30, 24, -12, 32, -18, 1, 14, -29, -40, 26, -16, -4, 4, 35, -88, 4, 31, -7, -9, 0, 19, 17, 1, 16, 38, -9, 25, 23, 35, 24, 3, 8, 75, 49, -2, -21, 1, 2, -7, -12, -12, -18, 24, 33, 11, 72, 32, -9, -26, 10, 1, 23, -1, 4, 30, 36, 86, 3, -15, -22, -34, 3, 11, -18, 6, 24, -14, 37, 41},
{6, -76, 11, 15, -14, -25, 68, -7, 0, -30, 37, 40, 26, 9, -42, -8, -10, 3, 1, 12, 27, 76, 69, -16, 18, 46, -6, 10, -30, 14, 22, -14, -17, 1, -3, -41, 8, -10, -38, 4, 0, -14, 7, -6, 41, 50, -4, -22, -16, 13, 37, 51, -1, -41, -16, 27, 2, 0, 16, -26, -5, -17, -7, 4, -3, 7, 110, -38, 6, -65, -8, 6, 39, -28, 1, -52, -30, -13, -4, -15, -5, -77, -12, 15, 14, 61, 7, -8, -3, -3, 42, -5, 18, 6, -21, 83},
{-4, -71, -14, -29, -11, 1, -22, -114, -26, 22, 2, -6, -6, -32, -17, -35, -28, 6, -2, -50, -4, -4, 7, -9, 17, -20, -69, 0, 8, 6, -43, -33, 10, 24, 16, -23, 25, -8, 6, -15, 68, -54, -9, 9, 19, -8, -19, 5, 61, 24, 15, 22, -19, 37, -30, -2, 47, 18, 8, -14, 45, 2, -50, -5, 8, 12, -20, -22, 20, 66, -32, 11, 36, 91, -8, 26, 7, -16, 2, -18, -8, -4, 41, -2, -6, 0, 26, -4, 23, 15, -62, 39, 31, 9, 4, 4},
